digraph Tree {
node [shape=box, style="filled, rounded", color="black", fontname="helvetica"] ;
edge [fontname="helvetica"] ;
0 [label=<Algodon &le; 70.025<br/>gini = 0.626<br/>samples = 5052<br/>value = [3124, 197, 38, 3619, 1022]<br/>class = Mixto>, fillcolor="#ebebfc"] ;
1 [label=<Nylon &le; 6.305<br/>gini = 0.404<br/>samples = 3068<br/>value = [0.0, 197.0, 38.0, 3619.0, 1022.0]<br/>class = Mixto>, fillcolor="#7c7aed"] ;
0 -> 1 [labeldistance=2.5, labelangle=45, headlabel="True"] ;
2 [label=<Elastano &le; 6.79<br/>gini = 0.155<br/>samples = 1624<br/>value = [0.0, 110.0, 14.0, 2378.0, 89.0]<br/>class = Mixto>, fillcolor="#4d4ae7"] ;
1 -> 2 ;
3 [label=<Algodon &le; 18.145<br/>gini = 0.118<br/>samples = 1558<br/>value = [0, 103, 14, 2344, 38]<br/>class = Mixto>, fillcolor="#4946e7"] ;
2 -> 3 ;
4 [label=<Seda &le; 30.03<br/>gini = 0.373<br/>samples = 247<br/>value = [0, 83, 10, 299, 0]<br/>class = Mixto>, fillcolor="#7775ed"] ;
3 -> 4 ;
5 [label=<Lana &le; 49.89<br/>gini = 0.063<br/>samples = 195<br/>value = [0, 0, 10, 299, 0]<br/>class = Mixto>, fillcolor="#4340e6"] ;
4 -> 5 ;
6 [label=<gini = 0.0<br/>samples = 189<br/>value = [0, 0, 0, 299, 0]<br/>class = Mixto>, fillcolor="#3c39e5"] ;
5 -> 6 ;
7 [label=<gini = 0.0<br/>samples = 6<br/>value = [0, 0, 10, 0, 0]<br/>class = Lana>, fillcolor="#39e5c5"] ;
5 -> 7 ;
8 [label=<gini = 0.0<br/>samples = 52<br/>value = [0, 83, 0, 0, 0]<br/>class = Delicados>, fillcolor="#7be539"] ;
4 -> 8 ;
9 [label=<Poliester &le; 49.99<br/>gini = 0.058<br/>samples = 1311<br/>value = [0, 20, 4, 2045, 38]<br/>class = Mixto>, fillcolor="#423fe6"] ;
3 -> 9 ;
10 [label=<Seda &le; 30.015<br/>gini = 0.023<br/>samples = 1285<br/>value = [0, 20, 4, 2045, 0]<br/>class = Mixto>, fillcolor="#3e3be5"] ;
9 -> 10 ;
11 [label=<Poliester &le; 3.195<br/>gini = 0.004<br/>samples = 1271<br/>value = [0, 0, 4, 2045, 0]<br/>class = Mixto>, fillcolor="#3c39e5"] ;
10 -> 11 ;
12 [label=<Seda &le; 15.95<br/>gini = 0.308<br/>samples = 14<br/>value = [0, 0, 4, 17, 0]<br/>class = Mixto>, fillcolor="#6a68eb"] ;
11 -> 12 ;
13 [label=<Nylon &le; 5.165<br/>gini = 0.32<br/>samples = 3<br/>value = [0, 0, 4, 1, 0]<br/>class = Lana>, fillcolor="#6aecd4"] ;
12 -> 13 ;
14 [label=<gini = 0.0<br/>samples = 2<br/>value = [0, 0, 4, 0, 0]<br/>class = Lana>, fillcolor="#39e5c5"] ;
13 -> 14 ;
15 [label=<gini = 0.0<br/>samples = 1<br/>value = [0, 0, 0, 1, 0]<br/>class = Mixto>, fillcolor="#3c39e5"] ;
13 -> 15 ;
16 [label=<gini = 0.0<br/>samples = 11<br/>value = [0, 0, 0, 16, 0]<br/>class = Mixto>, fillcolor="#3c39e5"] ;
12 -> 16 ;
17 [label=<gini = 0.0<br/>samples = 1257<br/>value = [0, 0, 0, 2028, 0]<br/>class = Mixto>, fillcolor="#3c39e5"] ;
11 -> 17 ;
18 [label=<gini = 0.0<br/>samples = 14<br/>value = [0, 20, 0, 0, 0]<br/>class = Delicados>, fillcolor="#7be539"] ;
10 -> 18 ;
19 [label=<gini = 0.0<br/>samples = 26<br/>value = [0, 0, 0, 0, 38]<br/>class = Sintéticos>, fillcolor="#e539c0"] ;
9 -> 19 ;
20 [label=<Poliester &le; 49.685<br/>gini = 0.55<br/>samples = 66<br/>value = [0, 7, 0, 34, 51]<br/>class = Sintéticos>, fillcolor="#f7c5ed"] ;
2 -> 20 ;
21 [label=<Seda &le; 29.655<br/>gini = 0.283<br/>samples = 29<br/>value = [0.0, 7.0, 0.0, 34.0, 0.0]<br/>class = Mixto>, fillcolor="#6462ea"] ;
20 -> 21 ;
22 [label=<gini = 0.0<br/>samples = 24<br/>value = [0, 0, 0, 34, 0]<br/>class = Mixto>, fillcolor="#3c39e5"] ;
21 -> 22 ;
23 [label=<gini = 0.0<br/>samples = 5<br/>value = [0, 7, 0, 0, 0]<br/>class = Delicados>, fillcolor="#7be539"] ;
21 -> 23 ;
24 [label=<gini = 0.0<br/>samples = 37<br/>value = [0, 0, 0, 0, 51]<br/>class = Sintéticos>, fillcolor="#e539c0"] ;
20 -> 24 ;
25 [label=<Lana &le; 0.225<br/>gini = 0.537<br/>samples = 1444<br/>value = [0.0, 87.0, 24.0, 1241.0, 933.0]<br/>class = Mixto>, fillcolor="#d3d2f9"] ;
1 -> 25 ;
26 [label=<Poliester &le; 49.98<br/>gini = 0.479<br/>samples = 968<br/>value = [0, 0, 0, 617, 933]<br/>class = Sintéticos>, fillcolor="#f6bcea"] ;
25 -> 26 ;
27 [label=<gini = 0.0<br/>samples = 383<br/>value = [0, 0, 0, 617, 0]<br/>class = Mixto>, fillcolor="#3c39e5"] ;
26 -> 27 ;
28 [label=<gini = 0.0<br/>samples = 585<br/>value = [0, 0, 0, 0, 933]<br/>class = Sintéticos>, fillcolor="#e539c0"] ;
26 -> 28 ;
29 [label=<Seda &le; 30.015<br/>gini = 0.264<br/>samples = 476<br/>value = [0.0, 87.0, 24.0, 624.0, 0.0]<br/>class = Mixto>, fillcolor="#5d5be9"] ;
25 -> 29 ;
30 [label=<Poliester &le; 6.505<br/>gini = 0.071<br/>samples = 423<br/>value = [0, 0, 24, 624, 0]<br/>class = Mixto>, fillcolor="#4441e6"] ;
29 -> 30 ;
31 [label=<Lana &le; 50.735<br/>gini = 0.262<br/>samples = 90<br/>value = [0, 0, 22, 120, 0]<br/>class = Mixto>, fillcolor="#605dea"] ;
30 -> 31 ;
32 [label=<gini = 0.0<br/>samples = 80<br/>value = [0, 0, 0, 120, 0]<br/>class = Mixto>, fillcolor="#3c39e5"] ;
31 -> 32 ;
33 [label=<gini = 0.0<br/>samples = 10<br/>value = [0, 0, 22, 0, 0]<br/>class = Lana>, fillcolor="#39e5c5"] ;
31 -> 33 ;
34 [label=<Elastano &le; 0.97<br/>gini = 0.008<br/>samples = 333<br/>value = [0.0, 0.0, 2.0, 504.0, 0.0]<br/>class = Mixto>, fillcolor="#3d3ae5"] ;
30 -> 34 ;
35 [label=<Lana &le; 47.455<br/>gini = 0.053<br/>samples = 52<br/>value = [0, 0, 2, 72, 0]<br/>class = Mixto>, fillcolor="#413ee6"] ;
34 -> 35 ;
36 [label=<gini = 0.0<br/>samples = 51<br/>value = [0, 0, 0, 72, 0]<br/>class = Mixto>, fillcolor="#3c39e5"] ;
35 -> 36 ;
37 [label=<gini = 0.0<br/>samples = 1<br/>value = [0, 0, 2, 0, 0]<br/>class = Lana>, fillcolor="#39e5c5"] ;
35 -> 37 ;
38 [label=<gini = 0.0<br/>samples = 281<br/>value = [0, 0, 0, 432, 0]<br/>class = Mixto>, fillcolor="#3c39e5"] ;
34 -> 38 ;
39 [label=<gini = 0.0<br/>samples = 53<br/>value = [0, 87, 0, 0, 0]<br/>class = Delicados>, fillcolor="#7be539"] ;
29 -> 39 ;
40 [label=<gini = 0.0<br/>samples = 1984<br/>value = [3124, 0, 0, 0, 0]<br/>class = Algodón>, fillcolor="#e58139"] ;
0 -> 40 [labeldistance=2.5, labelangle=-45, headlabel="False"] ;
}