digraph Tree {
node [shape=box, style="filled, rounded", color="black", fontname="helvetica"] ;
edge [fontname="helvetica"] ;
0 [label=<Algodon &le; 70.035<br/>gini = 0.624<br/>samples = 5091<br/>value = [3149, 201, 36, 3620, 994]<br/>class = Mixto>, fillcolor="#ececfc"] ;
1 [label=<Lana &le; 0.005<br/>gini = 0.399<br/>samples = 3092<br/>value = [0, 201, 36, 3620, 994]<br/>class = Mixto>, fillcolor="#7a78ed"] ;
0 -> 1 [labeldistance=2.5, labelangle=45, headlabel="True"] ;
2 [label=<Algodon &le; 18.67<br/>gini = 0.487<br/>samples = 1047<br/>value = [0, 0, 0, 694, 965]<br/>class = Sintéticos>, fillcolor="#f8c7ed"] ;
1 -> 2 ;
3 [label=<Poliester &le; 50.0<br/>gini = 0.314<br/>samples = 609<br/>value = [0, 0, 0, 189, 780]<br/>class = Sintéticos>, fillcolor="#eb69cf"] ;
2 -> 3 ;
4 [label=<gini = 0.0<br/>samples = 127<br/>value = [0, 0, 0, 189, 0]<br/>class = Mixto>, fillcolor="#3c39e5"] ;
3 -> 4 ;
5 [label=<gini = 0.0<br/>samples = 482<br/>value = [0, 0, 0, 0, 780]<br/>class = Sintéticos>, fillcolor="#e539c0"] ;
3 -> 5 ;
6 [label=<Viscosa &le; 4.985<br/>gini = 0.392<br/>samples = 438<br/>value = [0.0, 0.0, 0.0, 505.0, 185.0]<br/>class = Mixto>, fillcolor="#8382ef"] ;
2 -> 6 ;
7 [label=<Elastano &le; 14.86<br/>gini = 0.427<br/>samples = 384<br/>value = [0, 0, 0, 414, 185]<br/>class = Mixto>, fillcolor="#9391f1"] ;
6 -> 7 ;
8 [label=<Nylon &le; 12.5<br/>gini = 0.488<br/>samples = 277<br/>value = [0.0, 0.0, 0.0, 244.0, 179.0]<br/>class = Mixto>, fillcolor="#cbcaf8"] ;
7 -> 8 ;
9 [label=<Peso &le; 4.115<br/>gini = 0.434<br/>samples = 144<br/>value = [0, 0, 0, 68, 146]<br/>class = Sintéticos>, fillcolor="#f195dd"] ;
8 -> 9 ;
10 [label=<Fibra &le; 1.475<br/>gini = 0.41<br/>samples = 139<br/>value = [0.0, 0.0, 0.0, 59.0, 146.0]<br/>class = Sintéticos>, fillcolor="#f089d9"] ;
9 -> 10 ;
11 [label=<Viscosa &le; 2.645<br/>gini = 0.17<br/>samples = 41<br/>value = [0, 0, 0, 6, 58]<br/>class = Sintéticos>, fillcolor="#e84dc7"] ;
10 -> 11 ;
12 [label=<gini = 0.0<br/>samples = 20<br/>value = [0, 0, 0, 0, 32]<br/>class = Sintéticos>, fillcolor="#e539c0"] ;
11 -> 12 ;
13 [label=<Poliester &le; 49.84<br/>gini = 0.305<br/>samples = 21<br/>value = [0, 0, 0, 6, 26]<br/>class = Sintéticos>, fillcolor="#eb67cf"] ;
11 -> 13 ;
14 [label=<gini = 0.0<br/>samples = 5<br/>value = [0, 0, 0, 6, 0]<br/>class = Mixto>, fillcolor="#3c39e5"] ;
13 -> 14 ;
15 [label=<gini = 0.0<br/>samples = 16<br/>value = [0, 0, 0, 0, 26]<br/>class = Sintéticos>, fillcolor="#e539c0"] ;
13 -> 15 ;
16 [label=<Nylon &le; 8.075<br/>gini = 0.469<br/>samples = 98<br/>value = [0, 0, 0, 53, 88]<br/>class = Sintéticos>, fillcolor="#f5b0e6"] ;
10 -> 16 ;
17 [label=<Poliester &le; 50.18<br/>gini = 0.223<br/>samples = 33<br/>value = [0.0, 0.0, 0.0, 6.0, 41.0]<br/>class = Sintéticos>, fillcolor="#e956c9"] ;
16 -> 17 ;
18 [label=<gini = 0.0<br/>samples = 6<br/>value = [0, 0, 0, 6, 0]<br/>class = Mixto>, fillcolor="#3c39e5"] ;
17 -> 18 ;
19 [label=<gini = 0.0<br/>samples = 27<br/>value = [0, 0, 0, 0, 41]<br/>class = Sintéticos>, fillcolor="#e539c0"] ;
17 -> 19 ;
20 [label=<Elastano &le; 8.31<br/>gini = 0.5<br/>samples = 65<br/>value = [0, 0, 0, 47, 47]<br/>class = Mixto>, fillcolor="#ffffff"] ;
16 -> 20 ;
21 [label=<Algodon &le; 26.25<br/>gini = 0.17<br/>samples = 22<br/>value = [0, 0, 0, 3, 29]<br/>class = Sintéticos>, fillcolor="#e84dc7"] ;
20 -> 21 ;
22 [label=<gini = 0.0<br/>samples = 19<br/>value = [0, 0, 0, 0, 27]<br/>class = Sintéticos>, fillcolor="#e539c0"] ;
21 -> 22 ;
23 [label=<Elastano &le; 6.18<br/>gini = 0.48<br/>samples = 3<br/>value = [0, 0, 0, 3, 2]<br/>class = Mixto>, fillcolor="#bebdf6"] ;
21 -> 23 ;
24 [label=<gini = 0.0<br/>samples = 1<br/>value = [0, 0, 0, 0, 2]<br/>class = Sintéticos>, fillcolor="#e539c0"] ;
23 -> 24 ;
25 [label=<gini = 0.0<br/>samples = 2<br/>value = [0, 0, 0, 3, 0]<br/>class = Mixto>, fillcolor="#3c39e5"] ;
23 -> 25 ;
26 [label=<Elastano &le; 10.985<br/>gini = 0.412<br/>samples = 43<br/>value = [0, 0, 0, 44, 18]<br/>class = Mixto>, fillcolor="#8c8af0"] ;
20 -> 26 ;
27 [label=<Peso &le; 3.36<br/>gini = 0.499<br/>samples = 14<br/>value = [0, 0, 0, 11, 10]<br/>class = Mixto>, fillcolor="#ededfd"] ;
26 -> 27 ;
28 [label=<Peso &le; 2.955<br/>gini = 0.457<br/>samples = 11<br/>value = [0, 0, 0, 11, 6]<br/>class = Mixto>, fillcolor="#a6a5f3"] ;
27 -> 28 ;
29 [label=<Algodon &le; 24.925<br/>gini = 0.48<br/>samples = 7<br/>value = [0, 0, 0, 4, 6]<br/>class = Sintéticos>, fillcolor="#f6bdea"] ;
28 -> 29 ;
30 [label=<gini = 0.0<br/>samples = 4<br/>value = [0, 0, 0, 0, 6]<br/>class = Sintéticos>, fillcolor="#e539c0"] ;
29 -> 30 ;
31 [label=<gini = 0.0<br/>samples = 3<br/>value = [0, 0, 0, 4, 0]<br/>class = Mixto>, fillcolor="#3c39e5"] ;
29 -> 31 ;
32 [label=<gini = 0.0<br/>samples = 4<br/>value = [0, 0, 0, 7, 0]<br/>class = Mixto>, fillcolor="#3c39e5"] ;
28 -> 32 ;
33 [label=<gini = 0.0<br/>samples = 3<br/>value = [0, 0, 0, 0, 4]<br/>class = Sintéticos>, fillcolor="#e539c0"] ;
27 -> 33 ;
34 [label=<Algodon &le; 23.655<br/>gini = 0.314<br/>samples = 29<br/>value = [0, 0, 0, 33, 8]<br/>class = Mixto>, fillcolor="#6b69eb"] ;
26 -> 34 ;
35 [label=<Poliester &le; 49.925<br/>gini = 0.494<br/>samples = 15<br/>value = [0, 0, 0, 10, 8]<br/>class = Mixto>, fillcolor="#d8d7fa"] ;
34 -> 35 ;
36 [label=<gini = 0.0<br/>samples = 8<br/>value = [0, 0, 0, 10, 0]<br/>class = Mixto>, fillcolor="#3c39e5"] ;
35 -> 36 ;
37 [label=<gini = 0.0<br/>samples = 7<br/>value = [0, 0, 0, 0, 8]<br/>class = Sintéticos>, fillcolor="#e539c0"] ;
35 -> 37 ;
38 [label=<gini = 0.0<br/>samples = 14<br/>value = [0, 0, 0, 23, 0]<br/>class = Mixto>, fillcolor="#3c39e5"] ;
34 -> 38 ;
39 [label=<gini = 0.0<br/>samples = 5<br/>value = [0, 0, 0, 9, 0]<br/>class = Mixto>, fillcolor="#3c39e5"] ;
9 -> 39 ;
40 [label=<Poliester &le; 50.17<br/>gini = 0.266<br/>samples = 133<br/>value = [0, 0, 0, 176, 33]<br/>class = Mixto>, fillcolor="#615eea"] ;
8 -> 40 ;
41 [label=<gini = 0.0<br/>samples = 109<br/>value = [0, 0, 0, 176, 0]<br/>class = Mixto>, fillcolor="#3c39e5"] ;
40 -> 41 ;
42 [label=<gini = 0.0<br/>samples = 24<br/>value = [0, 0, 0, 0, 33]<br/>class = Sintéticos>, fillcolor="#e539c0"] ;
40 -> 42 ;
43 [label=<Nylon &le; 6.47<br/>gini = 0.066<br/>samples = 107<br/>value = [0, 0, 0, 170, 6]<br/>class = Mixto>, fillcolor="#4340e6"] ;
7 -> 43 ;
44 [label=<Algodon &le; 21.005<br/>gini = 0.5<br/>samples = 6<br/>value = [0, 0, 0, 5, 5]<br/>class = Mixto>, fillcolor="#ffffff"] ;
43 -> 44 ;
45 [label=<gini = 0.0<br/>samples = 2<br/>value = [0, 0, 0, 0, 3]<br/>class = Sintéticos>, fillcolor="#e539c0"] ;
44 -> 45 ;
46 [label=<Poliester &le; 49.495<br/>gini = 0.408<br/>samples = 4<br/>value = [0, 0, 0, 5, 2]<br/>class = Mixto>, fillcolor="#8a88ef"] ;
44 -> 46 ;
47 [label=<gini = 0.0<br/>samples = 3<br/>value = [0, 0, 0, 5, 0]<br/>class = Mixto>, fillcolor="#3c39e5"] ;
46 -> 47 ;
48 [label=<gini = 0.0<br/>samples = 1<br/>value = [0, 0, 0, 0, 2]<br/>class = Sintéticos>, fillcolor="#e539c0"] ;
46 -> 48 ;
49 [label=<Poliester &le; 50.63<br/>gini = 0.012<br/>samples = 101<br/>value = [0, 0, 0, 165, 1]<br/>class = Mixto>, fillcolor="#3d3ae5"] ;
43 -> 49 ;
50 [label=<gini = 0.0<br/>samples = 100<br/>value = [0, 0, 0, 165, 0]<br/>class = Mixto>, fillcolor="#3c39e5"] ;
49 -> 50 ;
51 [label=<gini = 0.0<br/>samples = 1<br/>value = [0, 0, 0, 0, 1]<br/>class = Sintéticos>, fillcolor="#e539c0"] ;
49 -> 51 ;
52 [label=<gini = 0.0<br/>samples = 54<br/>value = [0, 0, 0, 91, 0]<br/>class = Mixto>, fillcolor="#3c39e5"] ;
6 -> 52 ;
53 [label=<Seda &le; 29.99<br/>gini = 0.156<br/>samples = 2045<br/>value = [0, 201, 36, 2926, 29]<br/>class = Mixto>, fillcolor="#4d4be7"] ;
1 -> 53 ;
54 [label=<Lana &le; 50.175<br/>gini = 0.043<br/>samples = 1920<br/>value = [0, 0, 36, 2926, 29]<br/>class = Mixto>, fillcolor="#403de6"] ;
53 -> 54 ;
55 [label=<Poliester &le; 49.995<br/>gini = 0.019<br/>samples = 1901<br/>value = [0, 0, 0, 2926, 29]<br/>class = Mixto>, fillcolor="#3e3be5"] ;
54 -> 55 ;
56 [label=<gini = 0.0<br/>samples = 1880<br/>value = [0, 0, 0, 2926, 0]<br/>class = Mixto>, fillcolor="#3c39e5"] ;
55 -> 56 ;
57 [label=<gini = 0.0<br/>samples = 21<br/>value = [0, 0, 0, 0, 29]<br/>class = Sintéticos>, fillcolor="#e539c0"] ;
55 -> 57 ;
58 [label=<gini = 0.0<br/>samples = 19<br/>value = [0, 0, 36, 0, 0]<br/>class = Lana>, fillcolor="#39e5c5"] ;
54 -> 58 ;
59 [label=<gini = 0.0<br/>samples = 125<br/>value = [0, 201, 0, 0, 0]<br/>class = Delicados>, fillcolor="#7be539"] ;
53 -> 59 ;
60 [label=<gini = 0.0<br/>samples = 1999<br/>value = [3149, 0, 0, 0, 0]<br/>class = Algodón>, fillcolor="#e58139"] ;
0 -> 60 [labeldistance=2.5, labelangle=-45, headlabel="False"] ;
}