digraph Tree {
node [shape=box, style="filled, rounded", color="black", fontname="helvetica"] ;
edge [fontname="helvetica"] ;
0 [label=<Lana &le; 0.005<br/>gini = 0.62<br/>samples = 5049<br/>value = [3178, 197, 20, 3637, 968]<br/>class = Mixto>, fillcolor="#ececfd"] ;
1 [label=<Poliester &le; 21.075<br/>gini = 0.503<br/>samples = 3029<br/>value = [3178, 0, 0, 676, 943]<br/>class = Algodón>, fillcolor="#f0b68c"] ;
0 -> 1 [labeldistance=2.5, labelangle=45, headlabel="True"] ;
2 [label=<Viscosa &le; 7.275<br/>gini = 0.033<br/>samples = 2028<br/>value = [3178, 0, 0, 54, 0]<br/>class = Algodón>, fillcolor="#e5833c"] ;
1 -> 2 ;
3 [label=<Algodon &le; 70.055<br/>gini = 0.01<br/>samples = 1795<br/>value = [2846, 0, 0, 15, 0]<br/>class = Algodón>, fillcolor="#e5823a"] ;
2 -> 3 ;
4 [label=<gini = 0.0<br/>samples = 11<br/>value = [0, 0, 0, 15, 0]<br/>class = Mixto>, fillcolor="#3c39e5"] ;
3 -> 4 ;
5 [label=<gini = 0.0<br/>samples = 1784<br/>value = [2846, 0, 0, 0, 0]<br/>class = Algodón>, fillcolor="#e58139"] ;
3 -> 5 ;
6 [label=<Algodon &le; 70.015<br/>gini = 0.188<br/>samples = 233<br/>value = [332, 0, 0, 39, 0]<br/>class = Algodón>, fillcolor="#e89050"] ;
2 -> 6 ;
7 [label=<gini = 0.0<br/>samples = 21<br/>value = [0, 0, 0, 39, 0]<br/>class = Mixto>, fillcolor="#3c39e5"] ;
6 -> 7 ;
8 [label=<gini = 0.0<br/>samples = 212<br/>value = [332, 0, 0, 0, 0]<br/>class = Algodón>, fillcolor="#e58139"] ;
6 -> 8 ;
9 [label=<Poliester &le; 49.97<br/>gini = 0.479<br/>samples = 1001<br/>value = [0, 0, 0, 622, 943]<br/>class = Sintéticos>, fillcolor="#f6bcea"] ;
1 -> 9 ;
10 [label=<gini = 0.0<br/>samples = 391<br/>value = [0, 0, 0, 622, 0]<br/>class = Mixto>, fillcolor="#3c39e5"] ;
9 -> 10 ;
11 [label=<gini = 0.0<br/>samples = 610<br/>value = [0, 0, 0, 0, 943]<br/>class = Sintéticos>, fillcolor="#e539c0"] ;
9 -> 11 ;
12 [label=<Seda &le; 29.99<br/>gini = 0.142<br/>samples = 2020<br/>value = [0, 197, 20, 2961, 25]<br/>class = Mixto>, fillcolor="#4c49e7"] ;
0 -> 12 [labeldistance=2.5, labelangle=-45, headlabel="False"] ;
13 [label=<Poliester &le; 49.98<br/>gini = 0.03<br/>samples = 1897<br/>value = [0, 0, 20, 2961, 25]<br/>class = Mixto>, fillcolor="#3f3ce5"] ;
12 -> 13 ;
14 [label=<Elastano &le; 3.935<br/>gini = 0.013<br/>samples = 1879<br/>value = [0, 0, 20, 2961, 0]<br/>class = Mixto>, fillcolor="#3d3ae5"] ;
13 -> 14 ;
15 [label=<Poliester &le; 0.495<br/>gini = 0.004<br/>samples = 1387<br/>value = [0, 0, 4, 2199, 0]<br/>class = Mixto>, fillcolor="#3c39e5"] ;
14 -> 15 ;
16 [label=<gini = 0.0<br/>samples = 2<br/>value = [0, 0, 3, 0, 0]<br/>class = Lana>, fillcolor="#39e5c5"] ;
15 -> 16 ;
17 [label=<Poliester &le; 2.96<br/>gini = 0.001<br/>samples = 1385<br/>value = [0, 0, 1, 2199, 0]<br/>class = Mixto>, fillcolor="#3c39e5"] ;
15 -> 17 ;
18 [label=<Seda &le; 10.24<br/>gini = 0.034<br/>samples = 37<br/>value = [0, 0, 1, 56, 0]<br/>class = Mixto>, fillcolor="#3f3de5"] ;
17 -> 18 ;
19 [label=<gini = 0.0<br/>samples = 1<br/>value = [0, 0, 1, 0, 0]<br/>class = Lana>, fillcolor="#39e5c5"] ;
18 -> 19 ;
20 [label=<gini = 0.0<br/>samples = 36<br/>value = [0, 0, 0, 56, 0]<br/>class = Mixto>, fillcolor="#3c39e5"] ;
18 -> 20 ;
21 [label=<gini = 0.0<br/>samples = 1348<br/>value = [0, 0, 0, 2143, 0]<br/>class = Mixto>, fillcolor="#3c39e5"] ;
17 -> 21 ;
22 [label=<Elastano &le; 3.945<br/>gini = 0.04<br/>samples = 492<br/>value = [0.0, 0.0, 16.0, 762.0, 0.0]<br/>class = Mixto>, fillcolor="#403de6"] ;
14 -> 22 ;
23 [label=<Lana &le; 46.49<br/>gini = 0.48<br/>samples = 2<br/>value = [0, 0, 2, 3, 0]<br/>class = Mixto>, fillcolor="#bebdf6"] ;
22 -> 23 ;
24 [label=<gini = 0.0<br/>samples = 1<br/>value = [0, 0, 0, 3, 0]<br/>class = Mixto>, fillcolor="#3c39e5"] ;
23 -> 24 ;
25 [label=<gini = 0.0<br/>samples = 1<br/>value = [0, 0, 2, 0, 0]<br/>class = Lana>, fillcolor="#39e5c5"] ;
23 -> 25 ;
26 [label=<Lana &le; 50.21<br/>gini = 0.036<br/>samples = 490<br/>value = [0.0, 0.0, 14.0, 759.0, 0.0]<br/>class = Mixto>, fillcolor="#403de5"] ;
22 -> 26 ;
27 [label=<gini = 0.0<br/>samples = 481<br/>value = [0, 0, 0, 759, 0]<br/>class = Mixto>, fillcolor="#3c39e5"] ;
26 -> 27 ;
28 [label=<gini = 0.0<br/>samples = 9<br/>value = [0, 0, 14, 0, 0]<br/>class = Lana>, fillcolor="#39e5c5"] ;
26 -> 28 ;
29 [label=<gini = 0.0<br/>samples = 18<br/>value = [0, 0, 0, 0, 25]<br/>class = Sintéticos>, fillcolor="#e539c0"] ;
13 -> 29 ;
30 [label=<gini = 0.0<br/>samples = 123<br/>value = [0, 197, 0, 0, 0]<br/>class = Delicados>, fillcolor="#7be539"] ;
12 -> 30 ;
}