digraph Tree {
node [shape=box, style="filled, rounded", color="black", fontname="helvetica"] ;
edge [fontname="helvetica"] ;
0 [label=<Poliester &le; 17.8<br/>gini = 0.625<br/>samples = 5095<br/>value = [3133, 194, 27, 3620, 1026]<br/>class = Mixto>, fillcolor="#ebebfc"] ;
1 [label=<Seda &le; 2.465<br/>gini = 0.352<br/>samples = 2481<br/>value = [3067, 132, 25, 683, 0]<br/>class = Algodón>, fillcolor="#eca26d"] ;
0 -> 1 [labeldistance=2.5, labelangle=45, headlabel="True"] ;
2 [label=<Algodon &le; 69.995<br/>gini = 0.009<br/>samples = 1954<br/>value = [3067, 0, 0, 14, 0]<br/>class = Algodón>, fillcolor="#e5823a"] ;
1 -> 2 ;
3 [label=<gini = 0.0<br/>samples = 9<br/>value = [0, 0, 0, 14, 0]<br/>class = Mixto>, fillcolor="#3c39e5"] ;
2 -> 3 ;
4 [label=<gini = 0.0<br/>samples = 1945<br/>value = [3067, 0, 0, 0, 0]<br/>class = Algodón>, fillcolor="#e58139"] ;
2 -> 4 ;
5 [label=<Algodon &le; 18.16<br/>gini = 0.318<br/>samples = 527<br/>value = [0, 132, 25, 669, 0]<br/>class = Mixto>, fillcolor="#6866eb"] ;
1 -> 5 ;
6 [label=<Viscosa &le; 5.86<br/>gini = 0.484<br/>samples = 240<br/>value = [0, 102, 23, 242, 0]<br/>class = Mixto>, fillcolor="#9896f1"] ;
5 -> 6 ;
7 [label=<Seda &le; 29.96<br/>gini = 0.565<br/>samples = 98<br/>value = [0, 61, 12, 77, 0]<br/>class = Mixto>, fillcolor="#dcdbfa"] ;
6 -> 7 ;
8 [label=<Nylon &le; 13.28<br/>gini = 0.233<br/>samples = 60<br/>value = [0, 0, 12, 77, 0]<br/>class = Mixto>, fillcolor="#5a58e9"] ;
7 -> 8 ;
9 [label=<Algodon &le; 11.075<br/>gini = 0.178<br/>samples = 56<br/>value = [0, 0, 8, 73, 0]<br/>class = Mixto>, fillcolor="#514fe8"] ;
8 -> 9 ;
10 [label=<Poliester &le; 8.04<br/>gini = 0.332<br/>samples = 26<br/>value = [0, 0, 8, 30, 0]<br/>class = Mixto>, fillcolor="#706eec"] ;
9 -> 10 ;
11 [label=<Seda &le; 19.88<br/>gini = 0.455<br/>samples = 13<br/>value = [0, 0, 7, 13, 0]<br/>class = Mixto>, fillcolor="#a5a4f3"] ;
10 -> 11 ;
12 [label=<gini = 0.0<br/>samples = 4<br/>value = [0, 0, 5, 0, 0]<br/>class = Lana>, fillcolor="#39e5c5"] ;
11 -> 12 ;
13 [label=<Algodon &le; 5.18<br/>gini = 0.231<br/>samples = 9<br/>value = [0, 0, 2, 13, 0]<br/>class = Mixto>, fillcolor="#5a57e9"] ;
11 -> 13 ;
14 [label=<Algodon &le; 2.465<br/>gini = 0.5<br/>samples = 3<br/>value = [0, 0, 2, 2, 0]<br/>class = Lana>, fillcolor="#ffffff"] ;
13 -> 14 ;
15 [label=<gini = 0.0<br/>samples = 1<br/>value = [0, 0, 0, 2, 0]<br/>class = Mixto>, fillcolor="#3c39e5"] ;
14 -> 15 ;
16 [label=<gini = 0.0<br/>samples = 2<br/>value = [0, 0, 2, 0, 0]<br/>class = Lana>, fillcolor="#39e5c5"] ;
14 -> 16 ;
17 [label=<gini = 0.0<br/>samples = 6<br/>value = [0, 0, 0, 11, 0]<br/>class = Mixto>, fillcolor="#3c39e5"] ;
13 -> 17 ;
18 [label=<Nylon &le; 10.625<br/>gini = 0.105<br/>samples = 13<br/>value = [0, 0, 1, 17, 0]<br/>class = Mixto>, fillcolor="#4745e7"] ;
10 -> 18 ;
19 [label=<gini = 0.0<br/>samples = 11<br/>value = [0, 0, 0, 16, 0]<br/>class = Mixto>, fillcolor="#3c39e5"] ;
18 -> 19 ;
20 [label=<Seda &le; 14.075<br/>gini = 0.5<br/>samples = 2<br/>value = [0, 0, 1, 1, 0]<br/>class = Lana>, fillcolor="#ffffff"] ;
18 -> 20 ;
21 [label=<gini = 0.0<br/>samples = 1<br/>value = [0, 0, 0, 1, 0]<br/>class = Mixto>, fillcolor="#3c39e5"] ;
20 -> 21 ;
22 [label=<gini = 0.0<br/>samples = 1<br/>value = [0, 0, 1, 0, 0]<br/>class = Lana>, fillcolor="#39e5c5"] ;
20 -> 22 ;
23 [label=<gini = 0.0<br/>samples = 30<br/>value = [0, 0, 0, 43, 0]<br/>class = Mixto>, fillcolor="#3c39e5"] ;
9 -> 23 ;
24 [label=<Seda &le; 14.115<br/>gini = 0.5<br/>samples = 4<br/>value = [0, 0, 4, 4, 0]<br/>class = Lana>, fillcolor="#ffffff"] ;
8 -> 24 ;
25 [label=<gini = 0.0<br/>samples = 2<br/>value = [0, 0, 4, 0, 0]<br/>class = Lana>, fillcolor="#39e5c5"] ;
24 -> 25 ;
26 [label=<gini = 0.0<br/>samples = 2<br/>value = [0, 0, 0, 4, 0]<br/>class = Mixto>, fillcolor="#3c39e5"] ;
24 -> 26 ;
27 [label=<gini = 0.0<br/>samples = 38<br/>value = [0, 61, 0, 0, 0]<br/>class = Delicados>, fillcolor="#7be539"] ;
7 -> 27 ;
28 [label=<Seda &le; 30.155<br/>gini = 0.384<br/>samples = 142<br/>value = [0, 41, 11, 165, 0]<br/>class = Mixto>, fillcolor="#7674ed"] ;
6 -> 28 ;
29 [label=<Lana &le; 50.155<br/>gini = 0.117<br/>samples = 113<br/>value = [0, 0, 11, 165, 0]<br/>class = Mixto>, fillcolor="#4946e7"] ;
28 -> 29 ;
30 [label=<gini = 0.0<br/>samples = 105<br/>value = [0, 0, 0, 165, 0]<br/>class = Mixto>, fillcolor="#3c39e5"] ;
29 -> 30 ;
31 [label=<gini = 0.0<br/>samples = 8<br/>value = [0, 0, 11, 0, 0]<br/>class = Lana>, fillcolor="#39e5c5"] ;
29 -> 31 ;
32 [label=<gini = 0.0<br/>samples = 29<br/>value = [0, 41, 0, 0, 0]<br/>class = Delicados>, fillcolor="#7be539"] ;
28 -> 32 ;
33 [label=<Viscosa &le; 6.16<br/>gini = 0.13<br/>samples = 287<br/>value = [0, 30, 2, 427, 0]<br/>class = Mixto>, fillcolor="#4b48e7"] ;
5 -> 33 ;
34 [label=<Seda &le; 29.985<br/>gini = 0.193<br/>samples = 157<br/>value = [0, 26, 0, 214, 0]<br/>class = Mixto>, fillcolor="#5451e8"] ;
33 -> 34 ;
35 [label=<gini = 0.0<br/>samples = 139<br/>value = [0, 0, 0, 214, 0]<br/>class = Mixto>, fillcolor="#3c39e5"] ;
34 -> 35 ;
36 [label=<gini = 0.0<br/>samples = 18<br/>value = [0, 26, 0, 0, 0]<br/>class = Delicados>, fillcolor="#7be539"] ;
34 -> 36 ;
37 [label=<Seda &le; 31.05<br/>gini = 0.054<br/>samples = 130<br/>value = [0, 4, 2, 213, 0]<br/>class = Mixto>, fillcolor="#413fe6"] ;
33 -> 37 ;
38 [label=<Elastano &le; 0.08<br/>gini = 0.018<br/>samples = 126<br/>value = [0, 0, 2, 213, 0]<br/>class = Mixto>, fillcolor="#3e3be5"] ;
37 -> 38 ;
39 [label=<Peso &le; 2.635<br/>gini = 0.375<br/>samples = 3<br/>value = [0, 0, 1, 3, 0]<br/>class = Mixto>, fillcolor="#7d7bee"] ;
38 -> 39 ;
40 [label=<gini = 0.0<br/>samples = 2<br/>value = [0, 0, 0, 3, 0]<br/>class = Mixto>, fillcolor="#3c39e5"] ;
39 -> 40 ;
41 [label=<gini = 0.0<br/>samples = 1<br/>value = [0, 0, 1, 0, 0]<br/>class = Lana>, fillcolor="#39e5c5"] ;
39 -> 41 ;
42 [label=<Lana &le; 46.63<br/>gini = 0.009<br/>samples = 123<br/>value = [0, 0, 1, 210, 0]<br/>class = Mixto>, fillcolor="#3d3ae5"] ;
38 -> 42 ;
43 [label=<gini = 0.0<br/>samples = 122<br/>value = [0, 0, 0, 210, 0]<br/>class = Mixto>, fillcolor="#3c39e5"] ;
42 -> 43 ;
44 [label=<gini = 0.0<br/>samples = 1<br/>value = [0, 0, 1, 0, 0]<br/>class = Lana>, fillcolor="#39e5c5"] ;
42 -> 44 ;
45 [label=<gini = 0.0<br/>samples = 4<br/>value = [0, 4, 0, 0, 0]<br/>class = Delicados>, fillcolor="#7be539"] ;
37 -> 45 ;
46 [label=<Nylon &le; 6.25<br/>gini = 0.422<br/>samples = 2614<br/>value = [66, 62, 2, 2937, 1026]<br/>class = Mixto>, fillcolor="#8584ef"] ;
0 -> 46 [labeldistance=2.5, labelangle=-45, headlabel="False"] ;
47 [label=<Poliester &le; 49.98<br/>gini = 0.16<br/>samples = 1410<br/>value = [66, 40, 2, 1999, 78]<br/>class = Mixto>, fillcolor="#4d4ae7"] ;
46 -> 47 ;
48 [label=<Peso &le; 5.885<br/>gini = 0.099<br/>samples = 1358<br/>value = [66, 40, 2, 1999, 0]<br/>class = Mixto>, fillcolor="#4643e6"] ;
47 -> 48 ;
49 [label=<Nylon &le; 0.005<br/>gini = 0.081<br/>samples = 1341<br/>value = [45, 40, 2, 1995, 0]<br/>class = Mixto>, fillcolor="#4441e6"] ;
48 -> 49 ;
50 [label=<Fibra &le; 2.47<br/>gini = 0.496<br/>samples = 48<br/>value = [45, 0, 0, 38, 0]<br/>class = Algodón>, fillcolor="#fbebe0"] ;
49 -> 50 ;
51 [label=<Algodon &le; 70.095<br/>gini = 0.382<br/>samples = 20<br/>value = [26, 0, 0, 9, 0]<br/>class = Algodón>, fillcolor="#eead7e"] ;
50 -> 51 ;
52 [label=<gini = 0.0<br/>samples = 6<br/>value = [0, 0, 0, 9, 0]<br/>class = Mixto>, fillcolor="#3c39e5"] ;
51 -> 52 ;
53 [label=<gini = 0.0<br/>samples = 14<br/>value = [26, 0, 0, 0, 0]<br/>class = Algodón>, fillcolor="#e58139"] ;
51 -> 53 ;
54 [label=<Poliester &le; 18.115<br/>gini = 0.478<br/>samples = 28<br/>value = [19, 0, 0, 29, 0]<br/>class = Mixto>, fillcolor="#bcbbf6"] ;
50 -> 54 ;
55 [label=<Viscosa &le; 4.08<br/>gini = 0.375<br/>samples = 4<br/>value = [6, 0, 0, 2, 0]<br/>class = Algodón>, fillcolor="#eeab7b"] ;
54 -> 55 ;
56 [label=<gini = 0.0<br/>samples = 3<br/>value = [6, 0, 0, 0, 0]<br/>class = Algodón>, fillcolor="#e58139"] ;
55 -> 56 ;
57 [label=<gini = 0.0<br/>samples = 1<br/>value = [0, 0, 0, 2, 0]<br/>class = Mixto>, fillcolor="#3c39e5"] ;
55 -> 57 ;
58 [label=<Viscosa &le; 2.875<br/>gini = 0.439<br/>samples = 24<br/>value = [13, 0, 0, 27, 0]<br/>class = Mixto>, fillcolor="#9a98f2"] ;
54 -> 58 ;
59 [label=<Peso &le; 5.57<br/>gini = 0.305<br/>samples = 9<br/>value = [13, 0, 0, 3, 0]<br/>class = Algodón>, fillcolor="#eb9e67"] ;
58 -> 59 ;
60 [label=<gini = 0.0<br/>samples = 8<br/>value = [13, 0, 0, 0, 0]<br/>class = Algodón>, fillcolor="#e58139"] ;
59 -> 60 ;
61 [label=<gini = 0.0<br/>samples = 1<br/>value = [0, 0, 0, 3, 0]<br/>class = Mixto>, fillcolor="#3c39e5"] ;
59 -> 61 ;
62 [label=<gini = 0.0<br/>samples = 15<br/>value = [0, 0, 0, 24, 0]<br/>class = Mixto>, fillcolor="#3c39e5"] ;
58 -> 62 ;
63 [label=<Algodon &le; 12.785<br/>gini = 0.041<br/>samples = 1293<br/>value = [0.0, 40.0, 2.0, 1957.0, 0.0]<br/>class = Mixto>, fillcolor="#403de6"] ;
49 -> 63 ;
64 [label=<Elastano &le; 0.375<br/>gini = 0.295<br/>samples = 105<br/>value = [0.0, 29.0, 2.0, 144.0, 0.0]<br/>class = Mixto>, fillcolor="#6563eb"] ;
63 -> 64 ;
65 [label=<Elastano &le; 0.18<br/>gini = 0.444<br/>samples = 4<br/>value = [0, 4, 0, 2, 0]<br/>class = Delicados>, fillcolor="#bdf29c"] ;
64 -> 65 ;
66 [label=<gini = 0.0<br/>samples = 2<br/>value = [0, 0, 0, 2, 0]<br/>class = Mixto>, fillcolor="#3c39e5"] ;
65 -> 66 ;
67 [label=<gini = 0.0<br/>samples = 2<br/>value = [0, 4, 0, 0, 0]<br/>class = Delicados>, fillcolor="#7be539"] ;
65 -> 67 ;
68 [label=<Nylon &le; 0.735<br/>gini = 0.272<br/>samples = 101<br/>value = [0, 25, 2, 142, 0]<br/>class = Mixto>, fillcolor="#615eea"] ;
64 -> 68 ;
69 [label=<Seda &le; 32.47<br/>gini = 0.547<br/>samples = 13<br/>value = [0, 7, 1, 9, 0]<br/>class = Mixto>, fillcolor="#d8d7fa"] ;
68 -> 69 ;
70 [label=<Lana &le; 47.35<br/>gini = 0.18<br/>samples = 10<br/>value = [0, 0, 1, 9, 0]<br/>class = Mixto>, fillcolor="#524fe8"] ;
69 -> 70 ;
71 [label=<gini = 0.0<br/>samples = 9<br/>value = [0, 0, 0, 9, 0]<br/>class = Mixto>, fillcolor="#3c39e5"] ;
70 -> 71 ;
72 [label=<gini = 0.0<br/>samples = 1<br/>value = [0, 0, 1, 0, 0]<br/>class = Lana>, fillcolor="#39e5c5"] ;
70 -> 72 ;
73 [label=<gini = 0.0<br/>samples = 3<br/>value = [0, 7, 0, 0, 0]<br/>class = Delicados>, fillcolor="#7be539"] ;
69 -> 73 ;
74 [label=<Lana &le; 22.075<br/>gini = 0.22<br/>samples = 88<br/>value = [0, 18, 1, 133, 0]<br/>class = Mixto>, fillcolor="#5855e9"] ;
68 -> 74 ;
75 [label=<Elastano &le; 5.665<br/>gini = 0.426<br/>samples = 10<br/>value = [0, 9, 0, 4, 0]<br/>class = Delicados>, fillcolor="#b6f191"] ;
74 -> 75 ;
76 [label=<Viscosa &le; 2.665<br/>gini = 0.18<br/>samples = 8<br/>value = [0, 9, 0, 1, 0]<br/>class = Delicados>, fillcolor="#8ae84f"] ;
75 -> 76 ;
77 [label=<gini = 0.0<br/>samples = 1<br/>value = [0, 0, 0, 1, 0]<br/>class = Mixto>, fillcolor="#3c39e5"] ;
76 -> 77 ;
78 [label=<gini = 0.0<br/>samples = 7<br/>value = [0, 9, 0, 0, 0]<br/>class = Delicados>, fillcolor="#7be539"] ;
76 -> 78 ;
79 [label=<gini = 0.0<br/>samples = 2<br/>value = [0, 0, 0, 3, 0]<br/>class = Mixto>, fillcolor="#3c39e5"] ;
75 -> 79 ;
80 [label=<Algodon &le; 1.665<br/>gini = 0.134<br/>samples = 78<br/>value = [0, 9, 1, 129, 0]<br/>class = Mixto>, fillcolor="#4b48e7"] ;
74 -> 80 ;
81 [label=<Nylon &le; 4.14<br/>gini = 0.498<br/>samples = 8<br/>value = [0, 7, 0, 8, 0]<br/>class = Mixto>, fillcolor="#e7e6fc"] ;
80 -> 81 ;
82 [label=<Lana &le; 36.17<br/>gini = 0.278<br/>samples = 3<br/>value = [0, 5, 0, 1, 0]<br/>class = Delicados>, fillcolor="#95ea61"] ;
81 -> 82 ;
83 [label=<gini = 0.0<br/>samples = 2<br/>value = [0, 5, 0, 0, 0]<br/>class = Delicados>, fillcolor="#7be539"] ;
82 -> 83 ;
84 [label=<gini = 0.0<br/>samples = 1<br/>value = [0, 0, 0, 1, 0]<br/>class = Mixto>, fillcolor="#3c39e5"] ;
82 -> 84 ;
85 [label=<Seda &le; 27.065<br/>gini = 0.346<br/>samples = 5<br/>value = [0, 2, 0, 7, 0]<br/>class = Mixto>, fillcolor="#7472ec"] ;
81 -> 85 ;
86 [label=<gini = 0.0<br/>samples = 3<br/>value = [0, 0, 0, 7, 0]<br/>class = Mixto>, fillcolor="#3c39e5"] ;
85 -> 86 ;
87 [label=<gini = 0.0<br/>samples = 2<br/>value = [0, 2, 0, 0, 0]<br/>class = Delicados>, fillcolor="#7be539"] ;
85 -> 87 ;
88 [label=<Poliester &le; 18.48<br/>gini = 0.047<br/>samples = 70<br/>value = [0, 2, 1, 121, 0]<br/>class = Mixto>, fillcolor="#413ee6"] ;
80 -> 88 ;
89 [label=<Nylon &le; 4.17<br/>gini = 0.56<br/>samples = 3<br/>value = [0, 1, 1, 3, 0]<br/>class = Mixto>, fillcolor="#9e9cf2"] ;
88 -> 89 ;
90 [label=<Lana &le; 38.62<br/>gini = 0.5<br/>samples = 2<br/>value = [0, 1, 1, 0, 0]<br/>class = Delicados>, fillcolor="#ffffff"] ;
89 -> 90 ;
91 [label=<gini = 0.0<br/>samples = 1<br/>value = [0, 1, 0, 0, 0]<br/>class = Delicados>, fillcolor="#7be539"] ;
90 -> 91 ;
92 [label=<gini = 0.0<br/>samples = 1<br/>value = [0, 0, 1, 0, 0]<br/>class = Lana>, fillcolor="#39e5c5"] ;
90 -> 92 ;
93 [label=<gini = 0.0<br/>samples = 1<br/>value = [0, 0, 0, 3, 0]<br/>class = Mixto>, fillcolor="#3c39e5"] ;
89 -> 93 ;
94 [label=<Nylon &le; 4.73<br/>gini = 0.017<br/>samples = 67<br/>value = [0, 1, 0, 118, 0]<br/>class = Mixto>, fillcolor="#3e3be5"] ;
88 -> 94 ;
95 [label=<gini = 0.0<br/>samples = 43<br/>value = [0, 0, 0, 80, 0]<br/>class = Mixto>, fillcolor="#3c39e5"] ;
94 -> 95 ;
96 [label=<Seda &le; 31.26<br/>gini = 0.05<br/>samples = 24<br/>value = [0, 1, 0, 38, 0]<br/>class = Mixto>, fillcolor="#413ee6"] ;
94 -> 96 ;
97 [label=<gini = 0.0<br/>samples = 23<br/>value = [0, 0, 0, 38, 0]<br/>class = Mixto>, fillcolor="#3c39e5"] ;
96 -> 97 ;
98 [label=<gini = 0.0<br/>samples = 1<br/>value = [0, 1, 0, 0, 0]<br/>class = Delicados>, fillcolor="#7be539"] ;
96 -> 98 ;
99 [label=<Poliester &le; 19.925<br/>gini = 0.012<br/>samples = 1188<br/>value = [0, 11, 0, 1813, 0]<br/>class = Mixto>, fillcolor="#3d3ae5"] ;
63 -> 99 ;
100 [label=<Poliester &le; 19.715<br/>gini = 0.198<br/>samples = 36<br/>value = [0, 6, 0, 48, 0]<br/>class = Mixto>, fillcolor="#5452e8"] ;
99 -> 100 ;
101 [label=<Nylon &le; 6.0<br/>gini = 0.077<br/>samples = 35<br/>value = [0, 2, 0, 48, 0]<br/>class = Mixto>, fillcolor="#4441e6"] ;
100 -> 101 ;
102 [label=<Seda &le; 29.73<br/>gini = 0.04<br/>samples = 34<br/>value = [0.0, 1.0, 0.0, 48.0, 0.0]<br/>class = Mixto>, fillcolor="#403de6"] ;
101 -> 102 ;
103 [label=<gini = 0.0<br/>samples = 33<br/>value = [0, 0, 0, 48, 0]<br/>class = Mixto>, fillcolor="#3c39e5"] ;
102 -> 103 ;
104 [label=<gini = 0.0<br/>samples = 1<br/>value = [0, 1, 0, 0, 0]<br/>class = Delicados>, fillcolor="#7be539"] ;
102 -> 104 ;
105 [label=<gini = 0.0<br/>samples = 1<br/>value = [0, 1, 0, 0, 0]<br/>class = Delicados>, fillcolor="#7be539"] ;
101 -> 105 ;
106 [label=<gini = 0.0<br/>samples = 1<br/>value = [0, 4, 0, 0, 0]<br/>class = Delicados>, fillcolor="#7be539"] ;
100 -> 106 ;
107 [label=<Seda &le; 29.99<br/>gini = 0.006<br/>samples = 1152<br/>value = [0, 5, 0, 1765, 0]<br/>class = Mixto>, fillcolor="#3d3ae5"] ;
99 -> 107 ;
108 [label=<gini = 0.0<br/>samples = 1148<br/>value = [0, 0, 0, 1765, 0]<br/>class = Mixto>, fillcolor="#3c39e5"] ;
107 -> 108 ;
109 [label=<gini = 0.0<br/>samples = 4<br/>value = [0, 5, 0, 0, 0]<br/>class = Delicados>, fillcolor="#7be539"] ;
107 -> 109 ;
110 [label=<Viscosa &le; 5.235<br/>gini = 0.269<br/>samples = 17<br/>value = [21, 0, 0, 4, 0]<br/>class = Algodón>, fillcolor="#ea995f"] ;
48 -> 110 ;
111 [label=<gini = 0.0<br/>samples = 13<br/>value = [20, 0, 0, 0, 0]<br/>class = Algodón>, fillcolor="#e58139"] ;
110 -> 111 ;
112 [label=<Fibra &le; 2.255<br/>gini = 0.32<br/>samples = 4<br/>value = [1, 0, 0, 4, 0]<br/>class = Mixto>, fillcolor="#6d6aec"] ;
110 -> 112 ;
113 [label=<gini = 0.0<br/>samples = 1<br/>value = [1, 0, 0, 0, 0]<br/>class = Algodón>, fillcolor="#e58139"] ;
112 -> 113 ;
114 [label=<gini = 0.0<br/>samples = 3<br/>value = [0, 0, 0, 4, 0]<br/>class = Mixto>, fillcolor="#3c39e5"] ;
112 -> 114 ;
115 [label=<gini = 0.0<br/>samples = 52<br/>value = [0, 0, 0, 0, 78]<br/>class = Sintéticos>, fillcolor="#e539c0"] ;
47 -> 115 ;
116 [label=<Fibra &le; 0.005<br/>gini = 0.511<br/>samples = 1204<br/>value = [0, 22, 0, 938, 948]<br/>class = Sintéticos>, fillcolor="#fffdfe"] ;
46 -> 116 ;
117 [label=<Algodon &le; 6.6<br/>gini = 0.118<br/>samples = 226<br/>value = [0, 22, 0, 342, 1]<br/>class = Mixto>, fillcolor="#4946e7"] ;
116 -> 117 ;
118 [label=<Seda &le; 30.015<br/>gini = 0.273<br/>samples = 57<br/>value = [0.0, 16.0, 0.0, 82.0, 0.0]<br/>class = Mixto>, fillcolor="#6260ea"] ;
117 -> 118 ;
119 [label=<gini = 0.0<br/>samples = 49<br/>value = [0, 0, 0, 82, 0]<br/>class = Mixto>, fillcolor="#3c39e5"] ;
118 -> 119 ;
120 [label=<gini = 0.0<br/>samples = 8<br/>value = [0, 16, 0, 0, 0]<br/>class = Delicados>, fillcolor="#7be539"] ;
118 -> 120 ;
121 [label=<Elastano &le; 7.03<br/>gini = 0.051<br/>samples = 169<br/>value = [0, 6, 0, 260, 1]<br/>class = Mixto>, fillcolor="#413ee6"] ;
117 -> 121 ;
122 [label=<Peso &le; 1.84<br/>gini = 0.044<br/>samples = 168<br/>value = [0, 6, 0, 260, 0]<br/>class = Mixto>, fillcolor="#413ee6"] ;
121 -> 122 ;
123 [label=<Lana &le; 15.485<br/>gini = 0.079<br/>samples = 83<br/>value = [0, 6, 0, 139, 0]<br/>class = Mixto>, fillcolor="#4442e6"] ;
122 -> 123 ;
124 [label=<Lana &le; 15.055<br/>gini = 0.444<br/>samples = 8<br/>value = [0, 5, 0, 10, 0]<br/>class = Mixto>, fillcolor="#9e9cf2"] ;
123 -> 124 ;
125 [label=<Poliester &le; 21.49<br/>gini = 0.165<br/>samples = 6<br/>value = [0, 1, 0, 10, 0]<br/>class = Mixto>, fillcolor="#504de8"] ;
124 -> 125 ;
126 [label=<gini = 0.0<br/>samples = 1<br/>value = [0, 1, 0, 0, 0]<br/>class = Delicados>, fillcolor="#7be539"] ;
125 -> 126 ;
127 [label=<gini = 0.0<br/>samples = 5<br/>value = [0, 0, 0, 10, 0]<br/>class = Mixto>, fillcolor="#3c39e5"] ;
125 -> 127 ;
128 [label=<gini = 0.0<br/>samples = 2<br/>value = [0, 4, 0, 0, 0]<br/>class = Delicados>, fillcolor="#7be539"] ;
124 -> 128 ;
129 [label=<Poliester &le; 19.005<br/>gini = 0.015<br/>samples = 75<br/>value = [0, 1, 0, 129, 0]<br/>class = Mixto>, fillcolor="#3e3be5"] ;
123 -> 129 ;
130 [label=<Lana &le; 20.665<br/>gini = 0.105<br/>samples = 9<br/>value = [0, 1, 0, 17, 0]<br/>class = Mixto>, fillcolor="#4745e7"] ;
129 -> 130 ;
131 [label=<Lana &le; 18.455<br/>gini = 0.375<br/>samples = 3<br/>value = [0, 1, 0, 3, 0]<br/>class = Mixto>, fillcolor="#7d7bee"] ;
130 -> 131 ;
132 [label=<gini = 0.0<br/>samples = 2<br/>value = [0, 0, 0, 3, 0]<br/>class = Mixto>, fillcolor="#3c39e5"] ;
131 -> 132 ;
133 [label=<gini = 0.0<br/>samples = 1<br/>value = [0, 1, 0, 0, 0]<br/>class = Delicados>, fillcolor="#7be539"] ;
131 -> 133 ;
134 [label=<gini = 0.0<br/>samples = 6<br/>value = [0, 0, 0, 14, 0]<br/>class = Mixto>, fillcolor="#3c39e5"] ;
130 -> 134 ;
135 [label=<gini = 0.0<br/>samples = 66<br/>value = [0, 0, 0, 112, 0]<br/>class = Mixto>, fillcolor="#3c39e5"] ;
129 -> 135 ;
136 [label=<gini = 0.0<br/>samples = 85<br/>value = [0, 0, 0, 121, 0]<br/>class = Mixto>, fillcolor="#3c39e5"] ;
122 -> 136 ;
137 [label=<gini = 0.0<br/>samples = 1<br/>value = [0, 0, 0, 0, 1]<br/>class = Sintéticos>, fillcolor="#e539c0"] ;
121 -> 137 ;
138 [label=<Elastano &le; 13.39<br/>gini = 0.474<br/>samples = 978<br/>value = [0, 0, 0, 596, 947]<br/>class = Sintéticos>, fillcolor="#f5b6e8"] ;
116 -> 138 ;
139 [label=<Nylon &le; 12.625<br/>gini = 0.418<br/>samples = 522<br/>value = [0.0, 0.0, 0.0, 245.0, 577.0]<br/>class = Sintéticos>, fillcolor="#f08ddb"] ;
138 -> 139 ;
140 [label=<Peso &le; 4.035<br/>gini = 0.288<br/>samples = 219<br/>value = [0.0, 0.0, 0.0, 59.0, 280.0]<br/>class = Sintéticos>, fillcolor="#ea63cd"] ;
139 -> 140 ;
141 [label=<Viscosa &le; 3.285<br/>gini = 0.264<br/>samples = 215<br/>value = [0, 0, 0, 52, 280]<br/>class = Sintéticos>, fillcolor="#ea5ecc"] ;
140 -> 141 ;
142 [label=<Algodon &le; 26.21<br/>gini = 0.162<br/>samples = 134<br/>value = [0, 0, 0, 19, 194]<br/>class = Sintéticos>, fillcolor="#e84cc6"] ;
141 -> 142 ;
143 [label=<Viscosa &le; 2.075<br/>gini = 0.041<br/>samples = 122<br/>value = [0, 0, 0, 4, 189]<br/>class = Sintéticos>, fillcolor="#e63dc1"] ;
142 -> 143 ;
144 [label=<gini = 0.0<br/>samples = 75<br/>value = [0, 0, 0, 0, 117]<br/>class = Sintéticos>, fillcolor="#e539c0"] ;
143 -> 144 ;
145 [label=<Algodon &le; 24.55<br/>gini = 0.1<br/>samples = 47<br/>value = [0, 0, 0, 4, 72]<br/>class = Sintéticos>, fillcolor="#e644c4"] ;
143 -> 145 ;
146 [label=<gini = 0.0<br/>samples = 43<br/>value = [0, 0, 0, 0, 72]<br/>class = Sintéticos>, fillcolor="#e539c0"] ;
145 -> 146 ;
147 [label=<gini = 0.0<br/>samples = 4<br/>value = [0, 0, 0, 4, 0]<br/>class = Mixto>, fillcolor="#3c39e5"] ;
145 -> 147 ;
148 [label=<Algodon &le; 29.255<br/>gini = 0.375<br/>samples = 12<br/>value = [0, 0, 0, 15, 5]<br/>class = Mixto>, fillcolor="#7d7bee"] ;
142 -> 148 ;
149 [label=<Nylon &le; 9.345<br/>gini = 0.494<br/>samples = 7<br/>value = [0, 0, 0, 4, 5]<br/>class = Sintéticos>, fillcolor="#fad7f2"] ;
148 -> 149 ;
150 [label=<Fibra &le; 4.835<br/>gini = 0.278<br/>samples = 4<br/>value = [0, 0, 0, 1, 5]<br/>class = Sintéticos>, fillcolor="#ea61cd"] ;
149 -> 150 ;
151 [label=<gini = 0.0<br/>samples = 3<br/>value = [0, 0, 0, 0, 5]<br/>class = Sintéticos>, fillcolor="#e539c0"] ;
150 -> 151 ;
152 [label=<gini = 0.0<br/>samples = 1<br/>value = [0, 0, 0, 1, 0]<br/>class = Mixto>, fillcolor="#3c39e5"] ;
150 -> 152 ;
153 [label=<gini = 0.0<br/>samples = 3<br/>value = [0, 0, 0, 3, 0]<br/>class = Mixto>, fillcolor="#3c39e5"] ;
149 -> 153 ;
154 [label=<gini = 0.0<br/>samples = 5<br/>value = [0, 0, 0, 11, 0]<br/>class = Mixto>, fillcolor="#3c39e5"] ;
148 -> 154 ;
155 [label=<Nylon &le; 7.8<br/>gini = 0.401<br/>samples = 81<br/>value = [0, 0, 0, 33, 86]<br/>class = Sintéticos>, fillcolor="#ef85d8"] ;
141 -> 155 ;
156 [label=<Viscosa &le; 6.57<br/>gini = 0.077<br/>samples = 15<br/>value = [0, 0, 0, 1, 24]<br/>class = Sintéticos>, fillcolor="#e641c3"] ;
155 -> 156 ;
157 [label=<gini = 0.0<br/>samples = 14<br/>value = [0, 0, 0, 0, 24]<br/>class = Sintéticos>, fillcolor="#e539c0"] ;
156 -> 157 ;
158 [label=<gini = 0.0<br/>samples = 1<br/>value = [0, 0, 0, 1, 0]<br/>class = Mixto>, fillcolor="#3c39e5"] ;
156 -> 158 ;
159 [label=<Viscosa &le; 3.54<br/>gini = 0.449<br/>samples = 66<br/>value = [0.0, 0.0, 0.0, 32.0, 62.0]<br/>class = Sintéticos>, fillcolor="#f29fe1"] ;
155 -> 159 ;
160 [label=<Algodon &le; 21.92<br/>gini = 0.444<br/>samples = 11<br/>value = [0, 0, 0, 12, 6]<br/>class = Mixto>, fillcolor="#9e9cf2"] ;
159 -> 160 ;
161 [label=<Peso &le; 2.275<br/>gini = 0.245<br/>samples = 5<br/>value = [0, 0, 0, 1, 6]<br/>class = Sintéticos>, fillcolor="#e95acb"] ;
160 -> 161 ;
162 [label=<gini = 0.0<br/>samples = 1<br/>value = [0, 0, 0, 1, 0]<br/>class = Mixto>, fillcolor="#3c39e5"] ;
161 -> 162 ;
163 [label=<gini = 0.0<br/>samples = 4<br/>value = [0, 0, 0, 0, 6]<br/>class = Sintéticos>, fillcolor="#e539c0"] ;
161 -> 163 ;
164 [label=<gini = 0.0<br/>samples = 6<br/>value = [0, 0, 0, 11, 0]<br/>class = Mixto>, fillcolor="#3c39e5"] ;
160 -> 164 ;
165 [label=<Peso &le; 3.08<br/>gini = 0.388<br/>samples = 55<br/>value = [0, 0, 0, 20, 56]<br/>class = Sintéticos>, fillcolor="#ee80d6"] ;
159 -> 165 ;
166 [label=<Poliester &le; 50.315<br/>gini = 0.47<br/>samples = 34<br/>value = [0, 0, 0, 17, 28]<br/>class = Sintéticos>, fillcolor="#f5b1e6"] ;
165 -> 166 ;
167 [label=<gini = 0.0<br/>samples = 10<br/>value = [0, 0, 0, 17, 0]<br/>class = Mixto>, fillcolor="#3c39e5"] ;
166 -> 167 ;
168 [label=<gini = 0.0<br/>samples = 24<br/>value = [0, 0, 0, 0, 28]<br/>class = Sintéticos>, fillcolor="#e539c0"] ;
166 -> 168 ;
169 [label=<Nylon &le; 10.905<br/>gini = 0.175<br/>samples = 21<br/>value = [0, 0, 0, 3, 28]<br/>class = Sintéticos>, fillcolor="#e84ec7"] ;
165 -> 169 ;
170 [label=<Peso &le; 3.865<br/>gini = 0.278<br/>samples = 14<br/>value = [0, 0, 0, 3, 15]<br/>class = Sintéticos>, fillcolor="#ea61cd"] ;
169 -> 170 ;
171 [label=<Poliester &le; 51.205<br/>gini = 0.32<br/>samples = 12<br/>value = [0, 0, 0, 3, 12]<br/>class = Sintéticos>, fillcolor="#ec6ad0"] ;
170 -> 171 ;
172 [label=<gini = 0.0<br/>samples = 3<br/>value = [0, 0, 0, 3, 0]<br/>class = Mixto>, fillcolor="#3c39e5"] ;
171 -> 172 ;
173 [label=<gini = 0.0<br/>samples = 9<br/>value = [0, 0, 0, 0, 12]<br/>class = Sintéticos>, fillcolor="#e539c0"] ;
171 -> 173 ;
174 [label=<gini = 0.0<br/>samples = 2<br/>value = [0, 0, 0, 0, 3]<br/>class = Sintéticos>, fillcolor="#e539c0"] ;
170 -> 174 ;
175 [label=<gini = 0.0<br/>samples = 7<br/>value = [0, 0, 0, 0, 13]<br/>class = Sintéticos>, fillcolor="#e539c0"] ;
169 -> 175 ;
176 [label=<gini = 0.0<br/>samples = 4<br/>value = [0, 0, 0, 7, 0]<br/>class = Mixto>, fillcolor="#3c39e5"] ;
140 -> 176 ;
177 [label=<Peso &le; 2.055<br/>gini = 0.474<br/>samples = 303<br/>value = [0, 0, 0, 186, 297]<br/>class = Sintéticos>, fillcolor="#f5b5e7"] ;
139 -> 177 ;
178 [label=<gini = 0.0<br/>samples = 7<br/>value = [0, 0, 0, 15, 0]<br/>class = Mixto>, fillcolor="#3c39e5"] ;
177 -> 178 ;
179 [label=<Poliester &le; 49.98<br/>gini = 0.464<br/>samples = 296<br/>value = [0, 0, 0, 171, 297]<br/>class = Sintéticos>, fillcolor="#f4abe4"] ;
177 -> 179 ;
180 [label=<gini = 0.0<br/>samples = 114<br/>value = [0, 0, 0, 171, 0]<br/>class = Mixto>, fillcolor="#3c39e5"] ;
179 -> 180 ;
181 [label=<gini = 0.0<br/>samples = 182<br/>value = [0, 0, 0, 0, 297]<br/>class = Sintéticos>, fillcolor="#e539c0"] ;
179 -> 181 ;
182 [label=<Algodon &le; 17.555<br/>gini = 0.5<br/>samples = 456<br/>value = [0, 0, 0, 351, 370]<br/>class = Sintéticos>, fillcolor="#fef5fc"] ;
138 -> 182 ;
183 [label=<Nylon &le; 18.015<br/>gini = 0.412<br/>samples = 307<br/>value = [0, 0, 0, 142, 347]<br/>class = Sintéticos>, fillcolor="#f08ada"] ;
182 -> 183 ;
184 [label=<Elastano &le; 19.665<br/>gini = 0.267<br/>samples = 231<br/>value = [0, 0, 0, 59, 312]<br/>class = Sintéticos>, fillcolor="#ea5ecc"] ;
183 -> 184 ;
185 [label=<Poliester &le; 49.63<br/>gini = 0.153<br/>samples = 183<br/>value = [0, 0, 0, 25, 274]<br/>class = Sintéticos>, fillcolor="#e74bc6"] ;
184 -> 185 ;
186 [label=<gini = 0.0<br/>samples = 17<br/>value = [0, 0, 0, 25, 0]<br/>class = Mixto>, fillcolor="#3c39e5"] ;
185 -> 186 ;
187 [label=<gini = 0.0<br/>samples = 166<br/>value = [0, 0, 0, 0, 274]<br/>class = Sintéticos>, fillcolor="#e539c0"] ;
185 -> 187 ;
188 [label=<Fibra &le; 2.745<br/>gini = 0.498<br/>samples = 48<br/>value = [0, 0, 0, 34, 38]<br/>class = Sintéticos>, fillcolor="#fceaf8"] ;
184 -> 188 ;
189 [label=<Poliester &le; 49.665<br/>gini = 0.363<br/>samples = 28<br/>value = [0, 0, 0, 10, 32]<br/>class = Sintéticos>, fillcolor="#ed77d4"] ;
188 -> 189 ;
190 [label=<gini = 0.0<br/>samples = 6<br/>value = [0, 0, 0, 10, 0]<br/>class = Mixto>, fillcolor="#3c39e5"] ;
189 -> 190 ;
191 [label=<gini = 0.0<br/>samples = 22<br/>value = [0, 0, 0, 0, 32]<br/>class = Sintéticos>, fillcolor="#e539c0"] ;
189 -> 191 ;
192 [label=<Algodon &le; 4.875<br/>gini = 0.32<br/>samples = 20<br/>value = [0, 0, 0, 24, 6]<br/>class = Mixto>, fillcolor="#6d6aec"] ;
188 -> 192 ;
193 [label=<Algodon &le; 2.12<br/>gini = 0.32<br/>samples = 5<br/>value = [0, 0, 0, 1, 4]<br/>class = Sintéticos>, fillcolor="#ec6ad0"] ;
192 -> 193 ;
194 [label=<Peso &le; 2.805<br/>gini = 0.5<br/>samples = 2<br/>value = [0, 0, 0, 1, 1]<br/>class = Mixto>, fillcolor="#ffffff"] ;
193 -> 194 ;
195 [label=<gini = 0.0<br/>samples = 1<br/>value = [0, 0, 0, 1, 0]<br/>class = Mixto>, fillcolor="#3c39e5"] ;
194 -> 195 ;
196 [label=<gini = 0.0<br/>samples = 1<br/>value = [0, 0, 0, 0, 1]<br/>class = Sintéticos>, fillcolor="#e539c0"] ;
194 -> 196 ;
197 [label=<gini = 0.0<br/>samples = 3<br/>value = [0, 0, 0, 0, 3]<br/>class = Sintéticos>, fillcolor="#e539c0"] ;
193 -> 197 ;
198 [label=<Nylon &le; 9.535<br/>gini = 0.147<br/>samples = 15<br/>value = [0, 0, 0, 23, 2]<br/>class = Mixto>, fillcolor="#4d4ae7"] ;
192 -> 198 ;
199 [label=<Elastano &le; 24.595<br/>gini = 0.444<br/>samples = 3<br/>value = [0, 0, 0, 1, 2]<br/>class = Sintéticos>, fillcolor="#f29ce0"] ;
198 -> 199 ;
200 [label=<gini = 0.0<br/>samples = 2<br/>value = [0, 0, 0, 0, 2]<br/>class = Sintéticos>, fillcolor="#e539c0"] ;
199 -> 200 ;
201 [label=<gini = 0.0<br/>samples = 1<br/>value = [0, 0, 0, 1, 0]<br/>class = Mixto>, fillcolor="#3c39e5"] ;
199 -> 201 ;
202 [label=<gini = 0.0<br/>samples = 12<br/>value = [0, 0, 0, 22, 0]<br/>class = Mixto>, fillcolor="#3c39e5"] ;
198 -> 202 ;
203 [label=<Algodon &le; 6.055<br/>gini = 0.417<br/>samples = 76<br/>value = [0, 0, 0, 83, 35]<br/>class = Mixto>, fillcolor="#8e8cf0"] ;
183 -> 203 ;
204 [label=<Algodon &le; 2.9<br/>gini = 0.416<br/>samples = 30<br/>value = [0, 0, 0, 13, 31]<br/>class = Sintéticos>, fillcolor="#f08cda"] ;
203 -> 204 ;
205 [label=<gini = 0.0<br/>samples = 12<br/>value = [0, 0, 0, 0, 19]<br/>class = Sintéticos>, fillcolor="#e539c0"] ;
204 -> 205 ;
206 [label=<Fibra &le; 5.525<br/>gini = 0.499<br/>samples = 18<br/>value = [0, 0, 0, 13, 12]<br/>class = Mixto>, fillcolor="#f0f0fd"] ;
204 -> 206 ;
207 [label=<Peso &le; 2.91<br/>gini = 0.465<br/>samples = 16<br/>value = [0, 0, 0, 7, 12]<br/>class = Sintéticos>, fillcolor="#f4ace5"] ;
206 -> 207 ;
208 [label=<gini = 0.0<br/>samples = 5<br/>value = [0, 0, 0, 0, 7]<br/>class = Sintéticos>, fillcolor="#e539c0"] ;
207 -> 208 ;
209 [label=<Fibra &le; 3.105<br/>gini = 0.486<br/>samples = 11<br/>value = [0, 0, 0, 7, 5]<br/>class = Mixto>, fillcolor="#c7c6f8"] ;
207 -> 209 ;
210 [label=<Elastano &le; 20.99<br/>gini = 0.469<br/>samples = 7<br/>value = [0, 0, 0, 3, 5]<br/>class = Sintéticos>, fillcolor="#f5b0e6"] ;
209 -> 210 ;
211 [label=<Peso &le; 3.67<br/>gini = 0.278<br/>samples = 6<br/>value = [0, 0, 0, 1, 5]<br/>class = Sintéticos>, fillcolor="#ea61cd"] ;
210 -> 211 ;
212 [label=<gini = 0.0<br/>samples = 3<br/>value = [0, 0, 0, 0, 3]<br/>class = Sintéticos>, fillcolor="#e539c0"] ;
211 -> 212 ;
213 [label=<Nylon &le; 22.045<br/>gini = 0.444<br/>samples = 3<br/>value = [0, 0, 0, 1, 2]<br/>class = Sintéticos>, fillcolor="#f29ce0"] ;
211 -> 213 ;
214 [label=<gini = 0.0<br/>samples = 2<br/>value = [0, 0, 0, 0, 2]<br/>class = Sintéticos>, fillcolor="#e539c0"] ;
213 -> 214 ;
215 [label=<gini = 0.0<br/>samples = 1<br/>value = [0, 0, 0, 1, 0]<br/>class = Mixto>, fillcolor="#3c39e5"] ;
213 -> 215 ;
216 [label=<gini = 0.0<br/>samples = 1<br/>value = [0, 0, 0, 2, 0]<br/>class = Mixto>, fillcolor="#3c39e5"] ;
210 -> 216 ;
217 [label=<gini = 0.0<br/>samples = 4<br/>value = [0, 0, 0, 4, 0]<br/>class = Mixto>, fillcolor="#3c39e5"] ;
209 -> 217 ;
218 [label=<gini = 0.0<br/>samples = 2<br/>value = [0, 0, 0, 6, 0]<br/>class = Mixto>, fillcolor="#3c39e5"] ;
206 -> 218 ;
219 [label=<Fibra &le; 0.61<br/>gini = 0.102<br/>samples = 46<br/>value = [0, 0, 0, 70, 4]<br/>class = Mixto>, fillcolor="#4744e6"] ;
203 -> 219 ;
220 [label=<Viscosa &le; 4.67<br/>gini = 0.49<br/>samples = 4<br/>value = [0, 0, 0, 4, 3]<br/>class = Mixto>, fillcolor="#cecef8"] ;
219 -> 220 ;
221 [label=<Peso &le; 3.12<br/>gini = 0.375<br/>samples = 3<br/>value = [0, 0, 0, 1, 3]<br/>class = Sintéticos>, fillcolor="#ee7bd5"] ;
220 -> 221 ;
222 [label=<gini = 0.0<br/>samples = 1<br/>value = [0, 0, 0, 1, 0]<br/>class = Mixto>, fillcolor="#3c39e5"] ;
221 -> 222 ;
223 [label=<gini = 0.0<br/>samples = 2<br/>value = [0, 0, 0, 0, 3]<br/>class = Sintéticos>, fillcolor="#e539c0"] ;
221 -> 223 ;
224 [label=<gini = 0.0<br/>samples = 1<br/>value = [0, 0, 0, 3, 0]<br/>class = Mixto>, fillcolor="#3c39e5"] ;
220 -> 224 ;
225 [label=<Nylon &le; 18.345<br/>gini = 0.029<br/>samples = 42<br/>value = [0, 0, 0, 66, 1]<br/>class = Mixto>, fillcolor="#3f3ce5"] ;
219 -> 225 ;
226 [label=<Poliester &le; 47.82<br/>gini = 0.5<br/>samples = 2<br/>value = [0, 0, 0, 1, 1]<br/>class = Mixto>, fillcolor="#ffffff"] ;
225 -> 226 ;
227 [label=<gini = 0.0<br/>samples = 1<br/>value = [0, 0, 0, 1, 0]<br/>class = Mixto>, fillcolor="#3c39e5"] ;
226 -> 227 ;
228 [label=<gini = 0.0<br/>samples = 1<br/>value = [0, 0, 0, 0, 1]<br/>class = Sintéticos>, fillcolor="#e539c0"] ;
226 -> 228 ;
229 [label=<gini = 0.0<br/>samples = 40<br/>value = [0, 0, 0, 65, 0]<br/>class = Mixto>, fillcolor="#3c39e5"] ;
225 -> 229 ;
230 [label=<Fibra &le; 0.25<br/>gini = 0.179<br/>samples = 149<br/>value = [0, 0, 0, 209, 23]<br/>class = Mixto>, fillcolor="#514fe8"] ;
182 -> 230 ;
231 [label=<Elastano &le; 15.715<br/>gini = 0.48<br/>samples = 5<br/>value = [0, 0, 0, 6, 4]<br/>class = Mixto>, fillcolor="#bebdf6"] ;
230 -> 231 ;
232 [label=<gini = 0.0<br/>samples = 2<br/>value = [0, 0, 0, 0, 4]<br/>class = Sintéticos>, fillcolor="#e539c0"] ;
231 -> 232 ;
233 [label=<gini = 0.0<br/>samples = 3<br/>value = [0, 0, 0, 6, 0]<br/>class = Mixto>, fillcolor="#3c39e5"] ;
231 -> 233 ;
234 [label=<Viscosa &le; 0.11<br/>gini = 0.157<br/>samples = 144<br/>value = [0, 0, 0, 203, 19]<br/>class = Mixto>, fillcolor="#4e4ce7"] ;
230 -> 234 ;
235 [label=<Poliester &le; 47.915<br/>gini = 0.48<br/>samples = 4<br/>value = [0, 0, 0, 6, 4]<br/>class = Mixto>, fillcolor="#bebdf6"] ;
234 -> 235 ;
236 [label=<gini = 0.0<br/>samples = 2<br/>value = [0, 0, 0, 6, 0]<br/>class = Mixto>, fillcolor="#3c39e5"] ;
235 -> 236 ;
237 [label=<gini = 0.0<br/>samples = 2<br/>value = [0, 0, 0, 0, 4]<br/>class = Sintéticos>, fillcolor="#e539c0"] ;
235 -> 237 ;
238 [label=<Nylon &le; 7.625<br/>gini = 0.131<br/>samples = 140<br/>value = [0, 0, 0, 197, 15]<br/>class = Mixto>, fillcolor="#4b48e7"] ;
234 -> 238 ;
239 [label=<Poliester &le; 49.66<br/>gini = 0.491<br/>samples = 15<br/>value = [0.0, 0.0, 0.0, 13.0, 10.0]<br/>class = Mixto>, fillcolor="#d2d1f9"] ;
238 -> 239 ;
240 [label=<gini = 0.0<br/>samples = 8<br/>value = [0, 0, 0, 13, 0]<br/>class = Mixto>, fillcolor="#3c39e5"] ;
239 -> 240 ;
241 [label=<gini = 0.0<br/>samples = 7<br/>value = [0, 0, 0, 0, 10]<br/>class = Sintéticos>, fillcolor="#e539c0"] ;
239 -> 241 ;
242 [label=<Peso &le; 2.125<br/>gini = 0.052<br/>samples = 125<br/>value = [0, 0, 0, 184, 5]<br/>class = Mixto>, fillcolor="#413ee6"] ;
238 -> 242 ;
243 [label=<Viscosa &le; 3.14<br/>gini = 0.408<br/>samples = 4<br/>value = [0, 0, 0, 5, 2]<br/>class = Mixto>, fillcolor="#8a88ef"] ;
242 -> 243 ;
244 [label=<gini = 0.0<br/>samples = 3<br/>value = [0, 0, 0, 5, 0]<br/>class = Mixto>, fillcolor="#3c39e5"] ;
243 -> 244 ;
245 [label=<gini = 0.0<br/>samples = 1<br/>value = [0, 0, 0, 0, 2]<br/>class = Sintéticos>, fillcolor="#e539c0"] ;
243 -> 245 ;
246 [label=<Poliester &le; 50.225<br/>gini = 0.032<br/>samples = 121<br/>value = [0, 0, 0, 179, 3]<br/>class = Mixto>, fillcolor="#3f3ce5"] ;
242 -> 246 ;
247 [label=<gini = 0.0<br/>samples = 118<br/>value = [0, 0, 0, 179, 0]<br/>class = Mixto>, fillcolor="#3c39e5"] ;
246 -> 247 ;
248 [label=<gini = 0.0<br/>samples = 3<br/>value = [0, 0, 0, 0, 3]<br/>class = Sintéticos>, fillcolor="#e539c0"] ;
246 -> 248 ;
}