digraph Tree {
node [shape=box, style="filled, rounded", color="black", fontname="helvetica"] ;
edge [fontname="helvetica"] ;
0 [label=<Lana &le; 0.005<br/>gini = 0.619<br/>samples = 5074<br/>value = [3118, 188, 28, 3702, 964]<br/>class = Mixto>, fillcolor="#e8e7fc"] ;
1 [label=<Algodon &le; 70.035<br/>gini = 0.507<br/>samples = 3010<br/>value = [3118, 0, 0, 685, 937]<br/>class = Algodón>, fillcolor="#f0b78d"] ;
0 -> 1 [labeldistance=2.5, labelangle=45, headlabel="True"] ;
2 [label=<Algodon &le; 18.915<br/>gini = 0.488<br/>samples = 1019<br/>value = [0, 0, 0, 685, 937]<br/>class = Sintéticos>, fillcolor="#f8caee"] ;
1 -> 2 ;
3 [label=<Poliester &le; 50.0<br/>gini = 0.336<br/>samples = 604<br/>value = [0, 0, 0, 208, 765]<br/>class = Sintéticos>, fillcolor="#ec6fd1"] ;
2 -> 3 ;
4 [label=<gini = 0.0<br/>samples = 128<br/>value = [0, 0, 0, 208, 0]<br/>class = Mixto>, fillcolor="#3c39e5"] ;
3 -> 4 ;
5 [label=<gini = 0.0<br/>samples = 476<br/>value = [0, 0, 0, 0, 765]<br/>class = Sintéticos>, fillcolor="#e539c0"] ;
3 -> 5 ;
6 [label=<Poliester &le; 50.0<br/>gini = 0.39<br/>samples = 415<br/>value = [0, 0, 0, 477, 172]<br/>class = Mixto>, fillcolor="#8280ee"] ;
2 -> 6 ;
7 [label=<gini = 0.0<br/>samples = 302<br/>value = [0, 0, 0, 477, 0]<br/>class = Mixto>, fillcolor="#3c39e5"] ;
6 -> 7 ;
8 [label=<gini = 0.0<br/>samples = 113<br/>value = [0, 0, 0, 0, 172]<br/>class = Sintéticos>, fillcolor="#e539c0"] ;
6 -> 8 ;
9 [label=<gini = 0.0<br/>samples = 1991<br/>value = [3118, 0, 0, 0, 0]<br/>class = Algodón>, fillcolor="#e58139"] ;
1 -> 9 ;
10 [label=<Peso &le; 2.725<br/>gini = 0.14<br/>samples = 2064<br/>value = [0.0, 188.0, 28.0, 3017.0, 27.0]<br/>class = Mixto>, fillcolor="#4b49e7"] ;
0 -> 10 [labeldistance=2.5, labelangle=-45, headlabel="False"] ;
11 [label=<Lana &le; 50.175<br/>gini = 0.219<br/>samples = 983<br/>value = [0, 167, 28, 1402, 1]<br/>class = Mixto>, fillcolor="#5754e9"] ;
10 -> 11 ;
12 [label=<Algodon &le; 7.17<br/>gini = 0.191<br/>samples = 967<br/>value = [0, 167, 0, 1402, 1]<br/>class = Mixto>, fillcolor="#5351e8"] ;
11 -> 12 ;
13 [label=<Seda &le; 29.965<br/>gini = 0.427<br/>samples = 152<br/>value = [0, 70, 0, 157, 0]<br/>class = Mixto>, fillcolor="#9391f1"] ;
12 -> 13 ;
14 [label=<gini = 0.0<br/>samples = 104<br/>value = [0, 0, 0, 157, 0]<br/>class = Mixto>, fillcolor="#3c39e5"] ;
13 -> 14 ;
15 [label=<gini = 0.0<br/>samples = 48<br/>value = [0, 70, 0, 0, 0]<br/>class = Delicados>, fillcolor="#7be539"] ;
13 -> 15 ;
16 [label=<Algodon &le; 18.025<br/>gini = 0.135<br/>samples = 815<br/>value = [0, 97, 0, 1245, 1]<br/>class = Mixto>, fillcolor="#4b49e7"] ;
12 -> 16 ;
17 [label=<Lana &le; 23.46<br/>gini = 0.211<br/>samples = 289<br/>value = [0, 57, 0, 418, 0]<br/>class = Mixto>, fillcolor="#5754e9"] ;
16 -> 17 ;
18 [label=<Poliester &le; 21.525<br/>gini = 0.453<br/>samples = 64<br/>value = [0.0, 34.0, 0.0, 64.0, 0.0]<br/>class = Mixto>, fillcolor="#a4a2f3"] ;
17 -> 18 ;
19 [label=<Viscosa &le; 3.005<br/>gini = 0.404<br/>samples = 19<br/>value = [0, 23, 0, 9, 0]<br/>class = Delicados>, fillcolor="#afef86"] ;
18 -> 19 ;
20 [label=<gini = 0.0<br/>samples = 7<br/>value = [0, 12, 0, 0, 0]<br/>class = Delicados>, fillcolor="#7be539"] ;
19 -> 20 ;
21 [label=<Nylon &le; 6.73<br/>gini = 0.495<br/>samples = 12<br/>value = [0, 11, 0, 9, 0]<br/>class = Delicados>, fillcolor="#e7fadb"] ;
19 -> 21 ;
22 [label=<gini = 0.0<br/>samples = 4<br/>value = [0, 8, 0, 0, 0]<br/>class = Delicados>, fillcolor="#7be539"] ;
21 -> 22 ;
23 [label=<Elastano &le; 1.3<br/>gini = 0.375<br/>samples = 8<br/>value = [0, 3, 0, 9, 0]<br/>class = Mixto>, fillcolor="#7d7bee"] ;
21 -> 23 ;
24 [label=<Poliester &le; 15.85<br/>gini = 0.48<br/>samples = 3<br/>value = [0, 3, 0, 2, 0]<br/>class = Delicados>, fillcolor="#d3f6bd"] ;
23 -> 24 ;
25 [label=<gini = 0.0<br/>samples = 2<br/>value = [0, 3, 0, 0, 0]<br/>class = Delicados>, fillcolor="#7be539"] ;
24 -> 25 ;
26 [label=<gini = 0.0<br/>samples = 1<br/>value = [0, 0, 0, 2, 0]<br/>class = Mixto>, fillcolor="#3c39e5"] ;
24 -> 26 ;
27 [label=<gini = 0.0<br/>samples = 5<br/>value = [0, 0, 0, 7, 0]<br/>class = Mixto>, fillcolor="#3c39e5"] ;
23 -> 27 ;
28 [label=<Seda &le; 29.11<br/>gini = 0.278<br/>samples = 45<br/>value = [0, 11, 0, 55, 0]<br/>class = Mixto>, fillcolor="#6361ea"] ;
18 -> 28 ;
29 [label=<gini = 0.0<br/>samples = 36<br/>value = [0, 0, 0, 55, 0]<br/>class = Mixto>, fillcolor="#3c39e5"] ;
28 -> 29 ;
30 [label=<gini = 0.0<br/>samples = 9<br/>value = [0, 11, 0, 0, 0]<br/>class = Delicados>, fillcolor="#7be539"] ;
28 -> 30 ;
31 [label=<Nylon &le; 2.1<br/>gini = 0.115<br/>samples = 225<br/>value = [0, 23, 0, 354, 0]<br/>class = Mixto>, fillcolor="#4946e7"] ;
17 -> 31 ;
32 [label=<Peso &le; 2.405<br/>gini = 0.278<br/>samples = 35<br/>value = [0, 10, 0, 50, 0]<br/>class = Mixto>, fillcolor="#6361ea"] ;
31 -> 32 ;
33 [label=<Viscosa &le; 5.85<br/>gini = 0.335<br/>samples = 27<br/>value = [0, 10, 0, 37, 0]<br/>class = Mixto>, fillcolor="#716fec"] ;
32 -> 33 ;
34 [label=<Seda &le; 28.49<br/>gini = 0.48<br/>samples = 10<br/>value = [0, 9, 0, 6, 0]<br/>class = Delicados>, fillcolor="#d3f6bd"] ;
33 -> 34 ;
35 [label=<gini = 0.0<br/>samples = 5<br/>value = [0, 0, 0, 6, 0]<br/>class = Mixto>, fillcolor="#3c39e5"] ;
34 -> 35 ;
36 [label=<gini = 0.0<br/>samples = 5<br/>value = [0, 9, 0, 0, 0]<br/>class = Delicados>, fillcolor="#7be539"] ;
34 -> 36 ;
37 [label=<Poliester &le; 4.275<br/>gini = 0.061<br/>samples = 17<br/>value = [0, 1, 0, 31, 0]<br/>class = Mixto>, fillcolor="#423fe6"] ;
33 -> 37 ;
38 [label=<gini = 0.0<br/>samples = 1<br/>value = [0, 1, 0, 0, 0]<br/>class = Delicados>, fillcolor="#7be539"] ;
37 -> 38 ;
39 [label=<gini = 0.0<br/>samples = 16<br/>value = [0, 0, 0, 31, 0]<br/>class = Mixto>, fillcolor="#3c39e5"] ;
37 -> 39 ;
40 [label=<gini = 0.0<br/>samples = 8<br/>value = [0, 0, 0, 13, 0]<br/>class = Mixto>, fillcolor="#3c39e5"] ;
32 -> 40 ;
41 [label=<Seda &le; 30.215<br/>gini = 0.079<br/>samples = 190<br/>value = [0, 13, 0, 304, 0]<br/>class = Mixto>, fillcolor="#4441e6"] ;
31 -> 41 ;
42 [label=<gini = 0.0<br/>samples = 179<br/>value = [0, 0, 0, 304, 0]<br/>class = Mixto>, fillcolor="#3c39e5"] ;
41 -> 42 ;
43 [label=<gini = 0.0<br/>samples = 11<br/>value = [0, 13, 0, 0, 0]<br/>class = Delicados>, fillcolor="#7be539"] ;
41 -> 43 ;
44 [label=<Lana &le; 30.32<br/>gini = 0.09<br/>samples = 526<br/>value = [0, 40, 0, 827, 1]<br/>class = Mixto>, fillcolor="#4643e6"] ;
16 -> 44 ;
45 [label=<Peso &le; 2.195<br/>gini = 0.122<br/>samples = 373<br/>value = [0.0, 39.0, 0.0, 576.0, 1.0]<br/>class = Mixto>, fillcolor="#4a47e7"] ;
44 -> 45 ;
46 [label=<Seda &le; 29.995<br/>gini = 0.201<br/>samples = 196<br/>value = [0, 36, 0, 281, 0]<br/>class = Mixto>, fillcolor="#5552e8"] ;
45 -> 46 ;
47 [label=<gini = 0.0<br/>samples = 175<br/>value = [0, 0, 0, 281, 0]<br/>class = Mixto>, fillcolor="#3c39e5"] ;
46 -> 47 ;
48 [label=<gini = 0.0<br/>samples = 21<br/>value = [0, 36, 0, 0, 0]<br/>class = Delicados>, fillcolor="#7be539"] ;
46 -> 48 ;
49 [label=<Peso &le; 2.715<br/>gini = 0.026<br/>samples = 177<br/>value = [0, 3, 0, 295, 1]<br/>class = Mixto>, fillcolor="#3f3ce5"] ;
45 -> 49 ;
50 [label=<Elastano &le; 5.355<br/>gini = 0.014<br/>samples = 165<br/>value = [0, 1, 0, 276, 1]<br/>class = Mixto>, fillcolor="#3d3ae5"] ;
49 -> 50 ;
51 [label=<Viscosa &le; 3.85<br/>gini = 0.008<br/>samples = 154<br/>value = [0, 1, 0, 259, 0]<br/>class = Mixto>, fillcolor="#3d3ae5"] ;
50 -> 51 ;
52 [label=<Seda &le; 30.15<br/>gini = 0.025<br/>samples = 43<br/>value = [0, 1, 0, 77, 0]<br/>class = Mixto>, fillcolor="#3f3ce5"] ;
51 -> 52 ;
53 [label=<gini = 0.0<br/>samples = 42<br/>value = [0, 0, 0, 77, 0]<br/>class = Mixto>, fillcolor="#3c39e5"] ;
52 -> 53 ;
54 [label=<gini = 0.0<br/>samples = 1<br/>value = [0, 1, 0, 0, 0]<br/>class = Delicados>, fillcolor="#7be539"] ;
52 -> 54 ;
55 [label=<gini = 0.0<br/>samples = 111<br/>value = [0, 0, 0, 182, 0]<br/>class = Mixto>, fillcolor="#3c39e5"] ;
51 -> 55 ;
56 [label=<Lana &le; 2.645<br/>gini = 0.105<br/>samples = 11<br/>value = [0, 0, 0, 17, 1]<br/>class = Mixto>, fillcolor="#4745e7"] ;
50 -> 56 ;
57 [label=<gini = 0.0<br/>samples = 1<br/>value = [0, 0, 0, 0, 1]<br/>class = Sintéticos>, fillcolor="#e539c0"] ;
56 -> 57 ;
58 [label=<gini = 0.0<br/>samples = 10<br/>value = [0, 0, 0, 17, 0]<br/>class = Mixto>, fillcolor="#3c39e5"] ;
56 -> 58 ;
59 [label=<Seda &le; 29.18<br/>gini = 0.172<br/>samples = 12<br/>value = [0, 2, 0, 19, 0]<br/>class = Mixto>, fillcolor="#514ee8"] ;
49 -> 59 ;
60 [label=<gini = 0.0<br/>samples = 11<br/>value = [0, 0, 0, 19, 0]<br/>class = Mixto>, fillcolor="#3c39e5"] ;
59 -> 60 ;
61 [label=<gini = 0.0<br/>samples = 1<br/>value = [0, 2, 0, 0, 0]<br/>class = Delicados>, fillcolor="#7be539"] ;
59 -> 61 ;
62 [label=<Algodon &le; 21.59<br/>gini = 0.008<br/>samples = 153<br/>value = [0, 1, 0, 251, 0]<br/>class = Mixto>, fillcolor="#3d3ae5"] ;
44 -> 62 ;
63 [label=<Nylon &le; 0.09<br/>gini = 0.027<br/>samples = 41<br/>value = [0, 1, 0, 72, 0]<br/>class = Mixto>, fillcolor="#3f3ce5"] ;
62 -> 63 ;
64 [label=<gini = 0.0<br/>samples = 1<br/>value = [0, 1, 0, 0, 0]<br/>class = Delicados>, fillcolor="#7be539"] ;
63 -> 64 ;
65 [label=<gini = 0.0<br/>samples = 40<br/>value = [0, 0, 0, 72, 0]<br/>class = Mixto>, fillcolor="#3c39e5"] ;
63 -> 65 ;
66 [label=<gini = 0.0<br/>samples = 112<br/>value = [0, 0, 0, 179, 0]<br/>class = Mixto>, fillcolor="#3c39e5"] ;
62 -> 66 ;
67 [label=<gini = 0.0<br/>samples = 16<br/>value = [0, 0, 28, 0, 0]<br/>class = Lana>, fillcolor="#39e5c5"] ;
11 -> 67 ;
68 [label=<Seda &le; 30.645<br/>gini = 0.055<br/>samples = 1081<br/>value = [0.0, 21.0, 0.0, 1615.0, 26.0]<br/>class = Mixto>, fillcolor="#423fe6"] ;
10 -> 68 ;
69 [label=<Viscosa &le; 3.295<br/>gini = 0.031<br/>samples = 1068<br/>value = [0, 0, 0, 1615, 26]<br/>class = Mixto>, fillcolor="#3f3ce5"] ;
68 -> 69 ;
70 [label=<Viscosa &le; 3.285<br/>gini = 0.085<br/>samples = 329<br/>value = [0, 0, 0, 494, 23]<br/>class = Mixto>, fillcolor="#4542e6"] ;
69 -> 70 ;
71 [label=<Poliester &le; 49.935<br/>gini = 0.078<br/>samples = 328<br/>value = [0, 0, 0, 494, 21]<br/>class = Mixto>, fillcolor="#4441e6"] ;
70 -> 71 ;
72 [label=<gini = 0.0<br/>samples = 312<br/>value = [0, 0, 0, 494, 0]<br/>class = Mixto>, fillcolor="#3c39e5"] ;
71 -> 72 ;
73 [label=<gini = 0.0<br/>samples = 16<br/>value = [0, 0, 0, 0, 21]<br/>class = Sintéticos>, fillcolor="#e539c0"] ;
71 -> 73 ;
74 [label=<gini = 0.0<br/>samples = 1<br/>value = [0, 0, 0, 0, 2]<br/>class = Sintéticos>, fillcolor="#e539c0"] ;
70 -> 74 ;
75 [label=<Nylon &le; 5.535<br/>gini = 0.005<br/>samples = 739<br/>value = [0, 0, 0, 1121, 3]<br/>class = Mixto>, fillcolor="#3d3ae5"] ;
69 -> 75 ;
76 [label=<Poliester &le; 50.02<br/>gini = 0.002<br/>samples = 670<br/>value = [0, 0, 0, 1029, 1]<br/>class = Mixto>, fillcolor="#3c39e5"] ;
75 -> 76 ;
77 [label=<gini = 0.0<br/>samples = 669<br/>value = [0, 0, 0, 1029, 0]<br/>class = Mixto>, fillcolor="#3c39e5"] ;
76 -> 77 ;
78 [label=<gini = 0.0<br/>samples = 1<br/>value = [0, 0, 0, 0, 1]<br/>class = Sintéticos>, fillcolor="#e539c0"] ;
76 -> 78 ;
79 [label=<Lana &le; 0.345<br/>gini = 0.042<br/>samples = 69<br/>value = [0, 0, 0, 92, 2]<br/>class = Mixto>, fillcolor="#403de6"] ;
75 -> 79 ;
80 [label=<gini = 0.0<br/>samples = 1<br/>value = [0, 0, 0, 0, 1]<br/>class = Sintéticos>, fillcolor="#e539c0"] ;
79 -> 80 ;
81 [label=<Peso &le; 5.405<br/>gini = 0.021<br/>samples = 68<br/>value = [0, 0, 0, 92, 1]<br/>class = Mixto>, fillcolor="#3e3be5"] ;
79 -> 81 ;
82 [label=<gini = 0.0<br/>samples = 67<br/>value = [0, 0, 0, 92, 0]<br/>class = Mixto>, fillcolor="#3c39e5"] ;
81 -> 82 ;
83 [label=<gini = 0.0<br/>samples = 1<br/>value = [0, 0, 0, 0, 1]<br/>class = Sintéticos>, fillcolor="#e539c0"] ;
81 -> 83 ;
84 [label=<gini = 0.0<br/>samples = 13<br/>value = [0, 21, 0, 0, 0]<br/>class = Delicados>, fillcolor="#7be539"] ;
68 -> 84 ;
}