digraph Tree {
node [shape=box, style="filled, rounded", color="black", fontname="helvetica"] ;
edge [fontname="helvetica"] ;
0 [label=<Lana &le; 0.005<br/>gini = 0.617<br/>samples = 5050<br/>value = [3109, 186, 32, 3727, 946]<br/>class = Mixto>, fillcolor="#e6e6fc"] ;
1 [label=<Poliester &le; 20.52<br/>gini = 0.507<br/>samples = 3011<br/>value = [3109, 0, 0, 684, 927]<br/>class = Algodón>, fillcolor="#f0b78d"] ;
0 -> 1 [labeldistance=2.5, labelangle=45, headlabel="True"] ;
2 [label=<Poliester &le; 18.115<br/>gini = 0.035<br/>samples = 2032<br/>value = [3107.0, 0.0, 0.0, 57.0, 0.0]<br/>class = Algodón>, fillcolor="#e5833d"] ;
1 -> 2 ;
3 [label=<Algodon &le; 70.025<br/>gini = 0.013<br/>samples = 1991<br/>value = [3072, 0, 0, 21, 0]<br/>class = Algodón>, fillcolor="#e5823a"] ;
2 -> 3 ;
4 [label=<gini = 0.0<br/>samples = 15<br/>value = [0, 0, 0, 21, 0]<br/>class = Mixto>, fillcolor="#3c39e5"] ;
3 -> 4 ;
5 [label=<gini = 0.0<br/>samples = 1976<br/>value = [3072, 0, 0, 0, 0]<br/>class = Algodón>, fillcolor="#e58139"] ;
3 -> 5 ;
6 [label=<Fibra &le; 2.36<br/>gini = 0.5<br/>samples = 41<br/>value = [35, 0, 0, 36, 0]<br/>class = Mixto>, fillcolor="#fafafe"] ;
2 -> 6 ;
7 [label=<Elastano &le; 1.91<br/>gini = 0.328<br/>samples = 16<br/>value = [23, 0, 0, 6, 0]<br/>class = Algodón>, fillcolor="#eca26d"] ;
6 -> 7 ;
8 [label=<gini = 0.0<br/>samples = 7<br/>value = [13, 0, 0, 0, 0]<br/>class = Algodón>, fillcolor="#e58139"] ;
7 -> 8 ;
9 [label=<Poliester &le; 19.82<br/>gini = 0.469<br/>samples = 9<br/>value = [10, 0, 0, 6, 0]<br/>class = Algodón>, fillcolor="#f5cdb0"] ;
7 -> 9 ;
10 [label=<Fibra &le; 0.14<br/>gini = 0.355<br/>samples = 8<br/>value = [10, 0, 0, 3, 0]<br/>class = Algodón>, fillcolor="#eda774"] ;
9 -> 10 ;
11 [label=<gini = 0.0<br/>samples = 1<br/>value = [0, 0, 0, 1, 0]<br/>class = Mixto>, fillcolor="#3c39e5"] ;
10 -> 11 ;
12 [label=<Viscosa &le; 6.47<br/>gini = 0.278<br/>samples = 7<br/>value = [10, 0, 0, 2, 0]<br/>class = Algodón>, fillcolor="#ea9a61"] ;
10 -> 12 ;
13 [label=<gini = 0.0<br/>samples = 6<br/>value = [10, 0, 0, 0, 0]<br/>class = Algodón>, fillcolor="#e58139"] ;
12 -> 13 ;
14 [label=<gini = 0.0<br/>samples = 1<br/>value = [0, 0, 0, 2, 0]<br/>class = Mixto>, fillcolor="#3c39e5"] ;
12 -> 14 ;
15 [label=<gini = 0.0<br/>samples = 1<br/>value = [0, 0, 0, 3, 0]<br/>class = Mixto>, fillcolor="#3c39e5"] ;
9 -> 15 ;
16 [label=<Fibra &le; 5.3<br/>gini = 0.408<br/>samples = 25<br/>value = [12, 0, 0, 30, 0]<br/>class = Mixto>, fillcolor="#8a88ef"] ;
6 -> 16 ;
17 [label=<Algodon &le; 70.015<br/>gini = 0.355<br/>samples = 24<br/>value = [9, 0, 0, 30, 0]<br/>class = Mixto>, fillcolor="#7674ed"] ;
16 -> 17 ;
18 [label=<gini = 0.0<br/>samples = 17<br/>value = [0, 0, 0, 30, 0]<br/>class = Mixto>, fillcolor="#3c39e5"] ;
17 -> 18 ;
19 [label=<gini = 0.0<br/>samples = 7<br/>value = [9, 0, 0, 0, 0]<br/>class = Algodón>, fillcolor="#e58139"] ;
17 -> 19 ;
20 [label=<gini = 0.0<br/>samples = 1<br/>value = [3, 0, 0, 0, 0]<br/>class = Algodón>, fillcolor="#e58139"] ;
16 -> 20 ;
21 [label=<Poliester &le; 49.995<br/>gini = 0.483<br/>samples = 979<br/>value = [2.0, 0.0, 0.0, 627.0, 927.0]<br/>class = Sintéticos>, fillcolor="#f7bfeb"] ;
1 -> 21 ;
22 [label=<Poliester &le; 21.075<br/>gini = 0.006<br/>samples = 393<br/>value = [2, 0, 0, 627, 0]<br/>class = Mixto>, fillcolor="#3d3ae5"] ;
21 -> 22 ;
23 [label=<Peso &le; 5.17<br/>gini = 0.408<br/>samples = 7<br/>value = [2, 0, 0, 5, 0]<br/>class = Mixto>, fillcolor="#8a88ef"] ;
22 -> 23 ;
24 [label=<Algodon &le; 70.295<br/>gini = 0.444<br/>samples = 3<br/>value = [2, 0, 0, 1, 0]<br/>class = Algodón>, fillcolor="#f2c09c"] ;
23 -> 24 ;
25 [label=<gini = 0.0<br/>samples = 1<br/>value = [0, 0, 0, 1, 0]<br/>class = Mixto>, fillcolor="#3c39e5"] ;
24 -> 25 ;
26 [label=<gini = 0.0<br/>samples = 2<br/>value = [2, 0, 0, 0, 0]<br/>class = Algodón>, fillcolor="#e58139"] ;
24 -> 26 ;
27 [label=<gini = 0.0<br/>samples = 4<br/>value = [0, 0, 0, 4, 0]<br/>class = Mixto>, fillcolor="#3c39e5"] ;
23 -> 27 ;
28 [label=<gini = 0.0<br/>samples = 386<br/>value = [0, 0, 0, 622, 0]<br/>class = Mixto>, fillcolor="#3c39e5"] ;
22 -> 28 ;
29 [label=<gini = 0.0<br/>samples = 586<br/>value = [0, 0, 0, 0, 927]<br/>class = Sintéticos>, fillcolor="#e539c0"] ;
21 -> 29 ;
30 [label=<Seda &le; 29.99<br/>gini = 0.136<br/>samples = 2039<br/>value = [0, 186, 32, 3043, 19]<br/>class = Mixto>, fillcolor="#4b48e7"] ;
0 -> 30 [labeldistance=2.5, labelangle=-45, headlabel="False"] ;
31 [label=<Fibra &le; 0.01<br/>gini = 0.033<br/>samples = 1923<br/>value = [0, 0, 32, 3043, 19]<br/>class = Mixto>, fillcolor="#3f3ce5"] ;
30 -> 31 ;
32 [label=<Lana &le; 50.19<br/>gini = 0.042<br/>samples = 917<br/>value = [0, 0, 32, 1450, 0]<br/>class = Mixto>, fillcolor="#403de6"] ;
31 -> 32 ;
33 [label=<gini = 0.0<br/>samples = 896<br/>value = [0, 0, 0, 1450, 0]<br/>class = Mixto>, fillcolor="#3c39e5"] ;
32 -> 33 ;
34 [label=<gini = 0.0<br/>samples = 21<br/>value = [0, 0, 32, 0, 0]<br/>class = Lana>, fillcolor="#39e5c5"] ;
32 -> 34 ;
35 [label=<Viscosa &le; 3.275<br/>gini = 0.023<br/>samples = 1006<br/>value = [0, 0, 0, 1593, 19]<br/>class = Mixto>, fillcolor="#3e3be5"] ;
31 -> 35 ;
36 [label=<Algodon &le; 34.525<br/>gini = 0.052<br/>samples = 341<br/>value = [0, 0, 0, 545, 15]<br/>class = Mixto>, fillcolor="#413ee6"] ;
35 -> 36 ;
37 [label=<gini = 0.0<br/>samples = 4<br/>value = [0, 0, 0, 0, 6]<br/>class = Sintéticos>, fillcolor="#e539c0"] ;
36 -> 37 ;
38 [label=<Poliester &le; 49.74<br/>gini = 0.032<br/>samples = 337<br/>value = [0, 0, 0, 545, 9]<br/>class = Mixto>, fillcolor="#3f3ce5"] ;
36 -> 38 ;
39 [label=<gini = 0.0<br/>samples = 329<br/>value = [0, 0, 0, 545, 0]<br/>class = Mixto>, fillcolor="#3c39e5"] ;
38 -> 39 ;
40 [label=<gini = 0.0<br/>samples = 8<br/>value = [0, 0, 0, 0, 9]<br/>class = Sintéticos>, fillcolor="#e539c0"] ;
38 -> 40 ;
41 [label=<Algodon &le; 31.955<br/>gini = 0.008<br/>samples = 665<br/>value = [0, 0, 0, 1048, 4]<br/>class = Mixto>, fillcolor="#3d3ae5"] ;
35 -> 41 ;
42 [label=<Lana &le; 2.465<br/>gini = 0.32<br/>samples = 2<br/>value = [0, 0, 0, 1, 4]<br/>class = Sintéticos>, fillcolor="#ec6ad0"] ;
41 -> 42 ;
43 [label=<gini = 0.0<br/>samples = 1<br/>value = [0, 0, 0, 0, 4]<br/>class = Sintéticos>, fillcolor="#e539c0"] ;
42 -> 43 ;
44 [label=<gini = 0.0<br/>samples = 1<br/>value = [0, 0, 0, 1, 0]<br/>class = Mixto>, fillcolor="#3c39e5"] ;
42 -> 44 ;
45 [label=<gini = 0.0<br/>samples = 663<br/>value = [0, 0, 0, 1047, 0]<br/>class = Mixto>, fillcolor="#3c39e5"] ;
41 -> 45 ;
46 [label=<gini = 0.0<br/>samples = 116<br/>value = [0, 186, 0, 0, 0]<br/>class = Delicados>, fillcolor="#7be539"] ;
30 -> 46 ;
}