digraph Tree {
node [shape=box, style="filled, rounded", color="black", fontname="helvetica"] ;
edge [fontname="helvetica"] ;
0 [label=<Lana &le; 0.005<br/>gini = 0.627<br/>samples = 5055<br/>value = [3097, 196, 31, 3625, 1051]<br/>class = Mixto>, fillcolor="#eaeafc"] ;
1 [label=<Algodon &le; 70.035<br/>gini = 0.514<br/>samples = 3029<br/>value = [3097.0, 0.0, 0.0, 643.0, 1033.0]<br/>class = Algodón>, fillcolor="#f1b992"] ;
0 -> 1 [labeldistance=2.5, labelangle=45, headlabel="True"] ;
2 [label=<Nylon &le; 3.0<br/>gini = 0.473<br/>samples = 1045<br/>value = [0, 0, 0, 643, 1033]<br/>class = Sintéticos>, fillcolor="#f5b4e7"] ;
1 -> 2 ;
3 [label=<gini = 0.0<br/>samples = 47<br/>value = [0, 0, 0, 74, 0]<br/>class = Mixto>, fillcolor="#3c39e5"] ;
2 -> 3 ;
4 [label=<Elastano &le; 10.215<br/>gini = 0.458<br/>samples = 998<br/>value = [0, 0, 0, 569, 1033]<br/>class = Sintéticos>, fillcolor="#f3a6e3"] ;
2 -> 4 ;
5 [label=<Algodon &le; 24.145<br/>gini = 0.346<br/>samples = 290<br/>value = [0, 0, 0, 101, 352]<br/>class = Sintéticos>, fillcolor="#ec72d2"] ;
4 -> 5 ;
6 [label=<Poliester &le; 50.025<br/>gini = 0.146<br/>samples = 221<br/>value = [0, 0, 0, 28, 325]<br/>class = Sintéticos>, fillcolor="#e74ac5"] ;
5 -> 6 ;
7 [label=<gini = 0.0<br/>samples = 21<br/>value = [0, 0, 0, 28, 0]<br/>class = Mixto>, fillcolor="#3c39e5"] ;
6 -> 7 ;
8 [label=<gini = 0.0<br/>samples = 200<br/>value = [0, 0, 0, 0, 325]<br/>class = Sintéticos>, fillcolor="#e539c0"] ;
6 -> 8 ;
9 [label=<Nylon &le; 10.06<br/>gini = 0.394<br/>samples = 69<br/>value = [0, 0, 0, 73, 27]<br/>class = Mixto>, fillcolor="#8482ef"] ;
5 -> 9 ;
10 [label=<Peso &le; 3.15<br/>gini = 0.355<br/>samples = 21<br/>value = [0, 0, 0, 6, 20]<br/>class = Sintéticos>, fillcolor="#ed74d3"] ;
9 -> 10 ;
11 [label=<Poliester &le; 51.085<br/>gini = 0.49<br/>samples = 12<br/>value = [0, 0, 0, 6, 8]<br/>class = Sintéticos>, fillcolor="#f8ceef"] ;
10 -> 11 ;
12 [label=<gini = 0.0<br/>samples = 5<br/>value = [0, 0, 0, 6, 0]<br/>class = Mixto>, fillcolor="#3c39e5"] ;
11 -> 12 ;
13 [label=<gini = 0.0<br/>samples = 7<br/>value = [0, 0, 0, 0, 8]<br/>class = Sintéticos>, fillcolor="#e539c0"] ;
11 -> 13 ;
14 [label=<gini = 0.0<br/>samples = 9<br/>value = [0, 0, 0, 0, 12]<br/>class = Sintéticos>, fillcolor="#e539c0"] ;
10 -> 14 ;
15 [label=<Poliester &le; 50.125<br/>gini = 0.171<br/>samples = 48<br/>value = [0, 0, 0, 67, 7]<br/>class = Mixto>, fillcolor="#504ee8"] ;
9 -> 15 ;
16 [label=<gini = 0.0<br/>samples = 42<br/>value = [0, 0, 0, 67, 0]<br/>class = Mixto>, fillcolor="#3c39e5"] ;
15 -> 16 ;
17 [label=<gini = 0.0<br/>samples = 6<br/>value = [0, 0, 0, 0, 7]<br/>class = Sintéticos>, fillcolor="#e539c0"] ;
15 -> 17 ;
18 [label=<Algodon &le; 17.57<br/>gini = 0.483<br/>samples = 708<br/>value = [0, 0, 0, 468, 681]<br/>class = Sintéticos>, fillcolor="#f7c1eb"] ;
4 -> 18 ;
19 [label=<Nylon &le; 18.28<br/>gini = 0.334<br/>samples = 442<br/>value = [0, 0, 0, 154, 573]<br/>class = Sintéticos>, fillcolor="#ec6ed1"] ;
18 -> 19 ;
20 [label=<Nylon &le; 16.63<br/>gini = 0.16<br/>samples = 345<br/>value = [0, 0, 0, 50, 519]<br/>class = Sintéticos>, fillcolor="#e84cc6"] ;
19 -> 20 ;
21 [label=<Poliester &le; 49.86<br/>gini = 0.11<br/>samples = 303<br/>value = [0, 0, 0, 29, 468]<br/>class = Sintéticos>, fillcolor="#e745c4"] ;
20 -> 21 ;
22 [label=<gini = 0.0<br/>samples = 23<br/>value = [0, 0, 0, 29, 0]<br/>class = Mixto>, fillcolor="#3c39e5"] ;
21 -> 22 ;
23 [label=<gini = 0.0<br/>samples = 280<br/>value = [0, 0, 0, 0, 468]<br/>class = Sintéticos>, fillcolor="#e539c0"] ;
21 -> 23 ;
24 [label=<Poliester &le; 49.725<br/>gini = 0.413<br/>samples = 42<br/>value = [0, 0, 0, 21, 51]<br/>class = Sintéticos>, fillcolor="#f08bda"] ;
20 -> 24 ;
25 [label=<gini = 0.0<br/>samples = 12<br/>value = [0, 0, 0, 21, 0]<br/>class = Mixto>, fillcolor="#3c39e5"] ;
24 -> 25 ;
26 [label=<gini = 0.0<br/>samples = 30<br/>value = [0, 0, 0, 0, 51]<br/>class = Sintéticos>, fillcolor="#e539c0"] ;
24 -> 26 ;
27 [label=<Peso &le; 2.32<br/>gini = 0.45<br/>samples = 97<br/>value = [0, 0, 0, 104, 54]<br/>class = Mixto>, fillcolor="#a1a0f2"] ;
19 -> 27 ;
28 [label=<Viscosa &le; 1.925<br/>gini = 0.444<br/>samples = 11<br/>value = [0, 0, 0, 5, 10]<br/>class = Sintéticos>, fillcolor="#f29ce0"] ;
27 -> 28 ;
29 [label=<gini = 0.0<br/>samples = 2<br/>value = [0, 0, 0, 0, 5]<br/>class = Sintéticos>, fillcolor="#e539c0"] ;
28 -> 29 ;
30 [label=<Poliester &le; 50.345<br/>gini = 0.5<br/>samples = 9<br/>value = [0, 0, 0, 5, 5]<br/>class = Mixto>, fillcolor="#ffffff"] ;
28 -> 30 ;
31 [label=<gini = 0.0<br/>samples = 5<br/>value = [0, 0, 0, 5, 0]<br/>class = Mixto>, fillcolor="#3c39e5"] ;
30 -> 31 ;
32 [label=<gini = 0.0<br/>samples = 4<br/>value = [0, 0, 0, 0, 5]<br/>class = Sintéticos>, fillcolor="#e539c0"] ;
30 -> 32 ;
33 [label=<Poliester &le; 50.22<br/>gini = 0.426<br/>samples = 86<br/>value = [0, 0, 0, 99, 44]<br/>class = Mixto>, fillcolor="#9391f1"] ;
27 -> 33 ;
34 [label=<gini = 0.0<br/>samples = 56<br/>value = [0, 0, 0, 99, 0]<br/>class = Mixto>, fillcolor="#3c39e5"] ;
33 -> 34 ;
35 [label=<gini = 0.0<br/>samples = 30<br/>value = [0, 0, 0, 0, 44]<br/>class = Sintéticos>, fillcolor="#e539c0"] ;
33 -> 35 ;
36 [label=<Poliester &le; 49.97<br/>gini = 0.381<br/>samples = 266<br/>value = [0.0, 0.0, 0.0, 314.0, 108.0]<br/>class = Mixto>, fillcolor="#7f7dee"] ;
18 -> 36 ;
37 [label=<gini = 0.0<br/>samples = 198<br/>value = [0, 0, 0, 314, 0]<br/>class = Mixto>, fillcolor="#3c39e5"] ;
36 -> 37 ;
38 [label=<gini = 0.0<br/>samples = 68<br/>value = [0, 0, 0, 0, 108]<br/>class = Sintéticos>, fillcolor="#e539c0"] ;
36 -> 38 ;
39 [label=<gini = 0.0<br/>samples = 1984<br/>value = [3097, 0, 0, 0, 0]<br/>class = Algodón>, fillcolor="#e58139"] ;
1 -> 39 ;
40 [label=<Poliester &le; 49.965<br/>gini = 0.142<br/>samples = 2026<br/>value = [0, 196, 31, 2982, 18]<br/>class = Mixto>, fillcolor="#4c49e7"] ;
0 -> 40 [labeldistance=2.5, labelangle=-45, headlabel="False"] ;
41 [label=<Seda &le; 29.995<br/>gini = 0.133<br/>samples = 2014<br/>value = [0.0, 196.0, 31.0, 2982.0, 0.0]<br/>class = Mixto>, fillcolor="#4b48e7"] ;
40 -> 41 ;
42 [label=<Algodon &le; 4.235<br/>gini = 0.02<br/>samples = 1902<br/>value = [0.0, 0.0, 31.0, 2982.0, 0.0]<br/>class = Mixto>, fillcolor="#3e3be5"] ;
41 -> 42 ;
43 [label=<Lana &le; 49.915<br/>gini = 0.234<br/>samples = 91<br/>value = [0, 0, 20, 128, 0]<br/>class = Mixto>, fillcolor="#5a58e9"] ;
42 -> 43 ;
44 [label=<gini = 0.0<br/>samples = 79<br/>value = [0, 0, 0, 128, 0]<br/>class = Mixto>, fillcolor="#3c39e5"] ;
43 -> 44 ;
45 [label=<gini = 0.0<br/>samples = 12<br/>value = [0, 0, 20, 0, 0]<br/>class = Lana>, fillcolor="#39e5c5"] ;
43 -> 45 ;
46 [label=<Peso &le; 1.185<br/>gini = 0.008<br/>samples = 1811<br/>value = [0, 0, 11, 2854, 0]<br/>class = Mixto>, fillcolor="#3d3ae5"] ;
42 -> 46 ;
47 [label=<Peso &le; 1.175<br/>gini = 0.078<br/>samples = 82<br/>value = [0, 0, 5, 118, 0]<br/>class = Mixto>, fillcolor="#4441e6"] ;
46 -> 47 ;
48 [label=<Seda &le; 15.885<br/>gini = 0.035<br/>samples = 76<br/>value = [0, 0, 2, 109, 0]<br/>class = Mixto>, fillcolor="#403de5"] ;
47 -> 48 ;
49 [label=<Lana &le; 49.145<br/>gini = 0.087<br/>samples = 31<br/>value = [0, 0, 2, 42, 0]<br/>class = Mixto>, fillcolor="#4542e6"] ;
48 -> 49 ;
50 [label=<gini = 0.0<br/>samples = 30<br/>value = [0, 0, 0, 42, 0]<br/>class = Mixto>, fillcolor="#3c39e5"] ;
49 -> 50 ;
51 [label=<gini = 0.0<br/>samples = 1<br/>value = [0, 0, 2, 0, 0]<br/>class = Lana>, fillcolor="#39e5c5"] ;
49 -> 51 ;
52 [label=<gini = 0.0<br/>samples = 45<br/>value = [0, 0, 0, 67, 0]<br/>class = Mixto>, fillcolor="#3c39e5"] ;
48 -> 52 ;
53 [label=<Lana &le; 44.605<br/>gini = 0.375<br/>samples = 6<br/>value = [0, 0, 3, 9, 0]<br/>class = Mixto>, fillcolor="#7d7bee"] ;
47 -> 53 ;
54 [label=<gini = 0.0<br/>samples = 5<br/>value = [0, 0, 0, 9, 0]<br/>class = Mixto>, fillcolor="#3c39e5"] ;
53 -> 54 ;
55 [label=<gini = 0.0<br/>samples = 1<br/>value = [0, 0, 3, 0, 0]<br/>class = Lana>, fillcolor="#39e5c5"] ;
53 -> 55 ;
56 [label=<Lana &le; 50.21<br/>gini = 0.004<br/>samples = 1729<br/>value = [0, 0, 6, 2736, 0]<br/>class = Mixto>, fillcolor="#3c39e5"] ;
46 -> 56 ;
57 [label=<gini = 0.0<br/>samples = 1723<br/>value = [0, 0, 0, 2736, 0]<br/>class = Mixto>, fillcolor="#3c39e5"] ;
56 -> 57 ;
58 [label=<gini = 0.0<br/>samples = 6<br/>value = [0, 0, 6, 0, 0]<br/>class = Lana>, fillcolor="#39e5c5"] ;
56 -> 58 ;
59 [label=<gini = 0.0<br/>samples = 112<br/>value = [0, 196, 0, 0, 0]<br/>class = Delicados>, fillcolor="#7be539"] ;
41 -> 59 ;
60 [label=<gini = 0.0<br/>samples = 12<br/>value = [0, 0, 0, 0, 18]<br/>class = Sintéticos>, fillcolor="#e539c0"] ;
40 -> 60 ;
}