digraph Tree {
node [shape=box, style="filled, rounded", color="black", fontname="helvetica"] ;
edge [fontname="helvetica"] ;
0 [label=<Algodon &le; 70.045<br/>gini = 0.624<br/>samples = 5089<br/>value = [3107, 208, 29, 3656, 1000]<br/>class = Mixto>, fillcolor="#e9e9fc"] ;
1 [label=<Elastano &le; 6.245<br/>gini = 0.398<br/>samples = 3097<br/>value = [0.0, 208.0, 29.0, 3656.0, 1000.0]<br/>class = Mixto>, fillcolor="#7a78ed"] ;
0 -> 1 [labeldistance=2.5, labelangle=45, headlabel="True"] ;
2 [label=<Fibra &le; 0.01<br/>gini = 0.168<br/>samples = 2078<br/>value = [0.0, 190.0, 26.0, 2979.0, 79.0]<br/>class = Mixto>, fillcolor="#4f4ce7"] ;
1 -> 2 ;
3 [label=<Seda &le; 30.03<br/>gini = 0.239<br/>samples = 991<br/>value = [0.0, 190.0, 26.0, 1369.0, 0.0]<br/>class = Mixto>, fillcolor="#5a58e9"] ;
2 -> 3 ;
4 [label=<Nylon &le; 0.1<br/>gini = 0.037<br/>samples = 880<br/>value = [0.0, 0.0, 26.0, 1369.0, 0.0]<br/>class = Mixto>, fillcolor="#403de5"] ;
3 -> 4 ;
5 [label=<gini = 0.0<br/>samples = 1<br/>value = [0, 0, 2, 0, 0]<br/>class = Lana>, fillcolor="#39e5c5"] ;
4 -> 5 ;
6 [label=<Algodon &le; 7.48<br/>gini = 0.034<br/>samples = 879<br/>value = [0, 0, 24, 1369, 0]<br/>class = Mixto>, fillcolor="#3f3ce5"] ;
4 -> 6 ;
7 [label=<Seda &le; 17.185<br/>gini = 0.128<br/>samples = 135<br/>value = [0, 0, 14, 189, 0]<br/>class = Mixto>, fillcolor="#4a48e7"] ;
6 -> 7 ;
8 [label=<Algodon &le; 7.33<br/>gini = 0.231<br/>samples = 48<br/>value = [0, 0, 10, 65, 0]<br/>class = Mixto>, fillcolor="#5a57e9"] ;
7 -> 8 ;
9 [label=<Seda &le; 17.145<br/>gini = 0.195<br/>samples = 47<br/>value = [0, 0, 8, 65, 0]<br/>class = Mixto>, fillcolor="#5451e8"] ;
8 -> 9 ;
10 [label=<Nylon &le; 1.525<br/>gini = 0.176<br/>samples = 46<br/>value = [0, 0, 7, 65, 0]<br/>class = Mixto>, fillcolor="#514ee8"] ;
9 -> 10 ;
11 [label=<Lana &le; 48.315<br/>gini = 0.494<br/>samples = 8<br/>value = [0, 0, 4, 5, 0]<br/>class = Mixto>, fillcolor="#d8d7fa"] ;
10 -> 11 ;
12 [label=<gini = 0.0<br/>samples = 4<br/>value = [0, 0, 0, 5, 0]<br/>class = Mixto>, fillcolor="#3c39e5"] ;
11 -> 12 ;
13 [label=<gini = 0.0<br/>samples = 4<br/>value = [0, 0, 4, 0, 0]<br/>class = Lana>, fillcolor="#39e5c5"] ;
11 -> 13 ;
14 [label=<Lana &le; 50.42<br/>gini = 0.091<br/>samples = 38<br/>value = [0, 0, 3, 60, 0]<br/>class = Mixto>, fillcolor="#4643e6"] ;
10 -> 14 ;
15 [label=<gini = 0.0<br/>samples = 35<br/>value = [0, 0, 0, 60, 0]<br/>class = Mixto>, fillcolor="#3c39e5"] ;
14 -> 15 ;
16 [label=<gini = 0.0<br/>samples = 3<br/>value = [0, 0, 3, 0, 0]<br/>class = Lana>, fillcolor="#39e5c5"] ;
14 -> 16 ;
17 [label=<gini = 0.0<br/>samples = 1<br/>value = [0, 0, 1, 0, 0]<br/>class = Lana>, fillcolor="#39e5c5"] ;
9 -> 17 ;
18 [label=<gini = 0.0<br/>samples = 1<br/>value = [0, 0, 2, 0, 0]<br/>class = Lana>, fillcolor="#39e5c5"] ;
8 -> 18 ;
19 [label=<Poliester &le; 8.925<br/>gini = 0.061<br/>samples = 87<br/>value = [0, 0, 4, 124, 0]<br/>class = Mixto>, fillcolor="#423fe6"] ;
7 -> 19 ;
20 [label=<Seda &le; 26.42<br/>gini = 0.36<br/>samples = 11<br/>value = [0, 0, 4, 13, 0]<br/>class = Mixto>, fillcolor="#7876ed"] ;
19 -> 20 ;
21 [label=<Viscosa &le; 6.925<br/>gini = 0.49<br/>samples = 6<br/>value = [0, 0, 4, 3, 0]<br/>class = Lana>, fillcolor="#cef8f0"] ;
20 -> 21 ;
22 [label=<gini = 0.0<br/>samples = 2<br/>value = [0, 0, 3, 0, 0]<br/>class = Lana>, fillcolor="#39e5c5"] ;
21 -> 22 ;
23 [label=<Poliester &le; 5.91<br/>gini = 0.375<br/>samples = 4<br/>value = [0, 0, 1, 3, 0]<br/>class = Mixto>, fillcolor="#7d7bee"] ;
21 -> 23 ;
24 [label=<Lana &le; 50.43<br/>gini = 0.5<br/>samples = 2<br/>value = [0, 0, 1, 1, 0]<br/>class = Lana>, fillcolor="#ffffff"] ;
23 -> 24 ;
25 [label=<gini = 0.0<br/>samples = 1<br/>value = [0, 0, 0, 1, 0]<br/>class = Mixto>, fillcolor="#3c39e5"] ;
24 -> 25 ;
26 [label=<gini = 0.0<br/>samples = 1<br/>value = [0, 0, 1, 0, 0]<br/>class = Lana>, fillcolor="#39e5c5"] ;
24 -> 26 ;
27 [label=<gini = 0.0<br/>samples = 2<br/>value = [0, 0, 0, 2, 0]<br/>class = Mixto>, fillcolor="#3c39e5"] ;
23 -> 27 ;
28 [label=<gini = 0.0<br/>samples = 5<br/>value = [0, 0, 0, 10, 0]<br/>class = Mixto>, fillcolor="#3c39e5"] ;
20 -> 28 ;
29 [label=<gini = 0.0<br/>samples = 76<br/>value = [0, 0, 0, 111, 0]<br/>class = Mixto>, fillcolor="#3c39e5"] ;
19 -> 29 ;
30 [label=<Poliester &le; 3.33<br/>gini = 0.017<br/>samples = 744<br/>value = [0, 0, 10, 1180, 0]<br/>class = Mixto>, fillcolor="#3e3be5"] ;
6 -> 30 ;
31 [label=<Poliester &le; 3.265<br/>gini = 0.174<br/>samples = 55<br/>value = [0, 0, 8, 75, 0]<br/>class = Mixto>, fillcolor="#514ee8"] ;
30 -> 31 ;
32 [label=<Elastano &le; 0.135<br/>gini = 0.156<br/>samples = 54<br/>value = [0.0, 0.0, 7.0, 75.0, 0.0]<br/>class = Mixto>, fillcolor="#4e4be7"] ;
31 -> 32 ;
33 [label=<gini = 0.0<br/>samples = 1<br/>value = [0, 0, 1, 0, 0]<br/>class = Lana>, fillcolor="#39e5c5"] ;
32 -> 33 ;
34 [label=<Lana &le; 50.295<br/>gini = 0.137<br/>samples = 53<br/>value = [0, 0, 6, 75, 0]<br/>class = Mixto>, fillcolor="#4c49e7"] ;
32 -> 34 ;
35 [label=<gini = 0.0<br/>samples = 50<br/>value = [0, 0, 0, 75, 0]<br/>class = Mixto>, fillcolor="#3c39e5"] ;
34 -> 35 ;
36 [label=<gini = 0.0<br/>samples = 3<br/>value = [0, 0, 6, 0, 0]<br/>class = Lana>, fillcolor="#39e5c5"] ;
34 -> 36 ;
37 [label=<gini = 0.0<br/>samples = 1<br/>value = [0, 0, 1, 0, 0]<br/>class = Lana>, fillcolor="#39e5c5"] ;
31 -> 37 ;
38 [label=<Algodon &le; 10.475<br/>gini = 0.004<br/>samples = 689<br/>value = [0, 0, 2, 1105, 0]<br/>class = Mixto>, fillcolor="#3c39e5"] ;
30 -> 38 ;
39 [label=<Seda &le; 9.525<br/>gini = 0.041<br/>samples = 63<br/>value = [0, 0, 2, 93, 0]<br/>class = Mixto>, fillcolor="#403de6"] ;
38 -> 39 ;
40 [label=<Elastano &le; 4.625<br/>gini = 0.48<br/>samples = 4<br/>value = [0, 0, 2, 3, 0]<br/>class = Mixto>, fillcolor="#bebdf6"] ;
39 -> 40 ;
41 [label=<Seda &le; 8.49<br/>gini = 0.444<br/>samples = 3<br/>value = [0, 0, 2, 1, 0]<br/>class = Lana>, fillcolor="#9cf2e2"] ;
40 -> 41 ;
42 [label=<gini = 0.0<br/>samples = 1<br/>value = [0, 0, 0, 1, 0]<br/>class = Mixto>, fillcolor="#3c39e5"] ;
41 -> 42 ;
43 [label=<gini = 0.0<br/>samples = 2<br/>value = [0, 0, 2, 0, 0]<br/>class = Lana>, fillcolor="#39e5c5"] ;
41 -> 43 ;
44 [label=<gini = 0.0<br/>samples = 1<br/>value = [0, 0, 0, 2, 0]<br/>class = Mixto>, fillcolor="#3c39e5"] ;
40 -> 44 ;
45 [label=<gini = 0.0<br/>samples = 59<br/>value = [0, 0, 0, 90, 0]<br/>class = Mixto>, fillcolor="#3c39e5"] ;
39 -> 45 ;
46 [label=<gini = 0.0<br/>samples = 626<br/>value = [0, 0, 0, 1012, 0]<br/>class = Mixto>, fillcolor="#3c39e5"] ;
38 -> 46 ;
47 [label=<gini = 0.0<br/>samples = 111<br/>value = [0, 190, 0, 0, 0]<br/>class = Delicados>, fillcolor="#7be539"] ;
3 -> 47 ;
48 [label=<Poliester &le; 49.99<br/>gini = 0.089<br/>samples = 1087<br/>value = [0, 0, 0, 1610, 79]<br/>class = Mixto>, fillcolor="#4643e6"] ;
2 -> 48 ;
49 [label=<gini = 0.0<br/>samples = 1036<br/>value = [0, 0, 0, 1610, 0]<br/>class = Mixto>, fillcolor="#3c39e5"] ;
48 -> 49 ;
50 [label=<gini = 0.0<br/>samples = 51<br/>value = [0, 0, 0, 0, 79]<br/>class = Sintéticos>, fillcolor="#e539c0"] ;
48 -> 50 ;
51 [label=<Poliester &le; 49.995<br/>gini = 0.501<br/>samples = 1019<br/>value = [0, 18, 3, 677, 921]<br/>class = Sintéticos>, fillcolor="#f8ccef"] ;
1 -> 51 ;
52 [label=<Lana &le; 21.565<br/>gini = 0.059<br/>samples = 445<br/>value = [0, 18, 3, 677, 0]<br/>class = Mixto>, fillcolor="#423fe6"] ;
51 -> 52 ;
53 [label=<gini = 0.0<br/>samples = 407<br/>value = [0, 0, 0, 637, 0]<br/>class = Mixto>, fillcolor="#3c39e5"] ;
52 -> 53 ;
54 [label=<Poliester &le; 7.57<br/>gini = 0.481<br/>samples = 38<br/>value = [0, 18, 3, 40, 0]<br/>class = Mixto>, fillcolor="#9b9af2"] ;
52 -> 54 ;
55 [label=<Elastano &le; 6.4<br/>gini = 0.587<br/>samples = 17<br/>value = [0, 13, 3, 13, 0]<br/>class = Delicados>, fillcolor="#ffffff"] ;
54 -> 55 ;
56 [label=<Viscosa &le; 5.845<br/>gini = 0.245<br/>samples = 5<br/>value = [0, 6, 0, 1, 0]<br/>class = Delicados>, fillcolor="#91e95a"] ;
55 -> 56 ;
57 [label=<gini = 0.0<br/>samples = 4<br/>value = [0, 6, 0, 0, 0]<br/>class = Delicados>, fillcolor="#7be539"] ;
56 -> 57 ;
58 [label=<gini = 0.0<br/>samples = 1<br/>value = [0, 0, 0, 1, 0]<br/>class = Mixto>, fillcolor="#3c39e5"] ;
56 -> 58 ;
59 [label=<Algodon &le; 11.74<br/>gini = 0.583<br/>samples = 12<br/>value = [0, 7, 3, 12, 0]<br/>class = Mixto>, fillcolor="#bebdf6"] ;
55 -> 59 ;
60 [label=<Seda &le; 29.32<br/>gini = 0.604<br/>samples = 7<br/>value = [0, 7, 3, 3, 0]<br/>class = Delicados>, fillcolor="#caf5b0"] ;
59 -> 60 ;
61 [label=<Algodon &le; 9.62<br/>gini = 0.5<br/>samples = 4<br/>value = [0, 0, 3, 3, 0]<br/>class = Lana>, fillcolor="#ffffff"] ;
60 -> 61 ;
62 [label=<gini = 0.0<br/>samples = 3<br/>value = [0, 0, 0, 3, 0]<br/>class = Mixto>, fillcolor="#3c39e5"] ;
61 -> 62 ;
63 [label=<gini = 0.0<br/>samples = 1<br/>value = [0, 0, 3, 0, 0]<br/>class = Lana>, fillcolor="#39e5c5"] ;
61 -> 63 ;
64 [label=<gini = 0.0<br/>samples = 3<br/>value = [0, 7, 0, 0, 0]<br/>class = Delicados>, fillcolor="#7be539"] ;
60 -> 64 ;
65 [label=<gini = 0.0<br/>samples = 5<br/>value = [0, 0, 0, 9, 0]<br/>class = Mixto>, fillcolor="#3c39e5"] ;
59 -> 65 ;
66 [label=<Peso &le; 2.115<br/>gini = 0.264<br/>samples = 21<br/>value = [0, 5, 0, 27, 0]<br/>class = Mixto>, fillcolor="#605eea"] ;
54 -> 66 ;
67 [label=<Nylon &le; 3.655<br/>gini = 0.111<br/>samples = 10<br/>value = [0, 1, 0, 16, 0]<br/>class = Mixto>, fillcolor="#4845e7"] ;
66 -> 67 ;
68 [label=<Seda &le; 28.78<br/>gini = 0.444<br/>samples = 2<br/>value = [0, 1, 0, 2, 0]<br/>class = Mixto>, fillcolor="#9e9cf2"] ;
67 -> 68 ;
69 [label=<gini = 0.0<br/>samples = 1<br/>value = [0, 0, 0, 2, 0]<br/>class = Mixto>, fillcolor="#3c39e5"] ;
68 -> 69 ;
70 [label=<gini = 0.0<br/>samples = 1<br/>value = [0, 1, 0, 0, 0]<br/>class = Delicados>, fillcolor="#7be539"] ;
68 -> 70 ;
71 [label=<gini = 0.0<br/>samples = 8<br/>value = [0, 0, 0, 14, 0]<br/>class = Mixto>, fillcolor="#3c39e5"] ;
67 -> 71 ;
72 [label=<Algodon &le; 8.105<br/>gini = 0.391<br/>samples = 11<br/>value = [0, 4, 0, 11, 0]<br/>class = Mixto>, fillcolor="#8381ee"] ;
66 -> 72 ;
73 [label=<gini = 0.0<br/>samples = 4<br/>value = [0, 4, 0, 0, 0]<br/>class = Delicados>, fillcolor="#7be539"] ;
72 -> 73 ;
74 [label=<gini = 0.0<br/>samples = 7<br/>value = [0, 0, 0, 11, 0]<br/>class = Mixto>, fillcolor="#3c39e5"] ;
72 -> 74 ;
75 [label=<gini = 0.0<br/>samples = 574<br/>value = [0, 0, 0, 0, 921]<br/>class = Sintéticos>, fillcolor="#e539c0"] ;
51 -> 75 ;
76 [label=<gini = 0.0<br/>samples = 1992<br/>value = [3107, 0, 0, 0, 0]<br/>class = Algodón>, fillcolor="#e58139"] ;
0 -> 76 [labeldistance=2.5, labelangle=-45, headlabel="False"] ;
}