digraph Tree {
node [shape=box, style="filled, rounded", color="black", fontname="helvetica"] ;
edge [fontname="helvetica"] ;
0 [label=<Algodon &le; 70.025<br/>gini = 0.62<br/>samples = 5031<br/>value = [3123, 197, 23, 3685, 972]<br/>class = Mixto>, fillcolor="#e9e8fc"] ;
1 [label=<Lana &le; 0.035<br/>gini = 0.388<br/>samples = 3083<br/>value = [0, 197, 23, 3685, 972]<br/>class = Mixto>, fillcolor="#7875ed"] ;
0 -> 1 [labeldistance=2.5, labelangle=45, headlabel="True"] ;
2 [label=<Nylon &le; 3.0<br/>gini = 0.488<br/>samples = 1031<br/>value = [0, 0, 0, 685, 942]<br/>class = Sintéticos>, fillcolor="#f8c9ee"] ;
1 -> 2 ;
3 [label=<gini = 0.0<br/>samples = 51<br/>value = [0, 0, 0, 74, 0]<br/>class = Mixto>, fillcolor="#3c39e5"] ;
2 -> 3 ;
4 [label=<Nylon &le; 18.175<br/>gini = 0.477<br/>samples = 980<br/>value = [0.0, 0.0, 0.0, 611.0, 942.0]<br/>class = Sintéticos>, fillcolor="#f6b9e9"] ;
2 -> 4 ;
5 [label=<Algodon &le; 19.595<br/>gini = 0.448<br/>samples = 814<br/>value = [0.0, 0.0, 0.0, 434.0, 849.0]<br/>class = Sintéticos>, fillcolor="#f29ee0"] ;
4 -> 5 ;
6 [label=<Fibra &le; 1.865<br/>gini = 0.211<br/>samples = 485<br/>value = [0, 0, 0, 91, 669]<br/>class = Sintéticos>, fillcolor="#e954c9"] ;
5 -> 6 ;
7 [label=<Poliester &le; 49.88<br/>gini = 0.124<br/>samples = 173<br/>value = [0, 0, 0, 18, 254]<br/>class = Sintéticos>, fillcolor="#e747c4"] ;
6 -> 7 ;
8 [label=<gini = 0.0<br/>samples = 11<br/>value = [0, 0, 0, 18, 0]<br/>class = Mixto>, fillcolor="#3c39e5"] ;
7 -> 8 ;
9 [label=<gini = 0.0<br/>samples = 162<br/>value = [0, 0, 0, 0, 254]<br/>class = Sintéticos>, fillcolor="#e539c0"] ;
7 -> 9 ;
10 [label=<Algodon &le; 14.715<br/>gini = 0.254<br/>samples = 312<br/>value = [0, 0, 0, 73, 415]<br/>class = Sintéticos>, fillcolor="#ea5ccb"] ;
6 -> 10 ;
11 [label=<Poliester &le; 49.685<br/>gini = 0.127<br/>samples = 225<br/>value = [0.0, 0.0, 0.0, 24.0, 329.0]<br/>class = Sintéticos>, fillcolor="#e747c5"] ;
10 -> 11 ;
12 [label=<gini = 0.0<br/>samples = 15<br/>value = [0, 0, 0, 24, 0]<br/>class = Mixto>, fillcolor="#3c39e5"] ;
11 -> 12 ;
13 [label=<gini = 0.0<br/>samples = 210<br/>value = [0, 0, 0, 0, 329]<br/>class = Sintéticos>, fillcolor="#e539c0"] ;
11 -> 13 ;
14 [label=<Elastano &le; 15.08<br/>gini = 0.462<br/>samples = 87<br/>value = [0, 0, 0, 49, 86]<br/>class = Sintéticos>, fillcolor="#f4aae4"] ;
10 -> 14 ;
15 [label=<Algodon &le; 19.27<br/>gini = 0.256<br/>samples = 62<br/>value = [0, 0, 0, 14, 79]<br/>class = Sintéticos>, fillcolor="#ea5ccb"] ;
14 -> 15 ;
16 [label=<Nylon &le; 13.94<br/>gini = 0.206<br/>samples = 58<br/>value = [0, 0, 0, 10, 76]<br/>class = Sintéticos>, fillcolor="#e853c8"] ;
15 -> 16 ;
17 [label=<Elastano &le; 13.49<br/>gini = 0.056<br/>samples = 44<br/>value = [0, 0, 0, 2, 67]<br/>class = Sintéticos>, fillcolor="#e63fc2"] ;
16 -> 17 ;
18 [label=<gini = 0.0<br/>samples = 38<br/>value = [0, 0, 0, 0, 57]<br/>class = Sintéticos>, fillcolor="#e539c0"] ;
17 -> 18 ;
19 [label=<Algodon &le; 17.34<br/>gini = 0.278<br/>samples = 6<br/>value = [0, 0, 0, 2, 10]<br/>class = Sintéticos>, fillcolor="#ea61cd"] ;
17 -> 19 ;
20 [label=<gini = 0.0<br/>samples = 4<br/>value = [0, 0, 0, 0, 10]<br/>class = Sintéticos>, fillcolor="#e539c0"] ;
19 -> 20 ;
21 [label=<gini = 0.0<br/>samples = 2<br/>value = [0, 0, 0, 2, 0]<br/>class = Mixto>, fillcolor="#3c39e5"] ;
19 -> 21 ;
22 [label=<Fibra &le; 3.415<br/>gini = 0.498<br/>samples = 14<br/>value = [0, 0, 0, 8, 9]<br/>class = Sintéticos>, fillcolor="#fce9f8"] ;
16 -> 22 ;
23 [label=<Viscosa &le; 2.145<br/>gini = 0.397<br/>samples = 9<br/>value = [0, 0, 0, 3, 8]<br/>class = Sintéticos>, fillcolor="#ef83d8"] ;
22 -> 23 ;
24 [label=<Elastano &le; 12.26<br/>gini = 0.198<br/>samples = 7<br/>value = [0, 0, 0, 1, 8]<br/>class = Sintéticos>, fillcolor="#e852c8"] ;
23 -> 24 ;
25 [label=<gini = 0.0<br/>samples = 5<br/>value = [0, 0, 0, 0, 7]<br/>class = Sintéticos>, fillcolor="#e539c0"] ;
24 -> 25 ;
26 [label=<Elastano &le; 14.17<br/>gini = 0.5<br/>samples = 2<br/>value = [0, 0, 0, 1, 1]<br/>class = Mixto>, fillcolor="#ffffff"] ;
24 -> 26 ;
27 [label=<gini = 0.0<br/>samples = 1<br/>value = [0, 0, 0, 1, 0]<br/>class = Mixto>, fillcolor="#3c39e5"] ;
26 -> 27 ;
28 [label=<gini = 0.0<br/>samples = 1<br/>value = [0, 0, 0, 0, 1]<br/>class = Sintéticos>, fillcolor="#e539c0"] ;
26 -> 28 ;
29 [label=<gini = 0.0<br/>samples = 2<br/>value = [0, 0, 0, 2, 0]<br/>class = Mixto>, fillcolor="#3c39e5"] ;
23 -> 29 ;
30 [label=<Elastano &le; 9.135<br/>gini = 0.278<br/>samples = 5<br/>value = [0, 0, 0, 5, 1]<br/>class = Mixto>, fillcolor="#6361ea"] ;
22 -> 30 ;
31 [label=<gini = 0.0<br/>samples = 1<br/>value = [0, 0, 0, 0, 1]<br/>class = Sintéticos>, fillcolor="#e539c0"] ;
30 -> 31 ;
32 [label=<gini = 0.0<br/>samples = 4<br/>value = [0, 0, 0, 5, 0]<br/>class = Mixto>, fillcolor="#3c39e5"] ;
30 -> 32 ;
33 [label=<Fibra &le; 3.255<br/>gini = 0.49<br/>samples = 4<br/>value = [0, 0, 0, 4, 3]<br/>class = Mixto>, fillcolor="#cecef8"] ;
15 -> 33 ;
34 [label=<gini = 0.0<br/>samples = 2<br/>value = [0, 0, 0, 4, 0]<br/>class = Mixto>, fillcolor="#3c39e5"] ;
33 -> 34 ;
35 [label=<gini = 0.0<br/>samples = 2<br/>value = [0, 0, 0, 0, 3]<br/>class = Sintéticos>, fillcolor="#e539c0"] ;
33 -> 35 ;
36 [label=<Poliester &le; 51.125<br/>gini = 0.278<br/>samples = 25<br/>value = [0, 0, 0, 35, 7]<br/>class = Mixto>, fillcolor="#6361ea"] ;
14 -> 36 ;
37 [label=<gini = 0.0<br/>samples = 20<br/>value = [0, 0, 0, 35, 0]<br/>class = Mixto>, fillcolor="#3c39e5"] ;
36 -> 37 ;
38 [label=<gini = 0.0<br/>samples = 5<br/>value = [0, 0, 0, 0, 7]<br/>class = Sintéticos>, fillcolor="#e539c0"] ;
36 -> 38 ;
39 [label=<Fibra &le; 3.065<br/>gini = 0.451<br/>samples = 329<br/>value = [0, 0, 0, 343, 180]<br/>class = Mixto>, fillcolor="#a2a1f3"] ;
5 -> 39 ;
40 [label=<Elastano &le; 12.74<br/>gini = 0.487<br/>samples = 213<br/>value = [0, 0, 0, 202, 145]<br/>class = Mixto>, fillcolor="#c8c7f8"] ;
39 -> 40 ;
41 [label=<Algodon &le; 25.845<br/>gini = 0.474<br/>samples = 118<br/>value = [0, 0, 0, 77, 123]<br/>class = Sintéticos>, fillcolor="#f5b5e7"] ;
40 -> 41 ;
42 [label=<Poliester &le; 49.93<br/>gini = 0.358<br/>samples = 92<br/>value = [0, 0, 0, 36, 118]<br/>class = Sintéticos>, fillcolor="#ed75d3"] ;
41 -> 42 ;
43 [label=<gini = 0.0<br/>samples = 22<br/>value = [0, 0, 0, 36, 0]<br/>class = Mixto>, fillcolor="#3c39e5"] ;
42 -> 43 ;
44 [label=<gini = 0.0<br/>samples = 70<br/>value = [0, 0, 0, 0, 118]<br/>class = Sintéticos>, fillcolor="#e539c0"] ;
42 -> 44 ;
45 [label=<Poliester &le; 51.32<br/>gini = 0.194<br/>samples = 26<br/>value = [0, 0, 0, 41, 5]<br/>class = Mixto>, fillcolor="#5451e8"] ;
41 -> 45 ;
46 [label=<gini = 0.0<br/>samples = 23<br/>value = [0, 0, 0, 41, 0]<br/>class = Mixto>, fillcolor="#3c39e5"] ;
45 -> 46 ;
47 [label=<gini = 0.0<br/>samples = 3<br/>value = [0, 0, 0, 0, 5]<br/>class = Sintéticos>, fillcolor="#e539c0"] ;
45 -> 47 ;
48 [label=<Nylon &le; 8.135<br/>gini = 0.255<br/>samples = 95<br/>value = [0.0, 0.0, 0.0, 125.0, 22.0]<br/>class = Mixto>, fillcolor="#5e5cea"] ;
40 -> 48 ;
49 [label=<Elastano &le; 17.095<br/>gini = 0.48<br/>samples = 18<br/>value = [0, 0, 0, 12, 18]<br/>class = Sintéticos>, fillcolor="#f6bdea"] ;
48 -> 49 ;
50 [label=<Poliester &le; 48.045<br/>gini = 0.1<br/>samples = 13<br/>value = [0, 0, 0, 1, 18]<br/>class = Sintéticos>, fillcolor="#e644c4"] ;
49 -> 50 ;
51 [label=<gini = 0.0<br/>samples = 1<br/>value = [0, 0, 0, 1, 0]<br/>class = Mixto>, fillcolor="#3c39e5"] ;
50 -> 51 ;
52 [label=<gini = 0.0<br/>samples = 12<br/>value = [0, 0, 0, 0, 18]<br/>class = Sintéticos>, fillcolor="#e539c0"] ;
50 -> 52 ;
53 [label=<gini = 0.0<br/>samples = 5<br/>value = [0, 0, 0, 11, 0]<br/>class = Mixto>, fillcolor="#3c39e5"] ;
49 -> 53 ;
54 [label=<Viscosa &le; 0.675<br/>gini = 0.066<br/>samples = 77<br/>value = [0, 0, 0, 113, 4]<br/>class = Mixto>, fillcolor="#4340e6"] ;
48 -> 54 ;
55 [label=<Algodon &le; 21.365<br/>gini = 0.375<br/>samples = 6<br/>value = [0, 0, 0, 6, 2]<br/>class = Mixto>, fillcolor="#7d7bee"] ;
54 -> 55 ;
56 [label=<gini = 0.0<br/>samples = 1<br/>value = [0, 0, 0, 0, 2]<br/>class = Sintéticos>, fillcolor="#e539c0"] ;
55 -> 56 ;
57 [label=<gini = 0.0<br/>samples = 5<br/>value = [0, 0, 0, 6, 0]<br/>class = Mixto>, fillcolor="#3c39e5"] ;
55 -> 57 ;
58 [label=<Poliester &le; 50.355<br/>gini = 0.036<br/>samples = 71<br/>value = [0, 0, 0, 107, 2]<br/>class = Mixto>, fillcolor="#403de5"] ;
54 -> 58 ;
59 [label=<gini = 0.0<br/>samples = 69<br/>value = [0, 0, 0, 107, 0]<br/>class = Mixto>, fillcolor="#3c39e5"] ;
58 -> 59 ;
60 [label=<gini = 0.0<br/>samples = 2<br/>value = [0, 0, 0, 0, 2]<br/>class = Sintéticos>, fillcolor="#e539c0"] ;
58 -> 60 ;
61 [label=<Nylon &le; 7.665<br/>gini = 0.319<br/>samples = 116<br/>value = [0, 0, 0, 141, 35]<br/>class = Mixto>, fillcolor="#6c6aeb"] ;
39 -> 61 ;
62 [label=<Nylon &le; 6.91<br/>gini = 0.498<br/>samples = 27<br/>value = [0, 0, 0, 25, 22]<br/>class = Mixto>, fillcolor="#e8e7fc"] ;
61 -> 62 ;
63 [label=<Peso &le; 3.645<br/>gini = 0.412<br/>samples = 17<br/>value = [0, 0, 0, 22, 9]<br/>class = Mixto>, fillcolor="#8c8af0"] ;
62 -> 63 ;
64 [label=<Peso &le; 2.1<br/>gini = 0.211<br/>samples = 14<br/>value = [0, 0, 0, 22, 3]<br/>class = Mixto>, fillcolor="#5754e9"] ;
63 -> 64 ;
65 [label=<gini = 0.0<br/>samples = 1<br/>value = [0, 0, 0, 0, 1]<br/>class = Sintéticos>, fillcolor="#e539c0"] ;
64 -> 65 ;
66 [label=<Fibra &le; 3.79<br/>gini = 0.153<br/>samples = 13<br/>value = [0, 0, 0, 22, 2]<br/>class = Mixto>, fillcolor="#4e4be7"] ;
64 -> 66 ;
67 [label=<Algodon &le; 25.305<br/>gini = 0.444<br/>samples = 6<br/>value = [0, 0, 0, 4, 2]<br/>class = Mixto>, fillcolor="#9e9cf2"] ;
66 -> 67 ;
68 [label=<gini = 0.0<br/>samples = 2<br/>value = [0, 0, 0, 0, 2]<br/>class = Sintéticos>, fillcolor="#e539c0"] ;
67 -> 68 ;
69 [label=<gini = 0.0<br/>samples = 4<br/>value = [0, 0, 0, 4, 0]<br/>class = Mixto>, fillcolor="#3c39e5"] ;
67 -> 69 ;
70 [label=<gini = 0.0<br/>samples = 7<br/>value = [0, 0, 0, 18, 0]<br/>class = Mixto>, fillcolor="#3c39e5"] ;
66 -> 70 ;
71 [label=<gini = 0.0<br/>samples = 3<br/>value = [0, 0, 0, 0, 6]<br/>class = Sintéticos>, fillcolor="#e539c0"] ;
63 -> 71 ;
72 [label=<Algodon &le; 20.58<br/>gini = 0.305<br/>samples = 10<br/>value = [0, 0, 0, 3, 13]<br/>class = Sintéticos>, fillcolor="#eb67cf"] ;
62 -> 72 ;
73 [label=<gini = 0.0<br/>samples = 1<br/>value = [0, 0, 0, 2, 0]<br/>class = Mixto>, fillcolor="#3c39e5"] ;
72 -> 73 ;
74 [label=<Fibra &le; 4.8<br/>gini = 0.133<br/>samples = 9<br/>value = [0, 0, 0, 1, 13]<br/>class = Sintéticos>, fillcolor="#e748c5"] ;
72 -> 74 ;
75 [label=<gini = 0.0<br/>samples = 7<br/>value = [0, 0, 0, 0, 12]<br/>class = Sintéticos>, fillcolor="#e539c0"] ;
74 -> 75 ;
76 [label=<Elastano &le; 13.06<br/>gini = 0.5<br/>samples = 2<br/>value = [0, 0, 0, 1, 1]<br/>class = Mixto>, fillcolor="#ffffff"] ;
74 -> 76 ;
77 [label=<gini = 0.0<br/>samples = 1<br/>value = [0, 0, 0, 0, 1]<br/>class = Sintéticos>, fillcolor="#e539c0"] ;
76 -> 77 ;
78 [label=<gini = 0.0<br/>samples = 1<br/>value = [0, 0, 0, 1, 0]<br/>class = Mixto>, fillcolor="#3c39e5"] ;
76 -> 78 ;
79 [label=<Nylon &le; 15.46<br/>gini = 0.181<br/>samples = 89<br/>value = [0, 0, 0, 116, 13]<br/>class = Mixto>, fillcolor="#524fe8"] ;
61 -> 79 ;
80 [label=<Fibra &le; 4.16<br/>gini = 0.222<br/>samples = 71<br/>value = [0, 0, 0, 89, 13]<br/>class = Mixto>, fillcolor="#5856e9"] ;
79 -> 80 ;
81 [label=<Algodon &le; 22.31<br/>gini = 0.294<br/>samples = 48<br/>value = [0, 0, 0, 55, 12]<br/>class = Mixto>, fillcolor="#6764eb"] ;
80 -> 81 ;
82 [label=<Elastano &le; 8.905<br/>gini = 0.464<br/>samples = 23<br/>value = [0, 0, 0, 19, 11]<br/>class = Mixto>, fillcolor="#adacf4"] ;
81 -> 82 ;
83 [label=<gini = 0.0<br/>samples = 7<br/>value = [0, 0, 0, 0, 7]<br/>class = Sintéticos>, fillcolor="#e539c0"] ;
82 -> 83 ;
84 [label=<Poliester &le; 50.16<br/>gini = 0.287<br/>samples = 16<br/>value = [0, 0, 0, 19, 4]<br/>class = Mixto>, fillcolor="#6563ea"] ;
82 -> 84 ;
85 [label=<gini = 0.0<br/>samples = 14<br/>value = [0, 0, 0, 19, 0]<br/>class = Mixto>, fillcolor="#3c39e5"] ;
84 -> 85 ;
86 [label=<gini = 0.0<br/>samples = 2<br/>value = [0, 0, 0, 0, 4]<br/>class = Sintéticos>, fillcolor="#e539c0"] ;
84 -> 86 ;
87 [label=<Poliester &le; 51.9<br/>gini = 0.053<br/>samples = 25<br/>value = [0, 0, 0, 36, 1]<br/>class = Mixto>, fillcolor="#413ee6"] ;
81 -> 87 ;
88 [label=<gini = 0.0<br/>samples = 24<br/>value = [0, 0, 0, 36, 0]<br/>class = Mixto>, fillcolor="#3c39e5"] ;
87 -> 88 ;
89 [label=<gini = 0.0<br/>samples = 1<br/>value = [0, 0, 0, 0, 1]<br/>class = Sintéticos>, fillcolor="#e539c0"] ;
87 -> 89 ;
90 [label=<Poliester &le; 50.5<br/>gini = 0.056<br/>samples = 23<br/>value = [0, 0, 0, 34, 1]<br/>class = Mixto>, fillcolor="#423fe6"] ;
80 -> 90 ;
91 [label=<gini = 0.0<br/>samples = 22<br/>value = [0, 0, 0, 34, 0]<br/>class = Mixto>, fillcolor="#3c39e5"] ;
90 -> 91 ;
92 [label=<gini = 0.0<br/>samples = 1<br/>value = [0, 0, 0, 0, 1]<br/>class = Sintéticos>, fillcolor="#e539c0"] ;
90 -> 92 ;
93 [label=<gini = 0.0<br/>samples = 18<br/>value = [0, 0, 0, 27, 0]<br/>class = Mixto>, fillcolor="#3c39e5"] ;
79 -> 93 ;
94 [label=<Poliester &le; 50.075<br/>gini = 0.452<br/>samples = 166<br/>value = [0, 0, 0, 177, 93]<br/>class = Mixto>, fillcolor="#a2a1f3"] ;
4 -> 94 ;
95 [label=<gini = 0.0<br/>samples = 104<br/>value = [0, 0, 0, 177, 0]<br/>class = Mixto>, fillcolor="#3c39e5"] ;
94 -> 95 ;
96 [label=<gini = 0.0<br/>samples = 62<br/>value = [0, 0, 0, 0, 93]<br/>class = Sintéticos>, fillcolor="#e539c0"] ;
94 -> 96 ;
97 [label=<Seda &le; 29.965<br/>gini = 0.144<br/>samples = 2052<br/>value = [0.0, 197.0, 23.0, 3000.0, 30.0]<br/>class = Mixto>, fillcolor="#4c49e7"] ;
1 -> 97 ;
98 [label=<Poliester &le; 49.965<br/>gini = 0.034<br/>samples = 1925<br/>value = [0, 0, 23, 3000, 30]<br/>class = Mixto>, fillcolor="#3f3ce5"] ;
97 -> 98 ;
99 [label=<Lana &le; 50.175<br/>gini = 0.015<br/>samples = 1901<br/>value = [0, 0, 23, 3000, 0]<br/>class = Mixto>, fillcolor="#3d3be5"] ;
98 -> 99 ;
100 [label=<gini = 0.0<br/>samples = 1885<br/>value = [0, 0, 0, 3000, 0]<br/>class = Mixto>, fillcolor="#3c39e5"] ;
99 -> 100 ;
101 [label=<gini = 0.0<br/>samples = 16<br/>value = [0, 0, 23, 0, 0]<br/>class = Lana>, fillcolor="#39e5c5"] ;
99 -> 101 ;
102 [label=<gini = 0.0<br/>samples = 24<br/>value = [0, 0, 0, 0, 30]<br/>class = Sintéticos>, fillcolor="#e539c0"] ;
98 -> 102 ;
103 [label=<gini = 0.0<br/>samples = 127<br/>value = [0, 197, 0, 0, 0]<br/>class = Delicados>, fillcolor="#7be539"] ;
97 -> 103 ;
104 [label=<gini = 0.0<br/>samples = 1948<br/>value = [3123, 0, 0, 0, 0]<br/>class = Algodón>, fillcolor="#e58139"] ;
0 -> 104 [labeldistance=2.5, labelangle=-45, headlabel="False"] ;
}