digraph Tree {
node [shape=box, style="filled, rounded", color="black", fontname="helvetica"] ;
edge [fontname="helvetica"] ;
0 [label=<Lana &le; 0.005<br/>gini = 0.618<br/>samples = 5084<br/>value = [3138, 193, 27, 3693, 949]<br/>class = Mixto>, fillcolor="#e9e8fc"] ;
1 [label=<Elastano &le; 5.38<br/>gini = 0.504<br/>samples = 2999<br/>value = [3138, 0, 0, 684, 920]<br/>class = Algodón>, fillcolor="#f0b68c"] ;
0 -> 1 [labeldistance=2.5, labelangle=45, headlabel="True"] ;
2 [label=<Viscosa &le; 7.275<br/>gini = 0.058<br/>samples = 2012<br/>value = [3113, 0, 0, 77, 19]<br/>class = Algodón>, fillcolor="#e6853f"] ;
1 -> 2 ;
3 [label=<Elastano &le; 4.87<br/>gini = 0.031<br/>samples = 1766<br/>value = [2803, 0, 0, 25, 19]<br/>class = Algodón>, fillcolor="#e5833c"] ;
2 -> 3 ;
4 [label=<Poliester &le; 18.405<br/>gini = 0.018<br/>samples = 1734<br/>value = [2770, 0, 0, 21, 5]<br/>class = Algodón>, fillcolor="#e5823b"] ;
3 -> 4 ;
5 [label=<Elastano &le; 4.835<br/>gini = 0.001<br/>samples = 1698<br/>value = [2738, 0, 0, 1, 0]<br/>class = Algodón>, fillcolor="#e58139"] ;
4 -> 5 ;
6 [label=<gini = 0.0<br/>samples = 1694<br/>value = [2733, 0, 0, 0, 0]<br/>class = Algodón>, fillcolor="#e58139"] ;
5 -> 6 ;
7 [label=<Algodon &le; 70.245<br/>gini = 0.278<br/>samples = 4<br/>value = [5, 0, 0, 1, 0]<br/>class = Algodón>, fillcolor="#ea9a61"] ;
5 -> 7 ;
8 [label=<gini = 0.0<br/>samples = 1<br/>value = [0, 0, 0, 1, 0]<br/>class = Mixto>, fillcolor="#3c39e5"] ;
7 -> 8 ;
9 [label=<gini = 0.0<br/>samples = 3<br/>value = [5, 0, 0, 0, 0]<br/>class = Algodón>, fillcolor="#e58139"] ;
7 -> 9 ;
10 [label=<Viscosa &le; 2.6<br/>gini = 0.554<br/>samples = 36<br/>value = [32, 0, 0, 20, 5]<br/>class = Algodón>, fillcolor="#f7d6bf"] ;
4 -> 10 ;
11 [label=<Poliester &le; 37.7<br/>gini = 0.198<br/>samples = 18<br/>value = [24, 0, 0, 0, 3]<br/>class = Algodón>, fillcolor="#e89152"] ;
10 -> 11 ;
12 [label=<gini = 0.0<br/>samples = 16<br/>value = [24, 0, 0, 0, 0]<br/>class = Algodón>, fillcolor="#e58139"] ;
11 -> 12 ;
13 [label=<gini = 0.0<br/>samples = 2<br/>value = [0, 0, 0, 0, 3]<br/>class = Sintéticos>, fillcolor="#e539c0"] ;
11 -> 13 ;
14 [label=<Algodon &le; 70.12<br/>gini = 0.48<br/>samples = 18<br/>value = [8, 0, 0, 20, 2]<br/>class = Mixto>, fillcolor="#9593f1"] ;
10 -> 14 ;
15 [label=<Poliester &le; 44.94<br/>gini = 0.165<br/>samples = 13<br/>value = [0, 0, 0, 20, 2]<br/>class = Mixto>, fillcolor="#504de8"] ;
14 -> 15 ;
16 [label=<gini = 0.0<br/>samples = 11<br/>value = [0, 0, 0, 20, 0]<br/>class = Mixto>, fillcolor="#3c39e5"] ;
15 -> 16 ;
17 [label=<gini = 0.0<br/>samples = 2<br/>value = [0, 0, 0, 0, 2]<br/>class = Sintéticos>, fillcolor="#e539c0"] ;
15 -> 17 ;
18 [label=<gini = 0.0<br/>samples = 5<br/>value = [8, 0, 0, 0, 0]<br/>class = Algodón>, fillcolor="#e58139"] ;
14 -> 18 ;
19 [label=<Nylon &le; 3.5<br/>gini = 0.5<br/>samples = 32<br/>value = [33.0, 0.0, 0.0, 4.0, 14.0]<br/>class = Algodón>, fillcolor="#f2be99"] ;
3 -> 19 ;
20 [label=<Elastano &le; 4.935<br/>gini = 0.153<br/>samples = 22<br/>value = [33, 0, 0, 3, 0]<br/>class = Algodón>, fillcolor="#e78c4b"] ;
19 -> 20 ;
21 [label=<Poliester &le; 12.83<br/>gini = 0.444<br/>samples = 3<br/>value = [4, 0, 0, 2, 0]<br/>class = Algodón>, fillcolor="#f2c09c"] ;
20 -> 21 ;
22 [label=<gini = 0.0<br/>samples = 2<br/>value = [4, 0, 0, 0, 0]<br/>class = Algodón>, fillcolor="#e58139"] ;
21 -> 22 ;
23 [label=<gini = 0.0<br/>samples = 1<br/>value = [0, 0, 0, 2, 0]<br/>class = Mixto>, fillcolor="#3c39e5"] ;
21 -> 23 ;
24 [label=<Viscosa &le; 1.525<br/>gini = 0.064<br/>samples = 19<br/>value = [29, 0, 0, 1, 0]<br/>class = Algodón>, fillcolor="#e68540"] ;
20 -> 24 ;
25 [label=<Viscosa &le; 1.355<br/>gini = 0.198<br/>samples = 6<br/>value = [8, 0, 0, 1, 0]<br/>class = Algodón>, fillcolor="#e89152"] ;
24 -> 25 ;
26 [label=<gini = 0.0<br/>samples = 5<br/>value = [8, 0, 0, 0, 0]<br/>class = Algodón>, fillcolor="#e58139"] ;
25 -> 26 ;
27 [label=<gini = 0.0<br/>samples = 1<br/>value = [0, 0, 0, 1, 0]<br/>class = Mixto>, fillcolor="#3c39e5"] ;
25 -> 27 ;
28 [label=<gini = 0.0<br/>samples = 13<br/>value = [21, 0, 0, 0, 0]<br/>class = Algodón>, fillcolor="#e58139"] ;
24 -> 28 ;
29 [label=<Fibra &le; 2.355<br/>gini = 0.124<br/>samples = 10<br/>value = [0, 0, 0, 1, 14]<br/>class = Sintéticos>, fillcolor="#e747c4"] ;
19 -> 29 ;
30 [label=<Elastano &le; 5.265<br/>gini = 0.5<br/>samples = 2<br/>value = [0, 0, 0, 1, 1]<br/>class = Mixto>, fillcolor="#ffffff"] ;
29 -> 30 ;
31 [label=<gini = 0.0<br/>samples = 1<br/>value = [0, 0, 0, 0, 1]<br/>class = Sintéticos>, fillcolor="#e539c0"] ;
30 -> 31 ;
32 [label=<gini = 0.0<br/>samples = 1<br/>value = [0, 0, 0, 1, 0]<br/>class = Mixto>, fillcolor="#3c39e5"] ;
30 -> 32 ;
33 [label=<gini = 0.0<br/>samples = 8<br/>value = [0, 0, 0, 0, 13]<br/>class = Sintéticos>, fillcolor="#e539c0"] ;
29 -> 33 ;
34 [label=<Algodon &le; 70.12<br/>gini = 0.246<br/>samples = 246<br/>value = [310, 0, 0, 52, 0]<br/>class = Algodón>, fillcolor="#e9965a"] ;
2 -> 34 ;
35 [label=<gini = 0.0<br/>samples = 29<br/>value = [0, 0, 0, 52, 0]<br/>class = Mixto>, fillcolor="#3c39e5"] ;
34 -> 35 ;
36 [label=<gini = 0.0<br/>samples = 217<br/>value = [310, 0, 0, 0, 0]<br/>class = Algodón>, fillcolor="#e58139"] ;
34 -> 36 ;
37 [label=<Poliester &le; 49.975<br/>gini = 0.498<br/>samples = 987<br/>value = [25, 0, 0, 607, 901]<br/>class = Sintéticos>, fillcolor="#f7c0eb"] ;
1 -> 37 ;
38 [label=<Elastano &le; 6.065<br/>gini = 0.076<br/>samples = 401<br/>value = [25, 0, 0, 607, 0]<br/>class = Mixto>, fillcolor="#4441e6"] ;
37 -> 38 ;
39 [label=<Peso &le; 3.49<br/>gini = 0.293<br/>samples = 19<br/>value = [23, 0, 0, 5, 0]<br/>class = Algodón>, fillcolor="#eb9c64"] ;
38 -> 39 ;
40 [label=<gini = 0.0<br/>samples = 2<br/>value = [0, 0, 0, 3, 0]<br/>class = Mixto>, fillcolor="#3c39e5"] ;
39 -> 40 ;
41 [label=<Poliester &le; 27.04<br/>gini = 0.147<br/>samples = 17<br/>value = [23, 0, 0, 2, 0]<br/>class = Algodón>, fillcolor="#e78c4a"] ;
39 -> 41 ;
42 [label=<gini = 0.0<br/>samples = 15<br/>value = [23, 0, 0, 0, 0]<br/>class = Algodón>, fillcolor="#e58139"] ;
41 -> 42 ;
43 [label=<gini = 0.0<br/>samples = 2<br/>value = [0, 0, 0, 2, 0]<br/>class = Mixto>, fillcolor="#3c39e5"] ;
41 -> 43 ;
44 [label=<Viscosa &le; 7.6<br/>gini = 0.007<br/>samples = 382<br/>value = [2, 0, 0, 602, 0]<br/>class = Mixto>, fillcolor="#3d3ae5"] ;
38 -> 44 ;
45 [label=<Poliester &le; 19.08<br/>gini = 0.003<br/>samples = 381<br/>value = [1, 0, 0, 602, 0]<br/>class = Mixto>, fillcolor="#3c39e5"] ;
44 -> 45 ;
46 [label=<gini = 0.0<br/>samples = 1<br/>value = [1, 0, 0, 0, 0]<br/>class = Algodón>, fillcolor="#e58139"] ;
45 -> 46 ;
47 [label=<gini = 0.0<br/>samples = 380<br/>value = [0, 0, 0, 602, 0]<br/>class = Mixto>, fillcolor="#3c39e5"] ;
45 -> 47 ;
48 [label=<gini = 0.0<br/>samples = 1<br/>value = [1, 0, 0, 0, 0]<br/>class = Algodón>, fillcolor="#e58139"] ;
44 -> 48 ;
49 [label=<gini = 0.0<br/>samples = 586<br/>value = [0, 0, 0, 0, 901]<br/>class = Sintéticos>, fillcolor="#e539c0"] ;
37 -> 49 ;
50 [label=<Lana &le; 50.175<br/>gini = 0.143<br/>samples = 2085<br/>value = [0, 193, 27, 3009, 29]<br/>class = Mixto>, fillcolor="#4c49e7"] ;
0 -> 50 [labeldistance=2.5, labelangle=-45, headlabel="False"] ;
51 [label=<Poliester &le; 49.83<br/>gini = 0.129<br/>samples = 2064<br/>value = [0, 193, 0, 3009, 29]<br/>class = Mixto>, fillcolor="#4a47e7"] ;
50 -> 51 ;
52 [label=<Poliester &le; 21.14<br/>gini = 0.113<br/>samples = 2042<br/>value = [0, 193, 0, 3009, 0]<br/>class = Mixto>, fillcolor="#4946e7"] ;
51 -> 52 ;
53 [label=<Poliester &le; 20.615<br/>gini = 0.26<br/>samples = 665<br/>value = [0, 160, 0, 880, 0]<br/>class = Mixto>, fillcolor="#5f5dea"] ;
52 -> 53 ;
54 [label=<Seda &le; 29.985<br/>gini = 0.249<br/>samples = 637<br/>value = [0, 146, 0, 854, 0]<br/>class = Mixto>, fillcolor="#5d5be9"] ;
53 -> 54 ;
55 [label=<gini = 0.0<br/>samples = 544<br/>value = [0, 0, 0, 854, 0]<br/>class = Mixto>, fillcolor="#3c39e5"] ;
54 -> 55 ;
56 [label=<gini = 0.0<br/>samples = 93<br/>value = [0, 146, 0, 0, 0]<br/>class = Delicados>, fillcolor="#7be539"] ;
54 -> 56 ;
57 [label=<Viscosa &le; 10.54<br/>gini = 0.455<br/>samples = 28<br/>value = [0, 14, 0, 26, 0]<br/>class = Mixto>, fillcolor="#a5a4f3"] ;
53 -> 57 ;
58 [label=<Algodon &le; 19.75<br/>gini = 0.418<br/>samples = 26<br/>value = [0, 11, 0, 26, 0]<br/>class = Mixto>, fillcolor="#8e8df0"] ;
57 -> 58 ;
59 [label=<Seda &le; 29.68<br/>gini = 0.475<br/>samples = 13<br/>value = [0, 11, 0, 7, 0]<br/>class = Delicados>, fillcolor="#cff6b7"] ;
58 -> 59 ;
60 [label=<gini = 0.0<br/>samples = 6<br/>value = [0, 0, 0, 7, 0]<br/>class = Mixto>, fillcolor="#3c39e5"] ;
59 -> 60 ;
61 [label=<gini = 0.0<br/>samples = 7<br/>value = [0, 11, 0, 0, 0]<br/>class = Delicados>, fillcolor="#7be539"] ;
59 -> 61 ;
62 [label=<gini = 0.0<br/>samples = 13<br/>value = [0, 0, 0, 19, 0]<br/>class = Mixto>, fillcolor="#3c39e5"] ;
58 -> 62 ;
63 [label=<gini = 0.0<br/>samples = 2<br/>value = [0, 3, 0, 0, 0]<br/>class = Delicados>, fillcolor="#7be539"] ;
57 -> 63 ;
64 [label=<Seda &le; 30.185<br/>gini = 0.03<br/>samples = 1377<br/>value = [0, 33, 0, 2129, 0]<br/>class = Mixto>, fillcolor="#3f3ce5"] ;
52 -> 64 ;
65 [label=<gini = 0.0<br/>samples = 1355<br/>value = [0, 0, 0, 2129, 0]<br/>class = Mixto>, fillcolor="#3c39e5"] ;
64 -> 65 ;
66 [label=<gini = 0.0<br/>samples = 22<br/>value = [0, 33, 0, 0, 0]<br/>class = Delicados>, fillcolor="#7be539"] ;
64 -> 66 ;
67 [label=<gini = 0.0<br/>samples = 22<br/>value = [0, 0, 0, 0, 29]<br/>class = Sintéticos>, fillcolor="#e539c0"] ;
51 -> 67 ;
68 [label=<gini = 0.0<br/>samples = 21<br/>value = [0, 0, 27, 0, 0]<br/>class = Lana>, fillcolor="#39e5c5"] ;
50 -> 68 ;
}