digraph Tree {
node [shape=box, style="filled, rounded", color="black", fontname="helvetica"] ;
edge [fontname="helvetica"] ;
0 [label=<Poliester &le; 17.94<br/>gini = 0.625<br/>samples = 5013<br/>value = [3121, 195, 35, 3635, 1014]<br/>class = Mixto>, fillcolor="#eaeafc"] ;
1 [label=<Algodon &le; 70.035<br/>gini = 0.36<br/>samples = 2478<br/>value = [3068.0, 140.0, 31.0, 699.0, 0.0]<br/>class = Algodón>, fillcolor="#eca36e"] ;
0 -> 1 [labeldistance=2.5, labelangle=45, headlabel="True"] ;
2 [label=<Viscosa &le; 6.675<br/>gini = 0.327<br/>samples = 547<br/>value = [0, 140, 31, 699, 0]<br/>class = Mixto>, fillcolor="#6a67eb"] ;
1 -> 2 ;
3 [label=<Seda &le; 29.96<br/>gini = 0.377<br/>samples = 302<br/>value = [0, 101, 13, 360, 0]<br/>class = Mixto>, fillcolor="#7876ed"] ;
2 -> 3 ;
4 [label=<Lana &le; 51.19<br/>gini = 0.067<br/>samples = 235<br/>value = [0.0, 0.0, 13.0, 360.0, 0.0]<br/>class = Mixto>, fillcolor="#4340e6"] ;
3 -> 4 ;
5 [label=<gini = 0.0<br/>samples = 228<br/>value = [0, 0, 0, 360, 0]<br/>class = Mixto>, fillcolor="#3c39e5"] ;
4 -> 5 ;
6 [label=<gini = 0.0<br/>samples = 7<br/>value = [0, 0, 13, 0, 0]<br/>class = Lana>, fillcolor="#39e5c5"] ;
4 -> 6 ;
7 [label=<gini = 0.0<br/>samples = 67<br/>value = [0, 101, 0, 0, 0]<br/>class = Delicados>, fillcolor="#7be539"] ;
3 -> 7 ;
8 [label=<Peso &le; 2.585<br/>gini = 0.255<br/>samples = 245<br/>value = [0, 39, 18, 339, 0]<br/>class = Mixto>, fillcolor="#5b59e9"] ;
2 -> 8 ;
9 [label=<Peso &le; 2.57<br/>gini = 0.299<br/>samples = 182<br/>value = [0, 34, 16, 239, 0]<br/>class = Mixto>, fillcolor="#6260ea"] ;
8 -> 9 ;
10 [label=<Algodon &le; 4.3<br/>gini = 0.29<br/>samples = 181<br/>value = [0, 34, 14, 239, 0]<br/>class = Mixto>, fillcolor="#615fea"] ;
9 -> 10 ;
11 [label=<Lana &le; 50.015<br/>gini = 0.664<br/>samples = 19<br/>value = [0, 11, 11, 13, 0]<br/>class = Mixto>, fillcolor="#efeefd"] ;
10 -> 11 ;
12 [label=<Seda &le; 29.835<br/>gini = 0.497<br/>samples = 13<br/>value = [0, 11, 0, 13, 0]<br/>class = Mixto>, fillcolor="#e1e1fb"] ;
11 -> 12 ;
13 [label=<gini = 0.0<br/>samples = 8<br/>value = [0, 0, 0, 13, 0]<br/>class = Mixto>, fillcolor="#3c39e5"] ;
12 -> 13 ;
14 [label=<gini = 0.0<br/>samples = 5<br/>value = [0, 11, 0, 0, 0]<br/>class = Delicados>, fillcolor="#7be539"] ;
12 -> 14 ;
15 [label=<gini = 0.0<br/>samples = 6<br/>value = [0, 0, 11, 0, 0]<br/>class = Lana>, fillcolor="#39e5c5"] ;
11 -> 15 ;
16 [label=<Seda &le; 30.12<br/>gini = 0.187<br/>samples = 162<br/>value = [0, 23, 3, 226, 0]<br/>class = Mixto>, fillcolor="#524fe8"] ;
10 -> 16 ;
17 [label=<Lana &le; 49.88<br/>gini = 0.026<br/>samples = 147<br/>value = [0, 0, 3, 226, 0]<br/>class = Mixto>, fillcolor="#3f3ce5"] ;
16 -> 17 ;
18 [label=<gini = 0.0<br/>samples = 145<br/>value = [0, 0, 0, 226, 0]<br/>class = Mixto>, fillcolor="#3c39e5"] ;
17 -> 18 ;
19 [label=<gini = 0.0<br/>samples = 2<br/>value = [0, 0, 3, 0, 0]<br/>class = Lana>, fillcolor="#39e5c5"] ;
17 -> 19 ;
20 [label=<gini = 0.0<br/>samples = 15<br/>value = [0, 23, 0, 0, 0]<br/>class = Delicados>, fillcolor="#7be539"] ;
16 -> 20 ;
21 [label=<gini = 0.0<br/>samples = 1<br/>value = [0, 0, 2, 0, 0]<br/>class = Lana>, fillcolor="#39e5c5"] ;
9 -> 21 ;
22 [label=<Seda &le; 30.515<br/>gini = 0.124<br/>samples = 63<br/>value = [0.0, 5.0, 2.0, 100.0, 0.0]<br/>class = Mixto>, fillcolor="#4947e7"] ;
8 -> 22 ;
23 [label=<Poliester &le; 4.22<br/>gini = 0.038<br/>samples = 58<br/>value = [0, 0, 2, 100, 0]<br/>class = Mixto>, fillcolor="#403de6"] ;
22 -> 23 ;
24 [label=<Lana &le; 51.63<br/>gini = 0.18<br/>samples = 10<br/>value = [0, 0, 2, 18, 0]<br/>class = Mixto>, fillcolor="#524fe8"] ;
23 -> 24 ;
25 [label=<gini = 0.0<br/>samples = 9<br/>value = [0, 0, 0, 18, 0]<br/>class = Mixto>, fillcolor="#3c39e5"] ;
24 -> 25 ;
26 [label=<gini = 0.0<br/>samples = 1<br/>value = [0, 0, 2, 0, 0]<br/>class = Lana>, fillcolor="#39e5c5"] ;
24 -> 26 ;
27 [label=<gini = 0.0<br/>samples = 48<br/>value = [0, 0, 0, 82, 0]<br/>class = Mixto>, fillcolor="#3c39e5"] ;
23 -> 27 ;
28 [label=<gini = 0.0<br/>samples = 5<br/>value = [0, 5, 0, 0, 0]<br/>class = Delicados>, fillcolor="#7be539"] ;
22 -> 28 ;
29 [label=<gini = 0.0<br/>samples = 1931<br/>value = [3068, 0, 0, 0, 0]<br/>class = Algodón>, fillcolor="#e58139"] ;
1 -> 29 ;
30 [label=<Elastano &le; 5.395<br/>gini = 0.415<br/>samples = 2535<br/>value = [53, 55, 4, 2936, 1014]<br/>class = Mixto>, fillcolor="#8482ef"] ;
0 -> 30 [labeldistance=2.5, labelangle=-45, headlabel="False"] ;
31 [label=<Seda &le; 30.125<br/>gini = 0.119<br/>samples = 1486<br/>value = [53, 50, 4, 2230, 40]<br/>class = Mixto>, fillcolor="#4846e7"] ;
30 -> 31 ;
32 [label=<Poliester &le; 49.99<br/>gini = 0.081<br/>samples = 1452<br/>value = [53.0, 0.0, 4.0, 2230.0, 40.0]<br/>class = Mixto>, fillcolor="#4441e6"] ;
31 -> 32 ;
33 [label=<Peso &le; 5.73<br/>gini = 0.049<br/>samples = 1422<br/>value = [53, 0, 4, 2230, 0]<br/>class = Mixto>, fillcolor="#413ee6"] ;
32 -> 33 ;
34 [label=<Algodon &le; 70.115<br/>gini = 0.032<br/>samples = 1402<br/>value = [32, 0, 4, 2215, 0]<br/>class = Mixto>, fillcolor="#3f3ce5"] ;
33 -> 34 ;
35 [label=<Poliester &le; 20.92<br/>gini = 0.004<br/>samples = 1382<br/>value = [0, 0, 4, 2215, 0]<br/>class = Mixto>, fillcolor="#3c39e5"] ;
34 -> 35 ;
36 [label=<Lana &le; 49.915<br/>gini = 0.043<br/>samples = 109<br/>value = [0, 0, 4, 176, 0]<br/>class = Mixto>, fillcolor="#403de6"] ;
35 -> 36 ;
37 [label=<gini = 0.0<br/>samples = 107<br/>value = [0, 0, 0, 176, 0]<br/>class = Mixto>, fillcolor="#3c39e5"] ;
36 -> 37 ;
38 [label=<gini = 0.0<br/>samples = 2<br/>value = [0, 0, 4, 0, 0]<br/>class = Lana>, fillcolor="#39e5c5"] ;
36 -> 38 ;
39 [label=<gini = 0.0<br/>samples = 1273<br/>value = [0, 0, 0, 2039, 0]<br/>class = Mixto>, fillcolor="#3c39e5"] ;
35 -> 39 ;
40 [label=<gini = 0.0<br/>samples = 20<br/>value = [32, 0, 0, 0, 0]<br/>class = Algodón>, fillcolor="#e58139"] ;
34 -> 40 ;
41 [label=<Fibra &le; 3.4<br/>gini = 0.486<br/>samples = 20<br/>value = [21, 0, 0, 15, 0]<br/>class = Algodón>, fillcolor="#f8dbc6"] ;
33 -> 41 ;
42 [label=<Viscosa &le; 7.72<br/>gini = 0.384<br/>samples = 15<br/>value = [20, 0, 0, 7, 0]<br/>class = Algodón>, fillcolor="#eead7e"] ;
41 -> 42 ;
43 [label=<gini = 0.0<br/>samples = 11<br/>value = [19, 0, 0, 0, 0]<br/>class = Algodón>, fillcolor="#e58139"] ;
42 -> 43 ;
44 [label=<Poliester &le; 18.25<br/>gini = 0.219<br/>samples = 4<br/>value = [1, 0, 0, 7, 0]<br/>class = Mixto>, fillcolor="#5855e9"] ;
42 -> 44 ;
45 [label=<gini = 0.0<br/>samples = 1<br/>value = [1, 0, 0, 0, 0]<br/>class = Algodón>, fillcolor="#e58139"] ;
44 -> 45 ;
46 [label=<gini = 0.0<br/>samples = 3<br/>value = [0, 0, 0, 7, 0]<br/>class = Mixto>, fillcolor="#3c39e5"] ;
44 -> 46 ;
47 [label=<Peso &le; 6.535<br/>gini = 0.198<br/>samples = 5<br/>value = [1, 0, 0, 8, 0]<br/>class = Mixto>, fillcolor="#5452e8"] ;
41 -> 47 ;
48 [label=<gini = 0.0<br/>samples = 3<br/>value = [0, 0, 0, 6, 0]<br/>class = Mixto>, fillcolor="#3c39e5"] ;
47 -> 48 ;
49 [label=<Peso &le; 6.73<br/>gini = 0.444<br/>samples = 2<br/>value = [1, 0, 0, 2, 0]<br/>class = Mixto>, fillcolor="#9e9cf2"] ;
47 -> 49 ;
50 [label=<gini = 0.0<br/>samples = 1<br/>value = [1, 0, 0, 0, 0]<br/>class = Algodón>, fillcolor="#e58139"] ;
49 -> 50 ;
51 [label=<gini = 0.0<br/>samples = 1<br/>value = [0, 0, 0, 2, 0]<br/>class = Mixto>, fillcolor="#3c39e5"] ;
49 -> 51 ;
52 [label=<gini = 0.0<br/>samples = 30<br/>value = [0, 0, 0, 0, 40]<br/>class = Sintéticos>, fillcolor="#e539c0"] ;
32 -> 52 ;
53 [label=<gini = 0.0<br/>samples = 34<br/>value = [0, 50, 0, 0, 0]<br/>class = Delicados>, fillcolor="#7be539"] ;
31 -> 53 ;
54 [label=<Poliester &le; 50.01<br/>gini = 0.49<br/>samples = 1049<br/>value = [0.0, 5.0, 0.0, 706.0, 974.0]<br/>class = Sintéticos>, fillcolor="#f8c9ee"] ;
30 -> 54 ;
55 [label=<Algodon &le; 2.105<br/>gini = 0.014<br/>samples = 453<br/>value = [0, 5, 0, 706, 0]<br/>class = Mixto>, fillcolor="#3d3ae5"] ;
54 -> 55 ;
56 [label=<Nylon &le; 12.365<br/>gini = 0.408<br/>samples = 5<br/>value = [0, 5, 0, 2, 0]<br/>class = Delicados>, fillcolor="#b0ef88"] ;
55 -> 56 ;
57 [label=<gini = 0.0<br/>samples = 3<br/>value = [0, 5, 0, 0, 0]<br/>class = Delicados>, fillcolor="#7be539"] ;
56 -> 57 ;
58 [label=<gini = 0.0<br/>samples = 2<br/>value = [0, 0, 0, 2, 0]<br/>class = Mixto>, fillcolor="#3c39e5"] ;
56 -> 58 ;
59 [label=<gini = 0.0<br/>samples = 448<br/>value = [0, 0, 0, 704, 0]<br/>class = Mixto>, fillcolor="#3c39e5"] ;
55 -> 59 ;
60 [label=<gini = 0.0<br/>samples = 596<br/>value = [0, 0, 0, 0, 974]<br/>class = Sintéticos>, fillcolor="#e539c0"] ;
54 -> 60 ;
}