digraph Tree {
node [shape=box, style="filled, rounded", color="black", fontname="helvetica"] ;
edge [fontname="helvetica"] ;
0 [label=<Poliester &le; 18.095<br/>gini = 0.619<br/>samples = 4997<br/>value = [3112, 203, 36, 3708, 941]<br/>class = Mixto>, fillcolor="#e7e7fc"] ;
1 [label=<Algodon &le; 70.045<br/>gini = 0.371<br/>samples = 2477<br/>value = [3081, 148, 33, 738, 0]<br/>class = Algodón>, fillcolor="#eca471"] ;
0 -> 1 [labeldistance=2.5, labelangle=45, headlabel="True"] ;
2 [label=<Lana &le; 50.21<br/>gini = 0.328<br/>samples = 559<br/>value = [0, 148, 33, 738, 0]<br/>class = Mixto>, fillcolor="#6a67eb"] ;
1 -> 2 ;
3 [label=<Seda &le; 29.985<br/>gini = 0.278<br/>samples = 540<br/>value = [0, 148, 0, 738, 0]<br/>class = Mixto>, fillcolor="#6361ea"] ;
2 -> 3 ;
4 [label=<gini = 0.0<br/>samples = 460<br/>value = [0, 0, 0, 738, 0]<br/>class = Mixto>, fillcolor="#3c39e5"] ;
3 -> 4 ;
5 [label=<gini = 0.0<br/>samples = 80<br/>value = [0, 148, 0, 0, 0]<br/>class = Delicados>, fillcolor="#7be539"] ;
3 -> 5 ;
6 [label=<gini = 0.0<br/>samples = 19<br/>value = [0, 0, 33, 0, 0]<br/>class = Lana>, fillcolor="#39e5c5"] ;
2 -> 6 ;
7 [label=<gini = 0.0<br/>samples = 1918<br/>value = [3081, 0, 0, 0, 0]<br/>class = Algodón>, fillcolor="#e58139"] ;
1 -> 7 ;
8 [label=<Lana &le; 0.005<br/>gini = 0.393<br/>samples = 2520<br/>value = [31, 55, 3, 2970, 941]<br/>class = Mixto>, fillcolor="#7e7cee"] ;
0 -> 8 [labeldistance=2.5, labelangle=-45, headlabel="False"] ;
9 [label=<Algodon &le; 23.18<br/>gini = 0.505<br/>samples = 1035<br/>value = [31, 0, 0, 651, 913]<br/>class = Sintéticos>, fillcolor="#f8c8ee"] ;
8 -> 9 ;
10 [label=<Algodon &le; 17.38<br/>gini = 0.406<br/>samples = 782<br/>value = [0.0, 0.0, 0.0, 343.0, 868.0]<br/>class = Sintéticos>, fillcolor="#ef87d9"] ;
9 -> 10 ;
11 [label=<Algodon &le; 8.035<br/>gini = 0.317<br/>samples = 543<br/>value = [0, 0, 0, 166, 676]<br/>class = Sintéticos>, fillcolor="#eb6acf"] ;
10 -> 11 ;
12 [label=<Elastano &le; 20.865<br/>gini = 0.214<br/>samples = 235<br/>value = [0, 0, 0, 43, 310]<br/>class = Sintéticos>, fillcolor="#e954c9"] ;
11 -> 12 ;
13 [label=<Nylon &le; 24.245<br/>gini = 0.088<br/>samples = 204<br/>value = [0, 0, 0, 14, 291]<br/>class = Sintéticos>, fillcolor="#e643c3"] ;
12 -> 13 ;
14 [label=<Nylon &le; 19.985<br/>gini = 0.04<br/>samples = 200<br/>value = [0.0, 0.0, 0.0, 6.0, 291.0]<br/>class = Sintéticos>, fillcolor="#e63dc1"] ;
13 -> 14 ;
15 [label=<gini = 0.0<br/>samples = 175<br/>value = [0, 0, 0, 0, 267]<br/>class = Sintéticos>, fillcolor="#e539c0"] ;
14 -> 15 ;
16 [label=<Peso &le; 3.435<br/>gini = 0.32<br/>samples = 25<br/>value = [0, 0, 0, 6, 24]<br/>class = Sintéticos>, fillcolor="#ec6ad0"] ;
14 -> 16 ;
17 [label=<Poliester &le; 50.295<br/>gini = 0.408<br/>samples = 17<br/>value = [0, 0, 0, 6, 15]<br/>class = Sintéticos>, fillcolor="#ef88d9"] ;
16 -> 17 ;
18 [label=<gini = 0.0<br/>samples = 5<br/>value = [0, 0, 0, 6, 0]<br/>class = Mixto>, fillcolor="#3c39e5"] ;
17 -> 18 ;
19 [label=<gini = 0.0<br/>samples = 12<br/>value = [0, 0, 0, 0, 15]<br/>class = Sintéticos>, fillcolor="#e539c0"] ;
17 -> 19 ;
20 [label=<gini = 0.0<br/>samples = 8<br/>value = [0, 0, 0, 0, 9]<br/>class = Sintéticos>, fillcolor="#e539c0"] ;
16 -> 20 ;
21 [label=<gini = 0.0<br/>samples = 4<br/>value = [0, 0, 0, 8, 0]<br/>class = Mixto>, fillcolor="#3c39e5"] ;
13 -> 21 ;
22 [label=<Fibra &le; 4.36<br/>gini = 0.478<br/>samples = 31<br/>value = [0, 0, 0, 29, 19]<br/>class = Mixto>, fillcolor="#bcbbf6"] ;
12 -> 22 ;
23 [label=<Poliester &le; 49.81<br/>gini = 0.489<br/>samples = 24<br/>value = [0, 0, 0, 14, 19]<br/>class = Sintéticos>, fillcolor="#f8cbee"] ;
22 -> 23 ;
24 [label=<gini = 0.0<br/>samples = 9<br/>value = [0, 0, 0, 14, 0]<br/>class = Mixto>, fillcolor="#3c39e5"] ;
23 -> 24 ;
25 [label=<gini = 0.0<br/>samples = 15<br/>value = [0, 0, 0, 0, 19]<br/>class = Sintéticos>, fillcolor="#e539c0"] ;
23 -> 25 ;
26 [label=<gini = 0.0<br/>samples = 7<br/>value = [0, 0, 0, 15, 0]<br/>class = Mixto>, fillcolor="#3c39e5"] ;
22 -> 26 ;
27 [label=<Nylon &le; 17.17<br/>gini = 0.377<br/>samples = 308<br/>value = [0, 0, 0, 123, 366]<br/>class = Sintéticos>, fillcolor="#ee7cd5"] ;
11 -> 27 ;
28 [label=<Elastano &le; 19.45<br/>gini = 0.233<br/>samples = 234<br/>value = [0, 0, 0, 51, 327]<br/>class = Sintéticos>, fillcolor="#e958ca"] ;
27 -> 28 ;
29 [label=<Nylon &le; 13.89<br/>gini = 0.132<br/>samples = 213<br/>value = [0, 0, 0, 24, 313]<br/>class = Sintéticos>, fillcolor="#e748c5"] ;
28 -> 29 ;
30 [label=<Fibra &le; 5.295<br/>gini = 0.034<br/>samples = 150<br/>value = [0, 0, 0, 4, 228]<br/>class = Sintéticos>, fillcolor="#e53cc1"] ;
29 -> 30 ;
31 [label=<Peso &le; 2.09<br/>gini = 0.026<br/>samples = 147<br/>value = [0, 0, 0, 3, 224]<br/>class = Sintéticos>, fillcolor="#e53cc1"] ;
30 -> 31 ;
32 [label=<Nylon &le; 11.96<br/>gini = 0.375<br/>samples = 4<br/>value = [0, 0, 0, 1, 3]<br/>class = Sintéticos>, fillcolor="#ee7bd5"] ;
31 -> 32 ;
33 [label=<gini = 0.0<br/>samples = 3<br/>value = [0, 0, 0, 0, 3]<br/>class = Sintéticos>, fillcolor="#e539c0"] ;
32 -> 33 ;
34 [label=<gini = 0.0<br/>samples = 1<br/>value = [0, 0, 0, 1, 0]<br/>class = Mixto>, fillcolor="#3c39e5"] ;
32 -> 34 ;
35 [label=<Elastano &le; 17.155<br/>gini = 0.018<br/>samples = 143<br/>value = [0, 0, 0, 2, 221]<br/>class = Sintéticos>, fillcolor="#e53bc1"] ;
31 -> 35 ;
36 [label=<gini = 0.0<br/>samples = 123<br/>value = [0, 0, 0, 0, 200]<br/>class = Sintéticos>, fillcolor="#e539c0"] ;
35 -> 36 ;
37 [label=<Peso &le; 3.505<br/>gini = 0.159<br/>samples = 20<br/>value = [0, 0, 0, 2, 21]<br/>class = Sintéticos>, fillcolor="#e74cc6"] ;
35 -> 37 ;
38 [label=<Elastano &le; 17.23<br/>gini = 0.091<br/>samples = 18<br/>value = [0, 0, 0, 1, 20]<br/>class = Sintéticos>, fillcolor="#e643c3"] ;
37 -> 38 ;
39 [label=<gini = 0.0<br/>samples = 1<br/>value = [0, 0, 0, 1, 0]<br/>class = Mixto>, fillcolor="#3c39e5"] ;
38 -> 39 ;
40 [label=<gini = 0.0<br/>samples = 17<br/>value = [0, 0, 0, 0, 20]<br/>class = Sintéticos>, fillcolor="#e539c0"] ;
38 -> 40 ;
41 [label=<Peso &le; 3.575<br/>gini = 0.5<br/>samples = 2<br/>value = [0, 0, 0, 1, 1]<br/>class = Mixto>, fillcolor="#ffffff"] ;
37 -> 41 ;
42 [label=<gini = 0.0<br/>samples = 1<br/>value = [0, 0, 0, 1, 0]<br/>class = Mixto>, fillcolor="#3c39e5"] ;
41 -> 42 ;
43 [label=<gini = 0.0<br/>samples = 1<br/>value = [0, 0, 0, 0, 1]<br/>class = Sintéticos>, fillcolor="#e539c0"] ;
41 -> 43 ;
44 [label=<Algodon &le; 11.655<br/>gini = 0.32<br/>samples = 3<br/>value = [0, 0, 0, 1, 4]<br/>class = Sintéticos>, fillcolor="#ec6ad0"] ;
30 -> 44 ;
45 [label=<gini = 0.0<br/>samples = 2<br/>value = [0, 0, 0, 0, 4]<br/>class = Sintéticos>, fillcolor="#e539c0"] ;
44 -> 45 ;
46 [label=<gini = 0.0<br/>samples = 1<br/>value = [0, 0, 0, 1, 0]<br/>class = Mixto>, fillcolor="#3c39e5"] ;
44 -> 46 ;
47 [label=<Algodon &le; 16.15<br/>gini = 0.308<br/>samples = 63<br/>value = [0, 0, 0, 20, 85]<br/>class = Sintéticos>, fillcolor="#eb68cf"] ;
29 -> 47 ;
48 [label=<Poliester &le; 49.87<br/>gini = 0.165<br/>samples = 53<br/>value = [0, 0, 0, 8, 80]<br/>class = Sintéticos>, fillcolor="#e84dc6"] ;
47 -> 48 ;
49 [label=<gini = 0.0<br/>samples = 5<br/>value = [0, 0, 0, 8, 0]<br/>class = Mixto>, fillcolor="#3c39e5"] ;
48 -> 49 ;
50 [label=<gini = 0.0<br/>samples = 48<br/>value = [0, 0, 0, 0, 80]<br/>class = Sintéticos>, fillcolor="#e539c0"] ;
48 -> 50 ;
51 [label=<Viscosa &le; 1.58<br/>gini = 0.415<br/>samples = 10<br/>value = [0, 0, 0, 12, 5]<br/>class = Mixto>, fillcolor="#8d8bf0"] ;
47 -> 51 ;
52 [label=<gini = 0.0<br/>samples = 3<br/>value = [0, 0, 0, 0, 4]<br/>class = Sintéticos>, fillcolor="#e539c0"] ;
51 -> 52 ;
53 [label=<Peso &le; 3.915<br/>gini = 0.142<br/>samples = 7<br/>value = [0, 0, 0, 12, 1]<br/>class = Mixto>, fillcolor="#4c49e7"] ;
51 -> 53 ;
54 [label=<gini = 0.0<br/>samples = 6<br/>value = [0, 0, 0, 12, 0]<br/>class = Mixto>, fillcolor="#3c39e5"] ;
53 -> 54 ;
55 [label=<gini = 0.0<br/>samples = 1<br/>value = [0, 0, 0, 0, 1]<br/>class = Sintéticos>, fillcolor="#e539c0"] ;
53 -> 55 ;
56 [label=<Poliester &le; 49.62<br/>gini = 0.45<br/>samples = 21<br/>value = [0.0, 0.0, 0.0, 27.0, 14.0]<br/>class = Mixto>, fillcolor="#a1a0f2"] ;
28 -> 56 ;
57 [label=<gini = 0.0<br/>samples = 14<br/>value = [0, 0, 0, 27, 0]<br/>class = Mixto>, fillcolor="#3c39e5"] ;
56 -> 57 ;
58 [label=<gini = 0.0<br/>samples = 7<br/>value = [0, 0, 0, 0, 14]<br/>class = Sintéticos>, fillcolor="#e539c0"] ;
56 -> 58 ;
59 [label=<Poliester &le; 49.66<br/>gini = 0.456<br/>samples = 74<br/>value = [0, 0, 0, 72, 39]<br/>class = Mixto>, fillcolor="#a6a4f3"] ;
27 -> 59 ;
60 [label=<gini = 0.0<br/>samples = 47<br/>value = [0, 0, 0, 72, 0]<br/>class = Mixto>, fillcolor="#3c39e5"] ;
59 -> 60 ;
61 [label=<gini = 0.0<br/>samples = 27<br/>value = [0, 0, 0, 0, 39]<br/>class = Sintéticos>, fillcolor="#e539c0"] ;
59 -> 61 ;
62 [label=<Viscosa &le; 2.695<br/>gini = 0.499<br/>samples = 239<br/>value = [0.0, 0.0, 0.0, 177.0, 192.0]<br/>class = Sintéticos>, fillcolor="#fdf0fa"] ;
10 -> 62 ;
63 [label=<Poliester &le; 49.99<br/>gini = 0.438<br/>samples = 110<br/>value = [0, 0, 0, 55, 115]<br/>class = Sintéticos>, fillcolor="#f198de"] ;
62 -> 63 ;
64 [label=<gini = 0.0<br/>samples = 38<br/>value = [0, 0, 0, 55, 0]<br/>class = Mixto>, fillcolor="#3c39e5"] ;
63 -> 64 ;
65 [label=<gini = 0.0<br/>samples = 72<br/>value = [0, 0, 0, 0, 115]<br/>class = Sintéticos>, fillcolor="#e539c0"] ;
63 -> 65 ;
66 [label=<Poliester &le; 49.975<br/>gini = 0.474<br/>samples = 129<br/>value = [0, 0, 0, 122, 77]<br/>class = Mixto>, fillcolor="#b7b6f5"] ;
62 -> 66 ;
67 [label=<gini = 0.0<br/>samples = 80<br/>value = [0, 0, 0, 122, 0]<br/>class = Mixto>, fillcolor="#3c39e5"] ;
66 -> 67 ;
68 [label=<gini = 0.0<br/>samples = 49<br/>value = [0, 0, 0, 0, 77]<br/>class = Sintéticos>, fillcolor="#e539c0"] ;
66 -> 68 ;
69 [label=<Nylon &le; 2.43<br/>gini = 0.336<br/>samples = 253<br/>value = [31, 0, 0, 308, 45]<br/>class = Mixto>, fillcolor="#6865eb"] ;
9 -> 69 ;
70 [label=<Viscosa &le; 4.37<br/>gini = 0.47<br/>samples = 57<br/>value = [31, 0, 0, 51, 0]<br/>class = Mixto>, fillcolor="#b3b1f5"] ;
69 -> 70 ;
71 [label=<Algodon &le; 70.295<br/>gini = 0.191<br/>samples = 24<br/>value = [25, 0, 0, 3, 0]<br/>class = Algodón>, fillcolor="#e89051"] ;
70 -> 71 ;
72 [label=<gini = 0.0<br/>samples = 3<br/>value = [0, 0, 0, 3, 0]<br/>class = Mixto>, fillcolor="#3c39e5"] ;
71 -> 72 ;
73 [label=<gini = 0.0<br/>samples = 21<br/>value = [25, 0, 0, 0, 0]<br/>class = Algodón>, fillcolor="#e58139"] ;
71 -> 73 ;
74 [label=<Viscosa &le; 7.26<br/>gini = 0.198<br/>samples = 33<br/>value = [6, 0, 0, 48, 0]<br/>class = Mixto>, fillcolor="#5452e8"] ;
70 -> 74 ;
75 [label=<Elastano &le; 3.45<br/>gini = 0.42<br/>samples = 14<br/>value = [6, 0, 0, 14, 0]<br/>class = Mixto>, fillcolor="#908ef0"] ;
74 -> 75 ;
76 [label=<Algodon &le; 69.975<br/>gini = 0.444<br/>samples = 7<br/>value = [6, 0, 0, 3, 0]<br/>class = Algodón>, fillcolor="#f2c09c"] ;
75 -> 76 ;
77 [label=<gini = 0.0<br/>samples = 2<br/>value = [0, 0, 0, 3, 0]<br/>class = Mixto>, fillcolor="#3c39e5"] ;
76 -> 77 ;
78 [label=<gini = 0.0<br/>samples = 5<br/>value = [6, 0, 0, 0, 0]<br/>class = Algodón>, fillcolor="#e58139"] ;
76 -> 78 ;
79 [label=<gini = 0.0<br/>samples = 7<br/>value = [0, 0, 0, 11, 0]<br/>class = Mixto>, fillcolor="#3c39e5"] ;
75 -> 79 ;
80 [label=<gini = 0.0<br/>samples = 19<br/>value = [0, 0, 0, 34, 0]<br/>class = Mixto>, fillcolor="#3c39e5"] ;
74 -> 80 ;
81 [label=<Nylon &le; 10.06<br/>gini = 0.254<br/>samples = 196<br/>value = [0, 0, 0, 257, 45]<br/>class = Mixto>, fillcolor="#5e5cea"] ;
69 -> 81 ;
82 [label=<Algodon &le; 26.66<br/>gini = 0.44<br/>samples = 71<br/>value = [0, 0, 0, 68, 33]<br/>class = Mixto>, fillcolor="#9b99f2"] ;
81 -> 82 ;
83 [label=<Nylon &le; 7.21<br/>gini = 0.495<br/>samples = 51<br/>value = [0, 0, 0, 39, 32]<br/>class = Mixto>, fillcolor="#dcdbfa"] ;
82 -> 83 ;
84 [label=<Nylon &le; 5.16<br/>gini = 0.413<br/>samples = 15<br/>value = [0, 0, 0, 7, 17]<br/>class = Sintéticos>, fillcolor="#f08bda"] ;
83 -> 84 ;
85 [label=<gini = 0.0<br/>samples = 3<br/>value = [0, 0, 0, 4, 0]<br/>class = Mixto>, fillcolor="#3c39e5"] ;
84 -> 85 ;
86 [label=<Viscosa &le; 3.075<br/>gini = 0.255<br/>samples = 12<br/>value = [0, 0, 0, 3, 17]<br/>class = Sintéticos>, fillcolor="#ea5ccb"] ;
84 -> 86 ;
87 [label=<gini = 0.0<br/>samples = 10<br/>value = [0, 0, 0, 0, 17]<br/>class = Sintéticos>, fillcolor="#e539c0"] ;
86 -> 87 ;
88 [label=<gini = 0.0<br/>samples = 2<br/>value = [0, 0, 0, 3, 0]<br/>class = Mixto>, fillcolor="#3c39e5"] ;
86 -> 88 ;
89 [label=<Fibra &le; 2.56<br/>gini = 0.435<br/>samples = 36<br/>value = [0, 0, 0, 32, 15]<br/>class = Mixto>, fillcolor="#9796f1"] ;
83 -> 89 ;
90 [label=<Poliester &le; 50.05<br/>gini = 0.497<br/>samples = 20<br/>value = [0, 0, 0, 11, 13]<br/>class = Sintéticos>, fillcolor="#fbe1f5"] ;
89 -> 90 ;
91 [label=<gini = 0.0<br/>samples = 10<br/>value = [0, 0, 0, 11, 0]<br/>class = Mixto>, fillcolor="#3c39e5"] ;
90 -> 91 ;
92 [label=<gini = 0.0<br/>samples = 10<br/>value = [0, 0, 0, 0, 13]<br/>class = Sintéticos>, fillcolor="#e539c0"] ;
90 -> 92 ;
93 [label=<Elastano &le; 9.695<br/>gini = 0.159<br/>samples = 16<br/>value = [0, 0, 0, 21, 2]<br/>class = Mixto>, fillcolor="#4f4ce7"] ;
89 -> 93 ;
94 [label=<gini = 0.0<br/>samples = 2<br/>value = [0, 0, 0, 0, 2]<br/>class = Sintéticos>, fillcolor="#e539c0"] ;
93 -> 94 ;
95 [label=<gini = 0.0<br/>samples = 14<br/>value = [0, 0, 0, 21, 0]<br/>class = Mixto>, fillcolor="#3c39e5"] ;
93 -> 95 ;
96 [label=<Poliester &le; 50.53<br/>gini = 0.064<br/>samples = 20<br/>value = [0, 0, 0, 29, 1]<br/>class = Mixto>, fillcolor="#4340e6"] ;
82 -> 96 ;
97 [label=<gini = 0.0<br/>samples = 19<br/>value = [0, 0, 0, 29, 0]<br/>class = Mixto>, fillcolor="#3c39e5"] ;
96 -> 97 ;
98 [label=<gini = 0.0<br/>samples = 1<br/>value = [0, 0, 0, 0, 1]<br/>class = Sintéticos>, fillcolor="#e539c0"] ;
96 -> 98 ;
99 [label=<Algodon &le; 24.705<br/>gini = 0.112<br/>samples = 125<br/>value = [0, 0, 0, 189, 12]<br/>class = Mixto>, fillcolor="#4846e7"] ;
81 -> 99 ;
100 [label=<Poliester &le; 49.725<br/>gini = 0.287<br/>samples = 46<br/>value = [0, 0, 0, 57, 12]<br/>class = Mixto>, fillcolor="#6563ea"] ;
99 -> 100 ;
101 [label=<gini = 0.0<br/>samples = 39<br/>value = [0, 0, 0, 57, 0]<br/>class = Mixto>, fillcolor="#3c39e5"] ;
100 -> 101 ;
102 [label=<gini = 0.0<br/>samples = 7<br/>value = [0, 0, 0, 0, 12]<br/>class = Sintéticos>, fillcolor="#e539c0"] ;
100 -> 102 ;
103 [label=<gini = 0.0<br/>samples = 79<br/>value = [0, 0, 0, 132, 0]<br/>class = Mixto>, fillcolor="#3c39e5"] ;
99 -> 103 ;
104 [label=<Seda &le; 29.94<br/>gini = 0.07<br/>samples = 1485<br/>value = [0, 55, 3, 2319, 28]<br/>class = Mixto>, fillcolor="#4340e6"] ;
8 -> 104 ;
105 [label=<Poliester &le; 49.99<br/>gini = 0.026<br/>samples = 1447<br/>value = [0, 0, 3, 2319, 28]<br/>class = Mixto>, fillcolor="#3f3ce5"] ;
104 -> 105 ;
106 [label=<Nylon &le; 0.075<br/>gini = 0.003<br/>samples = 1430<br/>value = [0, 0, 3, 2319, 0]<br/>class = Mixto>, fillcolor="#3c39e5"] ;
105 -> 106 ;
107 [label=<Seda &le; 7.515<br/>gini = 0.064<br/>samples = 20<br/>value = [0, 0, 1, 29, 0]<br/>class = Mixto>, fillcolor="#4340e6"] ;
106 -> 107 ;
108 [label=<gini = 0.0<br/>samples = 17<br/>value = [0, 0, 0, 26, 0]<br/>class = Mixto>, fillcolor="#3c39e5"] ;
107 -> 108 ;
109 [label=<Lana &le; 41.42<br/>gini = 0.375<br/>samples = 3<br/>value = [0, 0, 1, 3, 0]<br/>class = Mixto>, fillcolor="#7d7bee"] ;
107 -> 109 ;
110 [label=<gini = 0.0<br/>samples = 2<br/>value = [0, 0, 0, 3, 0]<br/>class = Mixto>, fillcolor="#3c39e5"] ;
109 -> 110 ;
111 [label=<gini = 0.0<br/>samples = 1<br/>value = [0, 0, 1, 0, 0]<br/>class = Lana>, fillcolor="#39e5c5"] ;
109 -> 111 ;
112 [label=<Seda &le; 12.96<br/>gini = 0.002<br/>samples = 1410<br/>value = [0, 0, 2, 2290, 0]<br/>class = Mixto>, fillcolor="#3c39e5"] ;
106 -> 112 ;
113 [label=<gini = 0.0<br/>samples = 1139<br/>value = [0, 0, 0, 1857, 0]<br/>class = Mixto>, fillcolor="#3c39e5"] ;
112 -> 113 ;
114 [label=<Lana &le; 49.41<br/>gini = 0.009<br/>samples = 271<br/>value = [0, 0, 2, 433, 0]<br/>class = Mixto>, fillcolor="#3d3ae5"] ;
112 -> 114 ;
115 [label=<gini = 0.0<br/>samples = 269<br/>value = [0, 0, 0, 433, 0]<br/>class = Mixto>, fillcolor="#3c39e5"] ;
114 -> 115 ;
116 [label=<gini = 0.0<br/>samples = 2<br/>value = [0, 0, 2, 0, 0]<br/>class = Lana>, fillcolor="#39e5c5"] ;
114 -> 116 ;
117 [label=<gini = 0.0<br/>samples = 17<br/>value = [0, 0, 0, 0, 28]<br/>class = Sintéticos>, fillcolor="#e539c0"] ;
105 -> 117 ;
118 [label=<gini = 0.0<br/>samples = 38<br/>value = [0, 55, 0, 0, 0]<br/>class = Delicados>, fillcolor="#7be539"] ;
104 -> 118 ;
}