digraph Tree {
node [shape=box, style="filled, rounded", color="black", fontname="helvetica"] ;
edge [fontname="helvetica"] ;
0 [label=<Lana &le; 0.005<br/>gini = 0.628<br/>samples = 5081<br/>value = [3175, 212, 28, 3550, 1035]<br/>class = Mixto>, fillcolor="#f0f0fd"] ;
1 [label=<Nylon &le; 0.75<br/>gini = 0.504<br/>samples = 3063<br/>value = [3175.0, 0.0, 0.0, 641.0, 998.0]<br/>class = Algodón>, fillcolor="#f0b78e"] ;
0 -> 1 [labeldistance=2.5, labelangle=45, headlabel="True"] ;
2 [label=<Algodon &le; 70.035<br/>gini = 0.039<br/>samples = 2027<br/>value = [3175, 0, 0, 64, 0]<br/>class = Algodón>, fillcolor="#e6843d"] ;
1 -> 2 ;
3 [label=<gini = 0.0<br/>samples = 43<br/>value = [0, 0, 0, 64, 0]<br/>class = Mixto>, fillcolor="#3c39e5"] ;
2 -> 3 ;
4 [label=<gini = 0.0<br/>samples = 1984<br/>value = [3175, 0, 0, 0, 0]<br/>class = Algodón>, fillcolor="#e58139"] ;
2 -> 4 ;
5 [label=<Poliester &le; 49.975<br/>gini = 0.464<br/>samples = 1036<br/>value = [0, 0, 0, 577, 998]<br/>class = Sintéticos>, fillcolor="#f4abe4"] ;
1 -> 5 ;
6 [label=<gini = 0.0<br/>samples = 395<br/>value = [0, 0, 0, 577, 0]<br/>class = Mixto>, fillcolor="#3c39e5"] ;
5 -> 6 ;
7 [label=<gini = 0.0<br/>samples = 641<br/>value = [0, 0, 0, 0, 998]<br/>class = Sintéticos>, fillcolor="#e539c0"] ;
5 -> 7 ;
8 [label=<Algodon &le; 13.53<br/>gini = 0.162<br/>samples = 2018<br/>value = [0, 212, 28, 2909, 37]<br/>class = Mixto>, fillcolor="#4e4be7"] ;
0 -> 8 [labeldistance=2.5, labelangle=-45, headlabel="False"] ;
9 [label=<Seda &le; 30.035<br/>gini = 0.443<br/>samples = 354<br/>value = [0, 155, 26, 421, 0]<br/>class = Mixto>, fillcolor="#8b89f0"] ;
8 -> 9 ;
10 [label=<Lana &le; 49.88<br/>gini = 0.11<br/>samples = 271<br/>value = [0, 0, 26, 421, 0]<br/>class = Mixto>, fillcolor="#4845e7"] ;
9 -> 10 ;
11 [label=<gini = 0.0<br/>samples = 254<br/>value = [0, 0, 0, 421, 0]<br/>class = Mixto>, fillcolor="#3c39e5"] ;
10 -> 11 ;
12 [label=<gini = 0.0<br/>samples = 17<br/>value = [0, 0, 26, 0, 0]<br/>class = Lana>, fillcolor="#39e5c5"] ;
10 -> 12 ;
13 [label=<gini = 0.0<br/>samples = 83<br/>value = [0, 155, 0, 0, 0]<br/>class = Delicados>, fillcolor="#7be539"] ;
9 -> 13 ;
14 [label=<Algodon &le; 38.49<br/>gini = 0.072<br/>samples = 1664<br/>value = [0.0, 57.0, 2.0, 2488.0, 37.0]<br/>class = Mixto>, fillcolor="#4341e6"] ;
8 -> 14 ;
15 [label=<Seda &le; 30.095<br/>gini = 0.153<br/>samples = 746<br/>value = [0, 57, 2, 1048, 34]<br/>class = Mixto>, fillcolor="#4d4ae7"] ;
14 -> 15 ;
16 [label=<Fibra &le; 0.18<br/>gini = 0.064<br/>samples = 709<br/>value = [0, 0, 2, 1048, 34]<br/>class = Mixto>, fillcolor="#4340e6"] ;
15 -> 16 ;
17 [label=<Nylon &le; 14.085<br/>gini = 0.004<br/>samples = 632<br/>value = [0.0, 0.0, 2.0, 967.0, 0.0]<br/>class = Mixto>, fillcolor="#3c39e5"] ;
16 -> 17 ;
18 [label=<Viscosa &le; 11.405<br/>gini = 0.002<br/>samples = 626<br/>value = [0, 0, 1, 960, 0]<br/>class = Mixto>, fillcolor="#3c39e5"] ;
17 -> 18 ;
19 [label=<gini = 0.0<br/>samples = 603<br/>value = [0, 0, 0, 928, 0]<br/>class = Mixto>, fillcolor="#3c39e5"] ;
18 -> 19 ;
20 [label=<Viscosa &le; 11.46<br/>gini = 0.059<br/>samples = 23<br/>value = [0, 0, 1, 32, 0]<br/>class = Mixto>, fillcolor="#423fe6"] ;
18 -> 20 ;
21 [label=<gini = 0.0<br/>samples = 1<br/>value = [0, 0, 1, 0, 0]<br/>class = Lana>, fillcolor="#39e5c5"] ;
20 -> 21 ;
22 [label=<gini = 0.0<br/>samples = 22<br/>value = [0, 0, 0, 32, 0]<br/>class = Mixto>, fillcolor="#3c39e5"] ;
20 -> 22 ;
23 [label=<Peso &le; 1.505<br/>gini = 0.219<br/>samples = 6<br/>value = [0, 0, 1, 7, 0]<br/>class = Mixto>, fillcolor="#5855e9"] ;
17 -> 23 ;
24 [label=<gini = 0.0<br/>samples = 1<br/>value = [0, 0, 1, 0, 0]<br/>class = Lana>, fillcolor="#39e5c5"] ;
23 -> 24 ;
25 [label=<gini = 0.0<br/>samples = 5<br/>value = [0, 0, 0, 7, 0]<br/>class = Mixto>, fillcolor="#3c39e5"] ;
23 -> 25 ;
26 [label=<Lana &le; 2.265<br/>gini = 0.416<br/>samples = 77<br/>value = [0, 0, 0, 81, 34]<br/>class = Mixto>, fillcolor="#8e8cf0"] ;
16 -> 26 ;
27 [label=<Poliester &le; 49.74<br/>gini = 0.5<br/>samples = 33<br/>value = [0.0, 0.0, 0.0, 24.0, 23.0]<br/>class = Mixto>, fillcolor="#f7f7fe"] ;
26 -> 27 ;
28 [label=<gini = 0.0<br/>samples = 19<br/>value = [0, 0, 0, 24, 0]<br/>class = Mixto>, fillcolor="#3c39e5"] ;
27 -> 28 ;
29 [label=<gini = 0.0<br/>samples = 14<br/>value = [0, 0, 0, 0, 23]<br/>class = Sintéticos>, fillcolor="#e539c0"] ;
27 -> 29 ;
30 [label=<Poliester &le; 49.47<br/>gini = 0.271<br/>samples = 44<br/>value = [0, 0, 0, 57, 11]<br/>class = Mixto>, fillcolor="#625fea"] ;
26 -> 30 ;
31 [label=<gini = 0.0<br/>samples = 37<br/>value = [0, 0, 0, 57, 0]<br/>class = Mixto>, fillcolor="#3c39e5"] ;
30 -> 31 ;
32 [label=<gini = 0.0<br/>samples = 7<br/>value = [0, 0, 0, 0, 11]<br/>class = Sintéticos>, fillcolor="#e539c0"] ;
30 -> 32 ;
33 [label=<gini = 0.0<br/>samples = 37<br/>value = [0, 57, 0, 0, 0]<br/>class = Delicados>, fillcolor="#7be539"] ;
15 -> 33 ;
34 [label=<Viscosa &le; 1.55<br/>gini = 0.004<br/>samples = 918<br/>value = [0, 0, 0, 1440, 3]<br/>class = Mixto>, fillcolor="#3c39e5"] ;
14 -> 34 ;
35 [label=<Poliester &le; 49.89<br/>gini = 0.025<br/>samples = 152<br/>value = [0, 0, 0, 231, 3]<br/>class = Mixto>, fillcolor="#3f3ce5"] ;
34 -> 35 ;
36 [label=<gini = 0.0<br/>samples = 150<br/>value = [0, 0, 0, 231, 0]<br/>class = Mixto>, fillcolor="#3c39e5"] ;
35 -> 36 ;
37 [label=<gini = 0.0<br/>samples = 2<br/>value = [0, 0, 0, 0, 3]<br/>class = Sintéticos>, fillcolor="#e539c0"] ;
35 -> 37 ;
38 [label=<gini = 0.0<br/>samples = 766<br/>value = [0, 0, 0, 1209, 0]<br/>class = Mixto>, fillcolor="#3c39e5"] ;
34 -> 38 ;
}