digraph Tree {
node [shape=box, style="filled, rounded", color="black", fontname="helvetica"] ;
edge [fontname="helvetica"] ;
0 [label=<Algodon &le; 70.115<br/>gini = 0.621<br/>samples = 5024<br/>value = [3120, 185, 36, 3674, 985]<br/>class = Mixto>, fillcolor="#e9e9fc"] ;
1 [label=<Lana &le; 0.005<br/>gini = 0.391<br/>samples = 3065<br/>value = [0.0, 185.0, 36.0, 3674.0, 985.0]<br/>class = Mixto>, fillcolor="#7876ed"] ;
0 -> 1 [labeldistance=2.5, labelangle=45, headlabel="True"] ;
2 [label=<Viscosa &le; 6.475<br/>gini = 0.49<br/>samples = 1043<br/>value = [0, 0, 0, 712, 953]<br/>class = Sintéticos>, fillcolor="#f8cdef"] ;
1 -> 2 ;
3 [label=<Poliester &le; 49.98<br/>gini = 0.483<br/>samples = 1001<br/>value = [0, 0, 0, 651, 949]<br/>class = Sintéticos>, fillcolor="#f7c1eb"] ;
2 -> 3 ;
4 [label=<gini = 0.0<br/>samples = 403<br/>value = [0, 0, 0, 651, 0]<br/>class = Mixto>, fillcolor="#3c39e5"] ;
3 -> 4 ;
5 [label=<gini = 0.0<br/>samples = 598<br/>value = [0, 0, 0, 0, 949]<br/>class = Sintéticos>, fillcolor="#e539c0"] ;
3 -> 5 ;
6 [label=<Poliester &le; 51.0<br/>gini = 0.116<br/>samples = 42<br/>value = [0, 0, 0, 61, 4]<br/>class = Mixto>, fillcolor="#4946e7"] ;
2 -> 6 ;
7 [label=<gini = 0.0<br/>samples = 38<br/>value = [0, 0, 0, 61, 0]<br/>class = Mixto>, fillcolor="#3c39e5"] ;
6 -> 7 ;
8 [label=<gini = 0.0<br/>samples = 4<br/>value = [0, 0, 0, 0, 4]<br/>class = Sintéticos>, fillcolor="#e539c0"] ;
6 -> 8 ;
9 [label=<Lana &le; 50.13<br/>gini = 0.148<br/>samples = 2022<br/>value = [0.0, 185.0, 36.0, 2962.0, 32.0]<br/>class = Mixto>, fillcolor="#4c4ae7"] ;
1 -> 9 ;
10 [label=<Algodon &le; 13.955<br/>gini = 0.128<br/>samples = 2005<br/>value = [0, 185, 0, 2962, 32]<br/>class = Mixto>, fillcolor="#4a47e7"] ;
9 -> 10 ;
11 [label=<Poliester &le; 19.935<br/>gini = 0.347<br/>samples = 354<br/>value = [0.0, 128.0, 0.0, 446.0, 0.0]<br/>class = Mixto>, fillcolor="#7472ec"] ;
10 -> 11 ;
12 [label=<Algodon &le; 4.47<br/>gini = 0.453<br/>samples = 169<br/>value = [0, 96, 0, 181, 0]<br/>class = Mixto>, fillcolor="#a3a2f3"] ;
11 -> 12 ;
13 [label=<Seda &le; 29.93<br/>gini = 0.499<br/>samples = 53<br/>value = [0.0, 44.0, 0.0, 47.0, 0.0]<br/>class = Mixto>, fillcolor="#f3f2fd"] ;
12 -> 13 ;
14 [label=<gini = 0.0<br/>samples = 28<br/>value = [0, 0, 0, 47, 0]<br/>class = Mixto>, fillcolor="#3c39e5"] ;
13 -> 14 ;
15 [label=<gini = 0.0<br/>samples = 25<br/>value = [0, 44, 0, 0, 0]<br/>class = Delicados>, fillcolor="#7be539"] ;
13 -> 15 ;
16 [label=<Seda &le; 30.015<br/>gini = 0.403<br/>samples = 116<br/>value = [0.0, 52.0, 0.0, 134.0, 0.0]<br/>class = Mixto>, fillcolor="#8886ef"] ;
12 -> 16 ;
17 [label=<gini = 0.0<br/>samples = 84<br/>value = [0, 0, 0, 134, 0]<br/>class = Mixto>, fillcolor="#3c39e5"] ;
16 -> 17 ;
18 [label=<gini = 0.0<br/>samples = 32<br/>value = [0, 52, 0, 0, 0]<br/>class = Delicados>, fillcolor="#7be539"] ;
16 -> 18 ;
19 [label=<Algodon &le; 0.145<br/>gini = 0.192<br/>samples = 185<br/>value = [0, 32, 0, 265, 0]<br/>class = Mixto>, fillcolor="#5451e8"] ;
11 -> 19 ;
20 [label=<gini = 0.0<br/>samples = 2<br/>value = [0, 3, 0, 0, 0]<br/>class = Delicados>, fillcolor="#7be539"] ;
19 -> 20 ;
21 [label=<Seda &le; 30.095<br/>gini = 0.178<br/>samples = 183<br/>value = [0, 29, 0, 265, 0]<br/>class = Mixto>, fillcolor="#514fe8"] ;
19 -> 21 ;
22 [label=<gini = 0.0<br/>samples = 161<br/>value = [0, 0, 0, 265, 0]<br/>class = Mixto>, fillcolor="#3c39e5"] ;
21 -> 22 ;
23 [label=<gini = 0.0<br/>samples = 22<br/>value = [0, 29, 0, 0, 0]<br/>class = Delicados>, fillcolor="#7be539"] ;
21 -> 23 ;
24 [label=<Poliester &le; 49.99<br/>gini = 0.067<br/>samples = 1651<br/>value = [0.0, 57.0, 0.0, 2516.0, 32.0]<br/>class = Mixto>, fillcolor="#4340e6"] ;
10 -> 24 ;
25 [label=<Algodon &le; 24.825<br/>gini = 0.043<br/>samples = 1629<br/>value = [0.0, 57.0, 0.0, 2516.0, 0.0]<br/>class = Mixto>, fillcolor="#403de6"] ;
24 -> 25 ;
26 [label=<Lana &le; 15.65<br/>gini = 0.14<br/>samples = 397<br/>value = [0, 49, 0, 596, 0]<br/>class = Mixto>, fillcolor="#4c49e7"] ;
25 -> 26 ;
27 [label=<Poliester &le; 23.415<br/>gini = 0.43<br/>samples = 23<br/>value = [0, 10, 0, 22, 0]<br/>class = Mixto>, fillcolor="#9593f1"] ;
26 -> 27 ;
28 [label=<Poliester &le; 16.04<br/>gini = 0.355<br/>samples = 10<br/>value = [0, 10, 0, 3, 0]<br/>class = Delicados>, fillcolor="#a3ed74"] ;
27 -> 28 ;
29 [label=<Seda &le; 32.48<br/>gini = 0.375<br/>samples = 3<br/>value = [0, 1, 0, 3, 0]<br/>class = Mixto>, fillcolor="#7d7bee"] ;
28 -> 29 ;
30 [label=<gini = 0.0<br/>samples = 2<br/>value = [0, 0, 0, 3, 0]<br/>class = Mixto>, fillcolor="#3c39e5"] ;
29 -> 30 ;
31 [label=<gini = 0.0<br/>samples = 1<br/>value = [0, 1, 0, 0, 0]<br/>class = Delicados>, fillcolor="#7be539"] ;
29 -> 31 ;
32 [label=<gini = 0.0<br/>samples = 7<br/>value = [0, 9, 0, 0, 0]<br/>class = Delicados>, fillcolor="#7be539"] ;
28 -> 32 ;
33 [label=<gini = 0.0<br/>samples = 13<br/>value = [0, 0, 0, 19, 0]<br/>class = Mixto>, fillcolor="#3c39e5"] ;
27 -> 33 ;
34 [label=<Algodon &le; 24.805<br/>gini = 0.119<br/>samples = 374<br/>value = [0, 39, 0, 574, 0]<br/>class = Mixto>, fillcolor="#4946e7"] ;
26 -> 34 ;
35 [label=<Seda &le; 29.97<br/>gini = 0.116<br/>samples = 373<br/>value = [0, 38, 0, 574, 0]<br/>class = Mixto>, fillcolor="#4946e7"] ;
34 -> 35 ;
36 [label=<gini = 0.0<br/>samples = 351<br/>value = [0, 0, 0, 574, 0]<br/>class = Mixto>, fillcolor="#3c39e5"] ;
35 -> 36 ;
37 [label=<gini = 0.0<br/>samples = 22<br/>value = [0, 38, 0, 0, 0]<br/>class = Delicados>, fillcolor="#7be539"] ;
35 -> 37 ;
38 [label=<gini = 0.0<br/>samples = 1<br/>value = [0, 1, 0, 0, 0]<br/>class = Delicados>, fillcolor="#7be539"] ;
34 -> 38 ;
39 [label=<Seda &le; 30.27<br/>gini = 0.008<br/>samples = 1232<br/>value = [0, 8, 0, 1920, 0]<br/>class = Mixto>, fillcolor="#3d3ae5"] ;
25 -> 39 ;
40 [label=<gini = 0.0<br/>samples = 1227<br/>value = [0, 0, 0, 1920, 0]<br/>class = Mixto>, fillcolor="#3c39e5"] ;
39 -> 40 ;
41 [label=<gini = 0.0<br/>samples = 5<br/>value = [0, 8, 0, 0, 0]<br/>class = Delicados>, fillcolor="#7be539"] ;
39 -> 41 ;
42 [label=<gini = 0.0<br/>samples = 22<br/>value = [0, 0, 0, 0, 32]<br/>class = Sintéticos>, fillcolor="#e539c0"] ;
24 -> 42 ;
43 [label=<gini = 0.0<br/>samples = 17<br/>value = [0, 0, 36, 0, 0]<br/>class = Lana>, fillcolor="#39e5c5"] ;
9 -> 43 ;
44 [label=<gini = 0.0<br/>samples = 1959<br/>value = [3120, 0, 0, 0, 0]<br/>class = Algodón>, fillcolor="#e58139"] ;
0 -> 44 [labeldistance=2.5, labelangle=-45, headlabel="False"] ;
}