digraph Tree {
node [shape=box, style="filled, rounded", color="black", fontname="helvetica"] ;
edge [fontname="helvetica"] ;
0 [label=<Poliester &le; 17.375<br/>gini = 0.618<br/>samples = 5060<br/>value = [3161, 186, 21, 3670, 962]<br/>class = Mixto>, fillcolor="#eaeafc"] ;
1 [label=<Lana &le; 5.815<br/>gini = 0.351<br/>samples = 2462<br/>value = [3098, 122, 19, 708, 0]<br/>class = Algodón>, fillcolor="#eca26d"] ;
0 -> 1 [labeldistance=2.5, labelangle=45, headlabel="True"] ;
2 [label=<Algodon &le; 70.075<br/>gini = 0.008<br/>samples = 1940<br/>value = [3098, 0, 0, 13, 0]<br/>class = Algodón>, fillcolor="#e5823a"] ;
1 -> 2 ;
3 [label=<gini = 0.0<br/>samples = 9<br/>value = [0, 0, 0, 13, 0]<br/>class = Mixto>, fillcolor="#3c39e5"] ;
2 -> 3 ;
4 [label=<gini = 0.0<br/>samples = 1931<br/>value = [3098, 0, 0, 0, 0]<br/>class = Algodón>, fillcolor="#e58139"] ;
2 -> 4 ;
5 [label=<Seda &le; 29.995<br/>gini = 0.287<br/>samples = 522<br/>value = [0.0, 122.0, 19.0, 695.0, 0.0]<br/>class = Mixto>, fillcolor="#6360ea"] ;
1 -> 5 ;
6 [label=<Lana &le; 50.37<br/>gini = 0.052<br/>samples = 442<br/>value = [0, 0, 19, 695, 0]<br/>class = Mixto>, fillcolor="#413ee6"] ;
5 -> 6 ;
7 [label=<gini = 0.0<br/>samples = 429<br/>value = [0, 0, 0, 695, 0]<br/>class = Mixto>, fillcolor="#3c39e5"] ;
6 -> 7 ;
8 [label=<gini = 0.0<br/>samples = 13<br/>value = [0, 0, 19, 0, 0]<br/>class = Lana>, fillcolor="#39e5c5"] ;
6 -> 8 ;
9 [label=<gini = 0.0<br/>samples = 80<br/>value = [0, 122, 0, 0, 0]<br/>class = Delicados>, fillcolor="#7be539"] ;
5 -> 9 ;
10 [label=<Poliester &le; 49.995<br/>gini = 0.409<br/>samples = 2598<br/>value = [63, 64, 2, 2962, 962]<br/>class = Mixto>, fillcolor="#817fee"] ;
0 -> 10 [labeldistance=2.5, labelangle=-45, headlabel="False"] ;
11 [label=<Seda &le; 29.99<br/>gini = 0.081<br/>samples = 1968<br/>value = [63.0, 64.0, 2.0, 2962.0, 0.0]<br/>class = Mixto>, fillcolor="#4441e6"] ;
10 -> 11 ;
12 [label=<Algodon &le; 70.035<br/>gini = 0.042<br/>samples = 1922<br/>value = [63.0, 0.0, 2.0, 2962.0, 0.0]<br/>class = Mixto>, fillcolor="#403de6"] ;
11 -> 12 ;
13 [label=<Algodon &le; 3.03<br/>gini = 0.001<br/>samples = 1876<br/>value = [0, 0, 2, 2962, 0]<br/>class = Mixto>, fillcolor="#3c39e5"] ;
12 -> 13 ;
14 [label=<Lana &le; 49.465<br/>gini = 0.061<br/>samples = 42<br/>value = [0, 0, 2, 61, 0]<br/>class = Mixto>, fillcolor="#423fe6"] ;
13 -> 14 ;
15 [label=<gini = 0.0<br/>samples = 40<br/>value = [0, 0, 0, 61, 0]<br/>class = Mixto>, fillcolor="#3c39e5"] ;
14 -> 15 ;
16 [label=<gini = 0.0<br/>samples = 2<br/>value = [0, 0, 2, 0, 0]<br/>class = Lana>, fillcolor="#39e5c5"] ;
14 -> 16 ;
17 [label=<gini = 0.0<br/>samples = 1834<br/>value = [0, 0, 0, 2901, 0]<br/>class = Mixto>, fillcolor="#3c39e5"] ;
13 -> 17 ;
18 [label=<gini = 0.0<br/>samples = 46<br/>value = [63, 0, 0, 0, 0]<br/>class = Algodón>, fillcolor="#e58139"] ;
12 -> 18 ;
19 [label=<gini = 0.0<br/>samples = 46<br/>value = [0, 64, 0, 0, 0]<br/>class = Delicados>, fillcolor="#7be539"] ;
11 -> 19 ;
20 [label=<gini = 0.0<br/>samples = 630<br/>value = [0, 0, 0, 0, 962]<br/>class = Sintéticos>, fillcolor="#e539c0"] ;
10 -> 20 ;
}