digraph Tree {
node [shape=box, style="filled, rounded", color="black", fontname="helvetica"] ;
edge [fontname="helvetica"] ;
0 [label=<Lana &le; 0.005<br/>gini = 0.623<br/>samples = 5056<br/>value = [3101, 205, 34, 3674, 986]<br/>class = Mixto>, fillcolor="#e8e8fc"] ;
1 [label=<Viscosa &le; 0.005<br/>gini = 0.505<br/>samples = 2984<br/>value = [3101.0, 0.0, 0.0, 653.0, 951.0]<br/>class = Algodón>, fillcolor="#f0b78e"] ;
0 -> 1 [labeldistance=2.5, labelangle=45, headlabel="True"] ;
2 [label=<Peso &le; 3.175<br/>gini = 0.001<br/>samples = 1035<br/>value = [1602, 0, 0, 1, 0]<br/>class = Algodón>, fillcolor="#e58139"] ;
1 -> 2 ;
3 [label=<gini = 0.0<br/>samples = 1<br/>value = [0, 0, 0, 1, 0]<br/>class = Mixto>, fillcolor="#3c39e5"] ;
2 -> 3 ;
4 [label=<gini = 0.0<br/>samples = 1034<br/>value = [1602, 0, 0, 0, 0]<br/>class = Algodón>, fillcolor="#e58139"] ;
2 -> 4 ;
5 [label=<Algodon &le; 70.045<br/>gini = 0.628<br/>samples = 1949<br/>value = [1499, 0, 0, 652, 951]<br/>class = Algodón>, fillcolor="#f8dfcd"] ;
1 -> 5 ;
6 [label=<Algodon &le; 18.95<br/>gini = 0.483<br/>samples = 1016<br/>value = [0, 0, 0, 652, 951]<br/>class = Sintéticos>, fillcolor="#f7c1eb"] ;
5 -> 6 ;
7 [label=<Poliester &le; 49.96<br/>gini = 0.32<br/>samples = 600<br/>value = [0, 0, 0, 188, 753]<br/>class = Sintéticos>, fillcolor="#eb6ad0"] ;
6 -> 7 ;
8 [label=<gini = 0.0<br/>samples = 110<br/>value = [0, 0, 0, 188, 0]<br/>class = Mixto>, fillcolor="#3c39e5"] ;
7 -> 8 ;
9 [label=<gini = 0.0<br/>samples = 490<br/>value = [0, 0, 0, 0, 753]<br/>class = Sintéticos>, fillcolor="#e539c0"] ;
7 -> 9 ;
10 [label=<Elastano &le; 13.355<br/>gini = 0.419<br/>samples = 416<br/>value = [0.0, 0.0, 0.0, 464.0, 198.0]<br/>class = Mixto>, fillcolor="#8f8df0"] ;
6 -> 10 ;
11 [label=<Poliester &le; 49.98<br/>gini = 0.482<br/>samples = 267<br/>value = [0, 0, 0, 259, 176]<br/>class = Mixto>, fillcolor="#c1c0f7"] ;
10 -> 11 ;
12 [label=<gini = 0.0<br/>samples = 158<br/>value = [0, 0, 0, 259, 0]<br/>class = Mixto>, fillcolor="#3c39e5"] ;
11 -> 12 ;
13 [label=<gini = 0.0<br/>samples = 109<br/>value = [0, 0, 0, 0, 176]<br/>class = Sintéticos>, fillcolor="#e539c0"] ;
11 -> 13 ;
14 [label=<Poliester &le; 50.09<br/>gini = 0.175<br/>samples = 149<br/>value = [0, 0, 0, 205, 22]<br/>class = Mixto>, fillcolor="#514ee8"] ;
10 -> 14 ;
15 [label=<gini = 0.0<br/>samples = 136<br/>value = [0, 0, 0, 205, 0]<br/>class = Mixto>, fillcolor="#3c39e5"] ;
14 -> 15 ;
16 [label=<gini = 0.0<br/>samples = 13<br/>value = [0, 0, 0, 0, 22]<br/>class = Sintéticos>, fillcolor="#e539c0"] ;
14 -> 16 ;
17 [label=<gini = 0.0<br/>samples = 933<br/>value = [1499, 0, 0, 0, 0]<br/>class = Algodón>, fillcolor="#e58139"] ;
5 -> 17 ;
18 [label=<Seda &le; 29.995<br/>gini = 0.155<br/>samples = 2072<br/>value = [0, 205, 34, 3021, 35]<br/>class = Mixto>, fillcolor="#4d4be7"] ;
0 -> 18 [labeldistance=2.5, labelangle=-45, headlabel="False"] ;
19 [label=<Nylon &le; 0.075<br/>gini = 0.044<br/>samples = 1949<br/>value = [0, 0, 34, 3021, 35]<br/>class = Mixto>, fillcolor="#403de6"] ;
18 -> 19 ;
20 [label=<Poliester &le; 47.59<br/>gini = 0.287<br/>samples = 22<br/>value = [0, 0, 1, 25, 4]<br/>class = Mixto>, fillcolor="#625fea"] ;
19 -> 20 ;
21 [label=<Viscosa &le; 1.73<br/>gini = 0.074<br/>samples = 20<br/>value = [0, 0, 1, 25, 0]<br/>class = Mixto>, fillcolor="#4441e6"] ;
20 -> 21 ;
22 [label=<Viscosa &le; 1.37<br/>gini = 0.375<br/>samples = 4<br/>value = [0, 0, 1, 3, 0]<br/>class = Mixto>, fillcolor="#7d7bee"] ;
21 -> 22 ;
23 [label=<gini = 0.0<br/>samples = 3<br/>value = [0, 0, 0, 3, 0]<br/>class = Mixto>, fillcolor="#3c39e5"] ;
22 -> 23 ;
24 [label=<gini = 0.0<br/>samples = 1<br/>value = [0, 0, 1, 0, 0]<br/>class = Lana>, fillcolor="#39e5c5"] ;
22 -> 24 ;
25 [label=<gini = 0.0<br/>samples = 16<br/>value = [0, 0, 0, 22, 0]<br/>class = Mixto>, fillcolor="#3c39e5"] ;
21 -> 25 ;
26 [label=<gini = 0.0<br/>samples = 2<br/>value = [0, 0, 0, 0, 4]<br/>class = Sintéticos>, fillcolor="#e539c0"] ;
20 -> 26 ;
27 [label=<Poliester &le; 49.99<br/>gini = 0.041<br/>samples = 1927<br/>value = [0, 0, 33, 2996, 31]<br/>class = Mixto>, fillcolor="#403de6"] ;
19 -> 27 ;
28 [label=<Poliester &le; 9.525<br/>gini = 0.022<br/>samples = 1909<br/>value = [0, 0, 33, 2996, 0]<br/>class = Mixto>, fillcolor="#3e3be5"] ;
27 -> 28 ;
29 [label=<Seda &le; 17.185<br/>gini = 0.134<br/>samples = 209<br/>value = [0.0, 0.0, 26.0, 335.0, 0.0]<br/>class = Mixto>, fillcolor="#4b48e7"] ;
28 -> 29 ;
30 [label=<Algodon &le; 16.51<br/>gini = 0.334<br/>samples = 60<br/>value = [0, 0, 21, 78, 0]<br/>class = Mixto>, fillcolor="#706eec"] ;
29 -> 30 ;
31 [label=<Elastano &le; 3.75<br/>gini = 0.444<br/>samples = 17<br/>value = [0, 0, 16, 8, 0]<br/>class = Lana>, fillcolor="#9cf2e2"] ;
30 -> 31 ;
32 [label=<gini = 0.0<br/>samples = 4<br/>value = [0, 0, 6, 0, 0]<br/>class = Lana>, fillcolor="#39e5c5"] ;
31 -> 32 ;
33 [label=<Lana &le; 50.175<br/>gini = 0.494<br/>samples = 13<br/>value = [0, 0, 10, 8, 0]<br/>class = Lana>, fillcolor="#d7faf3"] ;
31 -> 33 ;
34 [label=<gini = 0.0<br/>samples = 5<br/>value = [0, 0, 0, 8, 0]<br/>class = Mixto>, fillcolor="#3c39e5"] ;
33 -> 34 ;
35 [label=<gini = 0.0<br/>samples = 8<br/>value = [0, 0, 10, 0, 0]<br/>class = Lana>, fillcolor="#39e5c5"] ;
33 -> 35 ;
36 [label=<Lana &le; 50.535<br/>gini = 0.124<br/>samples = 43<br/>value = [0, 0, 5, 70, 0]<br/>class = Mixto>, fillcolor="#4a47e7"] ;
30 -> 36 ;
37 [label=<gini = 0.0<br/>samples = 41<br/>value = [0, 0, 0, 70, 0]<br/>class = Mixto>, fillcolor="#3c39e5"] ;
36 -> 37 ;
38 [label=<gini = 0.0<br/>samples = 2<br/>value = [0, 0, 5, 0, 0]<br/>class = Lana>, fillcolor="#39e5c5"] ;
36 -> 38 ;
39 [label=<Elastano &le; 0.945<br/>gini = 0.037<br/>samples = 149<br/>value = [0, 0, 5, 257, 0]<br/>class = Mixto>, fillcolor="#403de6"] ;
29 -> 39 ;
40 [label=<Elastano &le; 0.915<br/>gini = 0.128<br/>samples = 18<br/>value = [0, 0, 2, 27, 0]<br/>class = Mixto>, fillcolor="#4a48e7"] ;
39 -> 40 ;
41 [label=<gini = 0.0<br/>samples = 17<br/>value = [0, 0, 0, 27, 0]<br/>class = Mixto>, fillcolor="#3c39e5"] ;
40 -> 41 ;
42 [label=<gini = 0.0<br/>samples = 1<br/>value = [0, 0, 2, 0, 0]<br/>class = Lana>, fillcolor="#39e5c5"] ;
40 -> 42 ;
43 [label=<Nylon &le; 7.285<br/>gini = 0.025<br/>samples = 131<br/>value = [0, 0, 3, 230, 0]<br/>class = Mixto>, fillcolor="#3f3ce5"] ;
39 -> 43 ;
44 [label=<gini = 0.0<br/>samples = 69<br/>value = [0, 0, 0, 122, 0]<br/>class = Mixto>, fillcolor="#3c39e5"] ;
43 -> 44 ;
45 [label=<Algodon &le; 1.325<br/>gini = 0.053<br/>samples = 62<br/>value = [0, 0, 3, 108, 0]<br/>class = Mixto>, fillcolor="#413ee6"] ;
43 -> 45 ;
46 [label=<gini = 0.0<br/>samples = 1<br/>value = [0, 0, 1, 0, 0]<br/>class = Lana>, fillcolor="#39e5c5"] ;
45 -> 46 ;
47 [label=<Nylon &le; 7.325<br/>gini = 0.036<br/>samples = 61<br/>value = [0, 0, 2, 108, 0]<br/>class = Mixto>, fillcolor="#403de5"] ;
45 -> 47 ;
48 [label=<gini = 0.0<br/>samples = 1<br/>value = [0, 0, 1, 0, 0]<br/>class = Lana>, fillcolor="#39e5c5"] ;
47 -> 48 ;
49 [label=<Nylon &le; 8.135<br/>gini = 0.018<br/>samples = 60<br/>value = [0, 0, 1, 108, 0]<br/>class = Mixto>, fillcolor="#3e3be5"] ;
47 -> 49 ;
50 [label=<Viscosa &le; 2.415<br/>gini = 0.105<br/>samples = 11<br/>value = [0, 0, 1, 17, 0]<br/>class = Mixto>, fillcolor="#4745e7"] ;
49 -> 50 ;
51 [label=<Viscosa &le; 1.81<br/>gini = 0.278<br/>samples = 3<br/>value = [0, 0, 1, 5, 0]<br/>class = Mixto>, fillcolor="#6361ea"] ;
50 -> 51 ;
52 [label=<gini = 0.0<br/>samples = 2<br/>value = [0, 0, 0, 5, 0]<br/>class = Mixto>, fillcolor="#3c39e5"] ;
51 -> 52 ;
53 [label=<gini = 0.0<br/>samples = 1<br/>value = [0, 0, 1, 0, 0]<br/>class = Lana>, fillcolor="#39e5c5"] ;
51 -> 53 ;
54 [label=<gini = 0.0<br/>samples = 8<br/>value = [0, 0, 0, 12, 0]<br/>class = Mixto>, fillcolor="#3c39e5"] ;
50 -> 54 ;
55 [label=<gini = 0.0<br/>samples = 49<br/>value = [0, 0, 0, 91, 0]<br/>class = Mixto>, fillcolor="#3c39e5"] ;
49 -> 55 ;
56 [label=<Lana &le; 49.915<br/>gini = 0.005<br/>samples = 1700<br/>value = [0, 0, 7, 2661, 0]<br/>class = Mixto>, fillcolor="#3d3ae5"] ;
28 -> 56 ;
57 [label=<gini = 0.0<br/>samples = 1695<br/>value = [0, 0, 0, 2661, 0]<br/>class = Mixto>, fillcolor="#3c39e5"] ;
56 -> 57 ;
58 [label=<gini = 0.0<br/>samples = 5<br/>value = [0, 0, 7, 0, 0]<br/>class = Lana>, fillcolor="#39e5c5"] ;
56 -> 58 ;
59 [label=<gini = 0.0<br/>samples = 18<br/>value = [0, 0, 0, 0, 31]<br/>class = Sintéticos>, fillcolor="#e539c0"] ;
27 -> 59 ;
60 [label=<gini = 0.0<br/>samples = 123<br/>value = [0, 205, 0, 0, 0]<br/>class = Delicados>, fillcolor="#7be539"] ;
18 -> 60 ;
}