digraph Tree {
node [shape=box, style="filled, rounded", color="black", fontname="helvetica"] ;
edge [fontname="helvetica"] ;
0 [label=<Algodon &le; 70.045<br/>gini = 0.621<br/>samples = 5011<br/>value = [3170, 183, 26, 3634, 987]<br/>class = Mixto>, fillcolor="#ececfd"] ;
1 [label=<Lana &le; 0.005<br/>gini = 0.391<br/>samples = 3024<br/>value = [0.0, 183.0, 26.0, 3634.0, 987.0]<br/>class = Mixto>, fillcolor="#7977ed"] ;
0 -> 1 [labeldistance=2.5, labelangle=45, headlabel="True"] ;
2 [label=<Elastano &le; 4.615<br/>gini = 0.488<br/>samples = 1022<br/>value = [0, 0, 0, 700, 958]<br/>class = Sintéticos>, fillcolor="#f8caee"] ;
1 -> 2 ;
3 [label=<Nylon &le; 9.43<br/>gini = 0.032<br/>samples = 37<br/>value = [0, 0, 0, 60, 1]<br/>class = Mixto>, fillcolor="#3f3ce5"] ;
2 -> 3 ;
4 [label=<gini = 0.0<br/>samples = 36<br/>value = [0, 0, 0, 60, 0]<br/>class = Mixto>, fillcolor="#3c39e5"] ;
3 -> 4 ;
5 [label=<gini = 0.0<br/>samples = 1<br/>value = [0, 0, 0, 0, 1]<br/>class = Sintéticos>, fillcolor="#e539c0"] ;
3 -> 5 ;
6 [label=<Viscosa &le; 5.585<br/>gini = 0.48<br/>samples = 985<br/>value = [0.0, 0.0, 0.0, 640.0, 957.0]<br/>class = Sintéticos>, fillcolor="#f6bdea"] ;
2 -> 6 ;
7 [label=<Poliester &le; 49.995<br/>gini = 0.474<br/>samples = 934<br/>value = [0.0, 0.0, 0.0, 586.0, 930.0]<br/>class = Sintéticos>, fillcolor="#f5b6e8"] ;
6 -> 7 ;
8 [label=<gini = 0.0<br/>samples = 352<br/>value = [0, 0, 0, 586, 0]<br/>class = Mixto>, fillcolor="#3c39e5"] ;
7 -> 8 ;
9 [label=<gini = 0.0<br/>samples = 582<br/>value = [0, 0, 0, 0, 930]<br/>class = Sintéticos>, fillcolor="#e539c0"] ;
7 -> 9 ;
10 [label=<Algodon &le; 9.265<br/>gini = 0.444<br/>samples = 51<br/>value = [0, 0, 0, 54, 27]<br/>class = Mixto>, fillcolor="#9e9cf2"] ;
6 -> 10 ;
11 [label=<Nylon &le; 23.94<br/>gini = 0.48<br/>samples = 21<br/>value = [0, 0, 0, 14, 21]<br/>class = Sintéticos>, fillcolor="#f6bdea"] ;
10 -> 11 ;
12 [label=<Elastano &le; 14.845<br/>gini = 0.375<br/>samples = 17<br/>value = [0, 0, 0, 7, 21]<br/>class = Sintéticos>, fillcolor="#ee7bd5"] ;
11 -> 12 ;
13 [label=<gini = 0.0<br/>samples = 9<br/>value = [0, 0, 0, 0, 17]<br/>class = Sintéticos>, fillcolor="#e539c0"] ;
12 -> 13 ;
14 [label=<Algodon &le; 4.885<br/>gini = 0.463<br/>samples = 8<br/>value = [0, 0, 0, 7, 4]<br/>class = Mixto>, fillcolor="#abaaf4"] ;
12 -> 14 ;
15 [label=<Algodon &le; 2.56<br/>gini = 0.32<br/>samples = 4<br/>value = [0, 0, 0, 1, 4]<br/>class = Sintéticos>, fillcolor="#ec6ad0"] ;
14 -> 15 ;
16 [label=<gini = 0.0<br/>samples = 1<br/>value = [0, 0, 0, 1, 0]<br/>class = Mixto>, fillcolor="#3c39e5"] ;
15 -> 16 ;
17 [label=<gini = 0.0<br/>samples = 3<br/>value = [0, 0, 0, 0, 4]<br/>class = Sintéticos>, fillcolor="#e539c0"] ;
15 -> 17 ;
18 [label=<gini = 0.0<br/>samples = 4<br/>value = [0, 0, 0, 6, 0]<br/>class = Mixto>, fillcolor="#3c39e5"] ;
14 -> 18 ;
19 [label=<gini = 0.0<br/>samples = 4<br/>value = [0, 0, 0, 7, 0]<br/>class = Mixto>, fillcolor="#3c39e5"] ;
11 -> 19 ;
20 [label=<Fibra &le; 0.06<br/>gini = 0.227<br/>samples = 30<br/>value = [0, 0, 0, 40, 6]<br/>class = Mixto>, fillcolor="#5957e9"] ;
10 -> 20 ;
21 [label=<gini = 0.0<br/>samples = 1<br/>value = [0, 0, 0, 0, 1]<br/>class = Sintéticos>, fillcolor="#e539c0"] ;
20 -> 21 ;
22 [label=<Viscosa &le; 5.98<br/>gini = 0.198<br/>samples = 29<br/>value = [0, 0, 0, 40, 5]<br/>class = Mixto>, fillcolor="#5452e8"] ;
20 -> 22 ;
23 [label=<gini = 0.0<br/>samples = 11<br/>value = [0, 0, 0, 16, 0]<br/>class = Mixto>, fillcolor="#3c39e5"] ;
22 -> 23 ;
24 [label=<Poliester &le; 49.98<br/>gini = 0.285<br/>samples = 18<br/>value = [0, 0, 0, 24, 5]<br/>class = Mixto>, fillcolor="#6562ea"] ;
22 -> 24 ;
25 [label=<gini = 0.0<br/>samples = 14<br/>value = [0, 0, 0, 24, 0]<br/>class = Mixto>, fillcolor="#3c39e5"] ;
24 -> 25 ;
26 [label=<gini = 0.0<br/>samples = 4<br/>value = [0, 0, 0, 0, 5]<br/>class = Sintéticos>, fillcolor="#e539c0"] ;
24 -> 26 ;
27 [label=<Seda &le; 29.965<br/>gini = 0.141<br/>samples = 2002<br/>value = [0.0, 183.0, 26.0, 2934.0, 29.0]<br/>class = Mixto>, fillcolor="#4c49e7"] ;
1 -> 27 ;
28 [label=<Poliester &le; 50.005<br/>gini = 0.036<br/>samples = 1885<br/>value = [0.0, 0.0, 26.0, 2934.0, 29.0]<br/>class = Mixto>, fillcolor="#403de5"] ;
27 -> 28 ;
29 [label=<Fibra &le; 0.01<br/>gini = 0.017<br/>samples = 1867<br/>value = [0, 0, 26, 2934, 0]<br/>class = Mixto>, fillcolor="#3e3be5"] ;
28 -> 29 ;
30 [label=<Poliester &le; 3.415<br/>gini = 0.036<br/>samples = 899<br/>value = [0, 0, 26, 1384, 0]<br/>class = Mixto>, fillcolor="#403de5"] ;
29 -> 30 ;
31 [label=<Algodon &le; 15.225<br/>gini = 0.234<br/>samples = 79<br/>value = [0, 0, 18, 115, 0]<br/>class = Mixto>, fillcolor="#5b58e9"] ;
30 -> 31 ;
32 [label=<Lana &le; 51.27<br/>gini = 0.498<br/>samples = 16<br/>value = [0, 0, 15, 17, 0]<br/>class = Mixto>, fillcolor="#e8e8fc"] ;
31 -> 32 ;
33 [label=<gini = 0.0<br/>samples = 11<br/>value = [0, 0, 0, 17, 0]<br/>class = Mixto>, fillcolor="#3c39e5"] ;
32 -> 33 ;
34 [label=<gini = 0.0<br/>samples = 5<br/>value = [0, 0, 15, 0, 0]<br/>class = Lana>, fillcolor="#39e5c5"] ;
32 -> 34 ;
35 [label=<Elastano &le; 0.085<br/>gini = 0.058<br/>samples = 63<br/>value = [0, 0, 3, 98, 0]<br/>class = Mixto>, fillcolor="#423fe6"] ;
31 -> 35 ;
36 [label=<Seda &le; 18.38<br/>gini = 0.5<br/>samples = 2<br/>value = [0, 0, 1, 1, 0]<br/>class = Lana>, fillcolor="#ffffff"] ;
35 -> 36 ;
37 [label=<gini = 0.0<br/>samples = 1<br/>value = [0, 0, 1, 0, 0]<br/>class = Lana>, fillcolor="#39e5c5"] ;
36 -> 37 ;
38 [label=<gini = 0.0<br/>samples = 1<br/>value = [0, 0, 0, 1, 0]<br/>class = Mixto>, fillcolor="#3c39e5"] ;
36 -> 38 ;
39 [label=<Algodon &le; 21.355<br/>gini = 0.04<br/>samples = 61<br/>value = [0, 0, 2, 97, 0]<br/>class = Mixto>, fillcolor="#403de6"] ;
35 -> 39 ;
40 [label=<Peso &le; 1.4<br/>gini = 0.165<br/>samples = 13<br/>value = [0, 0, 2, 20, 0]<br/>class = Mixto>, fillcolor="#504de8"] ;
39 -> 40 ;
41 [label=<Viscosa &le; 9.42<br/>gini = 0.5<br/>samples = 2<br/>value = [0, 0, 2, 2, 0]<br/>class = Lana>, fillcolor="#ffffff"] ;
40 -> 41 ;
42 [label=<gini = 0.0<br/>samples = 1<br/>value = [0, 0, 2, 0, 0]<br/>class = Lana>, fillcolor="#39e5c5"] ;
41 -> 42 ;
43 [label=<gini = 0.0<br/>samples = 1<br/>value = [0, 0, 0, 2, 0]<br/>class = Mixto>, fillcolor="#3c39e5"] ;
41 -> 43 ;
44 [label=<gini = 0.0<br/>samples = 11<br/>value = [0, 0, 0, 18, 0]<br/>class = Mixto>, fillcolor="#3c39e5"] ;
40 -> 44 ;
45 [label=<gini = 0.0<br/>samples = 48<br/>value = [0, 0, 0, 77, 0]<br/>class = Mixto>, fillcolor="#3c39e5"] ;
39 -> 45 ;
46 [label=<Poliester &le; 7.985<br/>gini = 0.012<br/>samples = 820<br/>value = [0, 0, 8, 1269, 0]<br/>class = Mixto>, fillcolor="#3d3ae5"] ;
30 -> 46 ;
47 [label=<Peso &le; 2.225<br/>gini = 0.072<br/>samples = 104<br/>value = [0, 0, 6, 155, 0]<br/>class = Mixto>, fillcolor="#4441e6"] ;
46 -> 47 ;
48 [label=<gini = 0.0<br/>samples = 71<br/>value = [0, 0, 0, 109, 0]<br/>class = Mixto>, fillcolor="#3c39e5"] ;
47 -> 48 ;
49 [label=<Algodon &le; 9.105<br/>gini = 0.204<br/>samples = 33<br/>value = [0, 0, 6, 46, 0]<br/>class = Mixto>, fillcolor="#5553e8"] ;
47 -> 49 ;
50 [label=<Poliester &le; 4.15<br/>gini = 0.408<br/>samples = 5<br/>value = [0, 0, 5, 2, 0]<br/>class = Lana>, fillcolor="#88efdc"] ;
49 -> 50 ;
51 [label=<gini = 0.0<br/>samples = 1<br/>value = [0, 0, 0, 1, 0]<br/>class = Mixto>, fillcolor="#3c39e5"] ;
50 -> 51 ;
52 [label=<Viscosa &le; 7.725<br/>gini = 0.278<br/>samples = 4<br/>value = [0, 0, 5, 1, 0]<br/>class = Lana>, fillcolor="#61ead1"] ;
50 -> 52 ;
53 [label=<gini = 0.0<br/>samples = 3<br/>value = [0, 0, 5, 0, 0]<br/>class = Lana>, fillcolor="#39e5c5"] ;
52 -> 53 ;
54 [label=<gini = 0.0<br/>samples = 1<br/>value = [0, 0, 0, 1, 0]<br/>class = Mixto>, fillcolor="#3c39e5"] ;
52 -> 54 ;
55 [label=<Algodon &le; 10.555<br/>gini = 0.043<br/>samples = 28<br/>value = [0, 0, 1, 44, 0]<br/>class = Mixto>, fillcolor="#403de6"] ;
49 -> 55 ;
56 [label=<Poliester &le; 4.24<br/>gini = 0.375<br/>samples = 3<br/>value = [0, 0, 1, 3, 0]<br/>class = Mixto>, fillcolor="#7d7bee"] ;
55 -> 56 ;
57 [label=<gini = 0.0<br/>samples = 1<br/>value = [0, 0, 1, 0, 0]<br/>class = Lana>, fillcolor="#39e5c5"] ;
56 -> 57 ;
58 [label=<gini = 0.0<br/>samples = 2<br/>value = [0, 0, 0, 3, 0]<br/>class = Mixto>, fillcolor="#3c39e5"] ;
56 -> 58 ;
59 [label=<gini = 0.0<br/>samples = 25<br/>value = [0, 0, 0, 41, 0]<br/>class = Mixto>, fillcolor="#3c39e5"] ;
55 -> 59 ;
60 [label=<Lana &le; 52.35<br/>gini = 0.004<br/>samples = 716<br/>value = [0, 0, 2, 1114, 0]<br/>class = Mixto>, fillcolor="#3c39e5"] ;
46 -> 60 ;
61 [label=<gini = 0.0<br/>samples = 715<br/>value = [0, 0, 0, 1114, 0]<br/>class = Mixto>, fillcolor="#3c39e5"] ;
60 -> 61 ;
62 [label=<gini = 0.0<br/>samples = 1<br/>value = [0, 0, 2, 0, 0]<br/>class = Lana>, fillcolor="#39e5c5"] ;
60 -> 62 ;
63 [label=<gini = 0.0<br/>samples = 968<br/>value = [0, 0, 0, 1550, 0]<br/>class = Mixto>, fillcolor="#3c39e5"] ;
29 -> 63 ;
64 [label=<gini = 0.0<br/>samples = 18<br/>value = [0, 0, 0, 0, 29]<br/>class = Sintéticos>, fillcolor="#e539c0"] ;
28 -> 64 ;
65 [label=<gini = 0.0<br/>samples = 117<br/>value = [0, 183, 0, 0, 0]<br/>class = Delicados>, fillcolor="#7be539"] ;
27 -> 65 ;
66 [label=<gini = 0.0<br/>samples = 1987<br/>value = [3170, 0, 0, 0, 0]<br/>class = Algodón>, fillcolor="#e58139"] ;
0 -> 66 [labeldistance=2.5, labelangle=-45, headlabel="False"] ;
}