digraph Tree {
node [shape=box, style="filled, rounded", color="black", fontname="helvetica"] ;
edge [fontname="helvetica"] ;
0 [label=<Nylon &le; 0.005<br/>gini = 0.624<br/>samples = 5028<br/>value = [3120, 227, 27, 3655, 971]<br/>class = Mixto>, fillcolor="#eae9fc"] ;
1 [label=<Peso &le; 6.455<br/>gini = 0.049<br/>samples = 1980<br/>value = [3120, 0, 0, 81, 0]<br/>class = Algodón>, fillcolor="#e6843e"] ;
0 -> 1 [labeldistance=2.5, labelangle=45, headlabel="True"] ;
2 [label=<Fibra &le; 3.545<br/>gini = 0.066<br/>samples = 1428<br/>value = [2242, 0, 0, 79, 0]<br/>class = Algodón>, fillcolor="#e68540"] ;
1 -> 2 ;
3 [label=<Algodon &le; 69.96<br/>gini = 0.037<br/>samples = 1204<br/>value = [1911, 0, 0, 37, 0]<br/>class = Algodón>, fillcolor="#e6833d"] ;
2 -> 3 ;
4 [label=<gini = 0.0<br/>samples = 22<br/>value = [0, 0, 0, 37, 0]<br/>class = Mixto>, fillcolor="#3c39e5"] ;
3 -> 4 ;
5 [label=<gini = 0.0<br/>samples = 1182<br/>value = [1911, 0, 0, 0, 0]<br/>class = Algodón>, fillcolor="#e58139"] ;
3 -> 5 ;
6 [label=<Algodon &le; 70.135<br/>gini = 0.2<br/>samples = 224<br/>value = [331, 0, 0, 42, 0]<br/>class = Algodón>, fillcolor="#e89152"] ;
2 -> 6 ;
7 [label=<gini = 0.0<br/>samples = 22<br/>value = [0, 0, 0, 42, 0]<br/>class = Mixto>, fillcolor="#3c39e5"] ;
6 -> 7 ;
8 [label=<gini = 0.0<br/>samples = 202<br/>value = [331, 0, 0, 0, 0]<br/>class = Algodón>, fillcolor="#e58139"] ;
6 -> 8 ;
9 [label=<Viscosa &le; 7.315<br/>gini = 0.005<br/>samples = 552<br/>value = [878, 0, 0, 2, 0]<br/>class = Algodón>, fillcolor="#e58139"] ;
1 -> 9 ;
10 [label=<gini = 0.0<br/>samples = 523<br/>value = [831, 0, 0, 0, 0]<br/>class = Algodón>, fillcolor="#e58139"] ;
9 -> 10 ;
11 [label=<Viscosa &le; 7.405<br/>gini = 0.078<br/>samples = 29<br/>value = [47.0, 0.0, 0.0, 2.0, 0.0]<br/>class = Algodón>, fillcolor="#e68641"] ;
9 -> 11 ;
12 [label=<gini = 0.0<br/>samples = 1<br/>value = [0, 0, 0, 1, 0]<br/>class = Mixto>, fillcolor="#3c39e5"] ;
11 -> 12 ;
13 [label=<Poliester &le; 18.715<br/>gini = 0.041<br/>samples = 28<br/>value = [47, 0, 0, 1, 0]<br/>class = Algodón>, fillcolor="#e6843d"] ;
11 -> 13 ;
14 [label=<gini = 0.0<br/>samples = 26<br/>value = [46, 0, 0, 0, 0]<br/>class = Algodón>, fillcolor="#e58139"] ;
13 -> 14 ;
15 [label=<Algodon &le; 68.88<br/>gini = 0.5<br/>samples = 2<br/>value = [1, 0, 0, 1, 0]<br/>class = Algodón>, fillcolor="#ffffff"] ;
13 -> 15 ;
16 [label=<gini = 0.0<br/>samples = 1<br/>value = [0, 0, 0, 1, 0]<br/>class = Mixto>, fillcolor="#3c39e5"] ;
15 -> 16 ;
17 [label=<gini = 0.0<br/>samples = 1<br/>value = [1, 0, 0, 0, 0]<br/>class = Algodón>, fillcolor="#e58139"] ;
15 -> 17 ;
18 [label=<Lana &le; 0.035<br/>gini = 0.402<br/>samples = 3048<br/>value = [0, 227, 27, 3574, 971]<br/>class = Mixto>, fillcolor="#7a78ed"] ;
0 -> 18 [labeldistance=2.5, labelangle=-45, headlabel="False"] ;
19 [label=<Poliester &le; 49.995<br/>gini = 0.482<br/>samples = 1008<br/>value = [0, 0, 0, 640, 938]<br/>class = Sintéticos>, fillcolor="#f7c0eb"] ;
18 -> 19 ;
20 [label=<gini = 0.0<br/>samples = 402<br/>value = [0, 0, 0, 640, 0]<br/>class = Mixto>, fillcolor="#3c39e5"] ;
19 -> 20 ;
21 [label=<gini = 0.0<br/>samples = 606<br/>value = [0, 0, 0, 0, 938]<br/>class = Sintéticos>, fillcolor="#e539c0"] ;
19 -> 21 ;
22 [label=<Algodon &le; 18.145<br/>gini = 0.165<br/>samples = 2040<br/>value = [0, 227, 27, 2934, 33]<br/>class = Mixto>, fillcolor="#4f4ce7"] ;
18 -> 22 ;
23 [label=<Lana &le; 50.175<br/>gini = 0.389<br/>samples = 539<br/>value = [0, 193, 25, 650, 0]<br/>class = Mixto>, fillcolor="#7b79ed"] ;
22 -> 23 ;
24 [label=<Poliester &le; 6.32<br/>gini = 0.353<br/>samples = 524<br/>value = [0, 193, 0, 650, 0]<br/>class = Mixto>, fillcolor="#7674ed"] ;
23 -> 24 ;
25 [label=<Nylon &le; 4.83<br/>gini = 0.488<br/>samples = 68<br/>value = [0, 63, 0, 46, 0]<br/>class = Delicados>, fillcolor="#dbf8ca"] ;
24 -> 25 ;
26 [label=<Poliester &le; 5.47<br/>gini = 0.128<br/>samples = 18<br/>value = [0, 27, 0, 2, 0]<br/>class = Delicados>, fillcolor="#85e748"] ;
25 -> 26 ;
27 [label=<Lana &le; 49.305<br/>gini = 0.074<br/>samples = 16<br/>value = [0, 25, 0, 1, 0]<br/>class = Delicados>, fillcolor="#80e641"] ;
26 -> 27 ;
28 [label=<gini = 0.0<br/>samples = 15<br/>value = [0, 25, 0, 0, 0]<br/>class = Delicados>, fillcolor="#7be539"] ;
27 -> 28 ;
29 [label=<gini = 0.0<br/>samples = 1<br/>value = [0, 0, 0, 1, 0]<br/>class = Mixto>, fillcolor="#3c39e5"] ;
27 -> 29 ;
30 [label=<Elastano &le; 3.165<br/>gini = 0.444<br/>samples = 2<br/>value = [0, 2, 0, 1, 0]<br/>class = Delicados>, fillcolor="#bdf29c"] ;
26 -> 30 ;
31 [label=<gini = 0.0<br/>samples = 1<br/>value = [0, 2, 0, 0, 0]<br/>class = Delicados>, fillcolor="#7be539"] ;
30 -> 31 ;
32 [label=<gini = 0.0<br/>samples = 1<br/>value = [0, 0, 0, 1, 0]<br/>class = Mixto>, fillcolor="#3c39e5"] ;
30 -> 32 ;
33 [label=<Algodon &le; 9.43<br/>gini = 0.495<br/>samples = 50<br/>value = [0, 36, 0, 44, 0]<br/>class = Mixto>, fillcolor="#dcdbfa"] ;
25 -> 33 ;
34 [label=<Lana &le; 39.57<br/>gini = 0.464<br/>samples = 23<br/>value = [0, 26, 0, 15, 0]<br/>class = Delicados>, fillcolor="#c7f4ab"] ;
33 -> 34 ;
35 [label=<gini = 0.0<br/>samples = 8<br/>value = [0, 18, 0, 0, 0]<br/>class = Delicados>, fillcolor="#7be539"] ;
34 -> 35 ;
36 [label=<Viscosa &le; 4.13<br/>gini = 0.454<br/>samples = 15<br/>value = [0, 8, 0, 15, 0]<br/>class = Mixto>, fillcolor="#a4a3f3"] ;
34 -> 36 ;
37 [label=<gini = 0.0<br/>samples = 4<br/>value = [0, 7, 0, 0, 0]<br/>class = Delicados>, fillcolor="#7be539"] ;
36 -> 37 ;
38 [label=<Seda &le; 30.93<br/>gini = 0.117<br/>samples = 11<br/>value = [0, 1, 0, 15, 0]<br/>class = Mixto>, fillcolor="#4946e7"] ;
36 -> 38 ;
39 [label=<gini = 0.0<br/>samples = 10<br/>value = [0, 0, 0, 15, 0]<br/>class = Mixto>, fillcolor="#3c39e5"] ;
38 -> 39 ;
40 [label=<gini = 0.0<br/>samples = 1<br/>value = [0, 1, 0, 0, 0]<br/>class = Delicados>, fillcolor="#7be539"] ;
38 -> 40 ;
41 [label=<Lana &le; 34.285<br/>gini = 0.381<br/>samples = 27<br/>value = [0, 10, 0, 29, 0]<br/>class = Mixto>, fillcolor="#7f7dee"] ;
33 -> 41 ;
42 [label=<Seda &le; 29.465<br/>gini = 0.444<br/>samples = 11<br/>value = [0, 10, 0, 5, 0]<br/>class = Delicados>, fillcolor="#bdf29c"] ;
41 -> 42 ;
43 [label=<gini = 0.0<br/>samples = 4<br/>value = [0, 0, 0, 5, 0]<br/>class = Mixto>, fillcolor="#3c39e5"] ;
42 -> 43 ;
44 [label=<gini = 0.0<br/>samples = 7<br/>value = [0, 10, 0, 0, 0]<br/>class = Delicados>, fillcolor="#7be539"] ;
42 -> 44 ;
45 [label=<gini = 0.0<br/>samples = 16<br/>value = [0, 0, 0, 24, 0]<br/>class = Mixto>, fillcolor="#3c39e5"] ;
41 -> 45 ;
46 [label=<Peso &le; 2.795<br/>gini = 0.291<br/>samples = 456<br/>value = [0, 130, 0, 604, 0]<br/>class = Mixto>, fillcolor="#6664eb"] ;
24 -> 46 ;
47 [label=<Viscosa &le; 5.85<br/>gini = 0.266<br/>samples = 413<br/>value = [0, 104, 0, 555, 0]<br/>class = Mixto>, fillcolor="#615eea"] ;
46 -> 47 ;
48 [label=<Seda &le; 30.045<br/>gini = 0.348<br/>samples = 182<br/>value = [0.0, 63.0, 0.0, 218.0, 0.0]<br/>class = Mixto>, fillcolor="#7472ed"] ;
47 -> 48 ;
49 [label=<gini = 0.0<br/>samples = 142<br/>value = [0, 0, 0, 218, 0]<br/>class = Mixto>, fillcolor="#3c39e5"] ;
48 -> 49 ;
50 [label=<gini = 0.0<br/>samples = 40<br/>value = [0, 63, 0, 0, 0]<br/>class = Delicados>, fillcolor="#7be539"] ;
48 -> 50 ;
51 [label=<Lana &le; 26.56<br/>gini = 0.193<br/>samples = 231<br/>value = [0, 41, 0, 337, 0]<br/>class = Mixto>, fillcolor="#5451e8"] ;
47 -> 51 ;
52 [label=<Seda &le; 29.69<br/>gini = 0.424<br/>samples = 74<br/>value = [0, 36, 0, 82, 0]<br/>class = Mixto>, fillcolor="#9290f0"] ;
51 -> 52 ;
53 [label=<gini = 0.0<br/>samples = 51<br/>value = [0, 0, 0, 82, 0]<br/>class = Mixto>, fillcolor="#3c39e5"] ;
52 -> 53 ;
54 [label=<gini = 0.0<br/>samples = 23<br/>value = [0, 36, 0, 0, 0]<br/>class = Delicados>, fillcolor="#7be539"] ;
52 -> 54 ;
55 [label=<Elastano &le; 4.885<br/>gini = 0.038<br/>samples = 157<br/>value = [0, 5, 0, 255, 0]<br/>class = Mixto>, fillcolor="#403de6"] ;
51 -> 55 ;
56 [label=<Algodon &le; 4.195<br/>gini = 0.018<br/>samples = 130<br/>value = [0, 2, 0, 218, 0]<br/>class = Mixto>, fillcolor="#3e3be5"] ;
55 -> 56 ;
57 [label=<Poliester &le; 19.38<br/>gini = 0.08<br/>samples = 27<br/>value = [0, 2, 0, 46, 0]<br/>class = Mixto>, fillcolor="#4442e6"] ;
56 -> 57 ;
58 [label=<Peso &le; 1.315<br/>gini = 0.159<br/>samples = 15<br/>value = [0, 2, 0, 21, 0]<br/>class = Mixto>, fillcolor="#4f4ce7"] ;
57 -> 58 ;
59 [label=<Algodon &le; 3.655<br/>gini = 0.48<br/>samples = 3<br/>value = [0, 2, 0, 3, 0]<br/>class = Mixto>, fillcolor="#bebdf6"] ;
58 -> 59 ;
60 [label=<gini = 0.0<br/>samples = 2<br/>value = [0, 0, 0, 3, 0]<br/>class = Mixto>, fillcolor="#3c39e5"] ;
59 -> 60 ;
61 [label=<gini = 0.0<br/>samples = 1<br/>value = [0, 2, 0, 0, 0]<br/>class = Delicados>, fillcolor="#7be539"] ;
59 -> 61 ;
62 [label=<gini = 0.0<br/>samples = 12<br/>value = [0, 0, 0, 18, 0]<br/>class = Mixto>, fillcolor="#3c39e5"] ;
58 -> 62 ;
63 [label=<gini = 0.0<br/>samples = 12<br/>value = [0, 0, 0, 25, 0]<br/>class = Mixto>, fillcolor="#3c39e5"] ;
57 -> 63 ;
64 [label=<gini = 0.0<br/>samples = 103<br/>value = [0, 0, 0, 172, 0]<br/>class = Mixto>, fillcolor="#3c39e5"] ;
56 -> 64 ;
65 [label=<Elastano &le; 4.93<br/>gini = 0.139<br/>samples = 27<br/>value = [0, 3, 0, 37, 0]<br/>class = Mixto>, fillcolor="#4c49e7"] ;
55 -> 65 ;
66 [label=<gini = 0.0<br/>samples = 1<br/>value = [0, 3, 0, 0, 0]<br/>class = Delicados>, fillcolor="#7be539"] ;
65 -> 66 ;
67 [label=<gini = 0.0<br/>samples = 26<br/>value = [0, 0, 0, 37, 0]<br/>class = Mixto>, fillcolor="#3c39e5"] ;
65 -> 67 ;
68 [label=<Seda &le; 30.26<br/>gini = 0.453<br/>samples = 43<br/>value = [0, 26, 0, 49, 0]<br/>class = Mixto>, fillcolor="#a3a2f3"] ;
46 -> 68 ;
69 [label=<gini = 0.0<br/>samples = 31<br/>value = [0, 0, 0, 49, 0]<br/>class = Mixto>, fillcolor="#3c39e5"] ;
68 -> 69 ;
70 [label=<gini = 0.0<br/>samples = 12<br/>value = [0, 26, 0, 0, 0]<br/>class = Delicados>, fillcolor="#7be539"] ;
68 -> 70 ;
71 [label=<gini = 0.0<br/>samples = 15<br/>value = [0, 0, 25, 0, 0]<br/>class = Lana>, fillcolor="#39e5c5"] ;
23 -> 71 ;
72 [label=<Poliester &le; 49.99<br/>gini = 0.057<br/>samples = 1501<br/>value = [0, 34, 2, 2284, 33]<br/>class = Mixto>, fillcolor="#423fe6"] ;
22 -> 72 ;
73 [label=<Lana &le; 50.535<br/>gini = 0.031<br/>samples = 1482<br/>value = [0, 34, 2, 2284, 0]<br/>class = Mixto>, fillcolor="#3f3ce5"] ;
72 -> 73 ;
74 [label=<Algodon &le; 29.69<br/>gini = 0.029<br/>samples = 1480<br/>value = [0, 34, 0, 2284, 0]<br/>class = Mixto>, fillcolor="#3f3ce5"] ;
73 -> 74 ;
75 [label=<Viscosa &le; 1.475<br/>gini = 0.097<br/>samples = 413<br/>value = [0, 33, 0, 612, 0]<br/>class = Mixto>, fillcolor="#4744e6"] ;
74 -> 75 ;
76 [label=<Seda &le; 30.22<br/>gini = 0.296<br/>samples = 46<br/>value = [0, 13, 0, 59, 0]<br/>class = Mixto>, fillcolor="#6765eb"] ;
75 -> 76 ;
77 [label=<gini = 0.0<br/>samples = 39<br/>value = [0, 0, 0, 59, 0]<br/>class = Mixto>, fillcolor="#3c39e5"] ;
76 -> 77 ;
78 [label=<gini = 0.0<br/>samples = 7<br/>value = [0, 13, 0, 0, 0]<br/>class = Delicados>, fillcolor="#7be539"] ;
76 -> 78 ;
79 [label=<Algodon &le; 29.665<br/>gini = 0.067<br/>samples = 367<br/>value = [0, 20, 0, 553, 0]<br/>class = Mixto>, fillcolor="#4340e6"] ;
75 -> 79 ;
80 [label=<Nylon &le; 0.065<br/>gini = 0.061<br/>samples = 366<br/>value = [0, 18, 0, 553, 0]<br/>class = Mixto>, fillcolor="#423fe6"] ;
79 -> 80 ;
81 [label=<gini = 0.0<br/>samples = 1<br/>value = [0, 2, 0, 0, 0]<br/>class = Delicados>, fillcolor="#7be539"] ;
80 -> 81 ;
82 [label=<Lana &le; 16.235<br/>gini = 0.055<br/>samples = 365<br/>value = [0.0, 16.0, 0.0, 553.0, 0.0]<br/>class = Mixto>, fillcolor="#423fe6"] ;
80 -> 82 ;
83 [label=<Poliester &le; 21.315<br/>gini = 0.269<br/>samples = 33<br/>value = [0, 8, 0, 42, 0]<br/>class = Mixto>, fillcolor="#615fea"] ;
82 -> 83 ;
84 [label=<Elastano &le; 1.66<br/>gini = 0.5<br/>samples = 10<br/>value = [0, 8, 0, 8, 0]<br/>class = Delicados>, fillcolor="#ffffff"] ;
83 -> 84 ;
85 [label=<gini = 0.0<br/>samples = 2<br/>value = [0, 4, 0, 0, 0]<br/>class = Delicados>, fillcolor="#7be539"] ;
84 -> 85 ;
86 [label=<Nylon &le; 2.925<br/>gini = 0.444<br/>samples = 8<br/>value = [0, 4, 0, 8, 0]<br/>class = Mixto>, fillcolor="#9e9cf2"] ;
84 -> 86 ;
87 [label=<gini = 0.0<br/>samples = 2<br/>value = [0, 3, 0, 0, 0]<br/>class = Delicados>, fillcolor="#7be539"] ;
86 -> 87 ;
88 [label=<Seda &le; 30.19<br/>gini = 0.198<br/>samples = 6<br/>value = [0, 1, 0, 8, 0]<br/>class = Mixto>, fillcolor="#5452e8"] ;
86 -> 88 ;
89 [label=<gini = 0.0<br/>samples = 5<br/>value = [0, 0, 0, 8, 0]<br/>class = Mixto>, fillcolor="#3c39e5"] ;
88 -> 89 ;
90 [label=<gini = 0.0<br/>samples = 1<br/>value = [0, 1, 0, 0, 0]<br/>class = Delicados>, fillcolor="#7be539"] ;
88 -> 90 ;
91 [label=<gini = 0.0<br/>samples = 23<br/>value = [0, 0, 0, 34, 0]<br/>class = Mixto>, fillcolor="#3c39e5"] ;
83 -> 91 ;
92 [label=<Seda &le; 30.08<br/>gini = 0.03<br/>samples = 332<br/>value = [0, 8, 0, 511, 0]<br/>class = Mixto>, fillcolor="#3f3ce5"] ;
82 -> 92 ;
93 [label=<gini = 0.0<br/>samples = 325<br/>value = [0, 0, 0, 511, 0]<br/>class = Mixto>, fillcolor="#3c39e5"] ;
92 -> 93 ;
94 [label=<gini = 0.0<br/>samples = 7<br/>value = [0, 8, 0, 0, 0]<br/>class = Delicados>, fillcolor="#7be539"] ;
92 -> 94 ;
95 [label=<gini = 0.0<br/>samples = 1<br/>value = [0, 2, 0, 0, 0]<br/>class = Delicados>, fillcolor="#7be539"] ;
79 -> 95 ;
96 [label=<Peso &le; 1.93<br/>gini = 0.001<br/>samples = 1067<br/>value = [0.0, 1.0, 0.0, 1672.0, 0.0]<br/>class = Mixto>, fillcolor="#3c39e5"] ;
74 -> 96 ;
97 [label=<Peso &le; 1.89<br/>gini = 0.024<br/>samples = 48<br/>value = [0, 1, 0, 80, 0]<br/>class = Mixto>, fillcolor="#3e3be5"] ;
96 -> 97 ;
98 [label=<gini = 0.0<br/>samples = 47<br/>value = [0, 0, 0, 80, 0]<br/>class = Mixto>, fillcolor="#3c39e5"] ;
97 -> 98 ;
99 [label=<gini = 0.0<br/>samples = 1<br/>value = [0, 1, 0, 0, 0]<br/>class = Delicados>, fillcolor="#7be539"] ;
97 -> 99 ;
100 [label=<gini = 0.0<br/>samples = 1019<br/>value = [0, 0, 0, 1592, 0]<br/>class = Mixto>, fillcolor="#3c39e5"] ;
96 -> 100 ;
101 [label=<gini = 0.0<br/>samples = 2<br/>value = [0, 0, 2, 0, 0]<br/>class = Lana>, fillcolor="#39e5c5"] ;
73 -> 101 ;
102 [label=<gini = 0.0<br/>samples = 19<br/>value = [0, 0, 0, 0, 33]<br/>class = Sintéticos>, fillcolor="#e539c0"] ;
72 -> 102 ;
}