digraph Tree {
node [shape=box, style="filled, rounded", color="black", fontname="helvetica"] ;
edge [fontname="helvetica"] ;
0 [label=<Lana &le; 0.005<br/>gini = 0.623<br/>samples = 5046<br/>value = [3039, 187, 20, 3713, 1041]<br/>class = Mixto>, fillcolor="#e5e4fb"] ;
1 [label=<Algodon &le; 70.025<br/>gini = 0.519<br/>samples = 3002<br/>value = [3039, 0, 0, 669, 1010]<br/>class = Algodón>, fillcolor="#f1ba93"] ;
0 -> 1 [labeldistance=2.5, labelangle=45, headlabel="True"] ;
2 [label=<Nylon &le; 3.0<br/>gini = 0.479<br/>samples = 1054<br/>value = [0.0, 0.0, 0.0, 669.0, 1010.0]<br/>class = Sintéticos>, fillcolor="#f6bcea"] ;
1 -> 2 ;
3 [label=<gini = 0.0<br/>samples = 42<br/>value = [0, 0, 0, 76, 0]<br/>class = Mixto>, fillcolor="#3c39e5"] ;
2 -> 3 ;
4 [label=<Algodon &le; 18.835<br/>gini = 0.466<br/>samples = 1012<br/>value = [0, 0, 0, 593, 1010]<br/>class = Sintéticos>, fillcolor="#f4ade5"] ;
2 -> 4 ;
5 [label=<Poliester &le; 50.0<br/>gini = 0.299<br/>samples = 626<br/>value = [0, 0, 0, 182, 813]<br/>class = Sintéticos>, fillcolor="#eb65ce"] ;
4 -> 5 ;
6 [label=<gini = 0.0<br/>samples = 119<br/>value = [0, 0, 0, 182, 0]<br/>class = Mixto>, fillcolor="#3c39e5"] ;
5 -> 6 ;
7 [label=<gini = 0.0<br/>samples = 507<br/>value = [0, 0, 0, 0, 813]<br/>class = Sintéticos>, fillcolor="#e539c0"] ;
5 -> 7 ;
8 [label=<Nylon &le; 8.425<br/>gini = 0.438<br/>samples = 386<br/>value = [0, 0, 0, 411, 197]<br/>class = Mixto>, fillcolor="#9998f1"] ;
4 -> 8 ;
9 [label=<Elastano &le; 15.85<br/>gini = 0.434<br/>samples = 89<br/>value = [0, 0, 0, 42, 90]<br/>class = Sintéticos>, fillcolor="#f195dd"] ;
8 -> 9 ;
10 [label=<Algodon &le; 26.405<br/>gini = 0.232<br/>samples = 64<br/>value = [0, 0, 0, 13, 84]<br/>class = Sintéticos>, fillcolor="#e958ca"] ;
9 -> 10 ;
11 [label=<Poliester &le; 49.975<br/>gini = 0.108<br/>samples = 58<br/>value = [0, 0, 0, 5, 82]<br/>class = Sintéticos>, fillcolor="#e745c4"] ;
10 -> 11 ;
12 [label=<gini = 0.0<br/>samples = 4<br/>value = [0, 0, 0, 5, 0]<br/>class = Mixto>, fillcolor="#3c39e5"] ;
11 -> 12 ;
13 [label=<gini = 0.0<br/>samples = 54<br/>value = [0, 0, 0, 0, 82]<br/>class = Sintéticos>, fillcolor="#e539c0"] ;
11 -> 13 ;
14 [label=<Fibra &le; 3.08<br/>gini = 0.32<br/>samples = 6<br/>value = [0, 0, 0, 8, 2]<br/>class = Mixto>, fillcolor="#6d6aec"] ;
10 -> 14 ;
15 [label=<gini = 0.0<br/>samples = 2<br/>value = [0, 0, 0, 0, 2]<br/>class = Sintéticos>, fillcolor="#e539c0"] ;
14 -> 15 ;
16 [label=<gini = 0.0<br/>samples = 4<br/>value = [0, 0, 0, 8, 0]<br/>class = Mixto>, fillcolor="#3c39e5"] ;
14 -> 16 ;
17 [label=<Poliester &le; 49.645<br/>gini = 0.284<br/>samples = 25<br/>value = [0.0, 0.0, 0.0, 29.0, 6.0]<br/>class = Mixto>, fillcolor="#6462ea"] ;
9 -> 17 ;
18 [label=<gini = 0.0<br/>samples = 20<br/>value = [0, 0, 0, 29, 0]<br/>class = Mixto>, fillcolor="#3c39e5"] ;
17 -> 18 ;
19 [label=<gini = 0.0<br/>samples = 5<br/>value = [0, 0, 0, 0, 6]<br/>class = Sintéticos>, fillcolor="#e539c0"] ;
17 -> 19 ;
20 [label=<Viscosa &le; 1.925<br/>gini = 0.349<br/>samples = 297<br/>value = [0, 0, 0, 369, 107]<br/>class = Mixto>, fillcolor="#7572ed"] ;
8 -> 20 ;
21 [label=<Fibra &le; 4.295<br/>gini = 0.452<br/>samples = 107<br/>value = [0, 0, 0, 112, 59]<br/>class = Mixto>, fillcolor="#a3a1f3"] ;
20 -> 21 ;
22 [label=<Peso &le; 3.855<br/>gini = 0.474<br/>samples = 97<br/>value = [0, 0, 0, 94, 59]<br/>class = Mixto>, fillcolor="#b6b5f5"] ;
21 -> 22 ;
23 [label=<Nylon &le; 17.46<br/>gini = 0.485<br/>samples = 89<br/>value = [0, 0, 0, 84, 59]<br/>class = Mixto>, fillcolor="#c5c4f7"] ;
22 -> 23 ;
24 [label=<Viscosa &le; 1.625<br/>gini = 0.499<br/>samples = 73<br/>value = [0, 0, 0, 64, 58]<br/>class = Mixto>, fillcolor="#edecfd"] ;
23 -> 24 ;
25 [label=<Algodon &le; 24.175<br/>gini = 0.486<br/>samples = 65<br/>value = [0, 0, 0, 62, 44]<br/>class = Mixto>, fillcolor="#c6c6f7"] ;
24 -> 25 ;
26 [label=<Poliester &le; 49.93<br/>gini = 0.441<br/>samples = 40<br/>value = [0, 0, 0, 20, 41]<br/>class = Sintéticos>, fillcolor="#f29adf"] ;
25 -> 26 ;
27 [label=<gini = 0.0<br/>samples = 14<br/>value = [0, 0, 0, 20, 0]<br/>class = Mixto>, fillcolor="#3c39e5"] ;
26 -> 27 ;
28 [label=<gini = 0.0<br/>samples = 26<br/>value = [0, 0, 0, 0, 41]<br/>class = Sintéticos>, fillcolor="#e539c0"] ;
26 -> 28 ;
29 [label=<Elastano &le; 6.94<br/>gini = 0.124<br/>samples = 25<br/>value = [0, 0, 0, 42, 3]<br/>class = Mixto>, fillcolor="#4a47e7"] ;
25 -> 29 ;
30 [label=<gini = 0.0<br/>samples = 1<br/>value = [0, 0, 0, 0, 2]<br/>class = Sintéticos>, fillcolor="#e539c0"] ;
29 -> 30 ;
31 [label=<Viscosa &le; 0.065<br/>gini = 0.045<br/>samples = 24<br/>value = [0, 0, 0, 42, 1]<br/>class = Mixto>, fillcolor="#413ee6"] ;
29 -> 31 ;
32 [label=<gini = 0.0<br/>samples = 1<br/>value = [0, 0, 0, 0, 1]<br/>class = Sintéticos>, fillcolor="#e539c0"] ;
31 -> 32 ;
33 [label=<gini = 0.0<br/>samples = 23<br/>value = [0, 0, 0, 42, 0]<br/>class = Mixto>, fillcolor="#3c39e5"] ;
31 -> 33 ;
34 [label=<Elastano &le; 12.485<br/>gini = 0.219<br/>samples = 8<br/>value = [0, 0, 0, 2, 14]<br/>class = Sintéticos>, fillcolor="#e955c9"] ;
24 -> 34 ;
35 [label=<gini = 0.0<br/>samples = 6<br/>value = [0, 0, 0, 0, 14]<br/>class = Sintéticos>, fillcolor="#e539c0"] ;
34 -> 35 ;
36 [label=<gini = 0.0<br/>samples = 2<br/>value = [0, 0, 0, 2, 0]<br/>class = Mixto>, fillcolor="#3c39e5"] ;
34 -> 36 ;
37 [label=<Poliester &le; 48.325<br/>gini = 0.091<br/>samples = 16<br/>value = [0, 0, 0, 20, 1]<br/>class = Mixto>, fillcolor="#4643e6"] ;
23 -> 37 ;
38 [label=<gini = 0.0<br/>samples = 15<br/>value = [0, 0, 0, 20, 0]<br/>class = Mixto>, fillcolor="#3c39e5"] ;
37 -> 38 ;
39 [label=<gini = 0.0<br/>samples = 1<br/>value = [0, 0, 0, 0, 1]<br/>class = Sintéticos>, fillcolor="#e539c0"] ;
37 -> 39 ;
40 [label=<gini = 0.0<br/>samples = 8<br/>value = [0, 0, 0, 10, 0]<br/>class = Mixto>, fillcolor="#3c39e5"] ;
22 -> 40 ;
41 [label=<gini = 0.0<br/>samples = 10<br/>value = [0, 0, 0, 18, 0]<br/>class = Mixto>, fillcolor="#3c39e5"] ;
21 -> 41 ;
42 [label=<Poliester &le; 50.05<br/>gini = 0.265<br/>samples = 190<br/>value = [0.0, 0.0, 0.0, 257.0, 48.0]<br/>class = Mixto>, fillcolor="#605eea"] ;
20 -> 42 ;
43 [label=<gini = 0.0<br/>samples = 158<br/>value = [0, 0, 0, 257, 0]<br/>class = Mixto>, fillcolor="#3c39e5"] ;
42 -> 43 ;
44 [label=<gini = 0.0<br/>samples = 32<br/>value = [0, 0, 0, 0, 48]<br/>class = Sintéticos>, fillcolor="#e539c0"] ;
42 -> 44 ;
45 [label=<gini = 0.0<br/>samples = 1948<br/>value = [3039, 0, 0, 0, 0]<br/>class = Algodón>, fillcolor="#e58139"] ;
1 -> 45 ;
46 [label=<Seda &le; 29.995<br/>gini = 0.136<br/>samples = 2044<br/>value = [0, 187, 20, 3044, 31]<br/>class = Mixto>, fillcolor="#4b48e7"] ;
0 -> 46 [labeldistance=2.5, labelangle=-45, headlabel="False"] ;
47 [label=<Viscosa &le; 3.375<br/>gini = 0.033<br/>samples = 1927<br/>value = [0.0, 0.0, 20.0, 3044.0, 31.0]<br/>class = Mixto>, fillcolor="#3f3ce5"] ;
46 -> 47 ;
48 [label=<Nylon &le; 0.075<br/>gini = 0.073<br/>samples = 584<br/>value = [0, 0, 9, 892, 26]<br/>class = Mixto>, fillcolor="#4441e6"] ;
47 -> 48 ;
49 [label=<Seda &le; 7.515<br/>gini = 0.43<br/>samples = 8<br/>value = [0, 0, 2, 8, 1]<br/>class = Mixto>, fillcolor="#7d7bee"] ;
48 -> 49 ;
50 [label=<Algodon &le; 38.18<br/>gini = 0.219<br/>samples = 6<br/>value = [0, 0, 0, 7, 1]<br/>class = Mixto>, fillcolor="#5855e9"] ;
49 -> 50 ;
51 [label=<gini = 0.0<br/>samples = 1<br/>value = [0, 0, 0, 0, 1]<br/>class = Sintéticos>, fillcolor="#e539c0"] ;
50 -> 51 ;
52 [label=<gini = 0.0<br/>samples = 5<br/>value = [0, 0, 0, 7, 0]<br/>class = Mixto>, fillcolor="#3c39e5"] ;
50 -> 52 ;
53 [label=<Lana &le; 41.24<br/>gini = 0.444<br/>samples = 2<br/>value = [0, 0, 2, 1, 0]<br/>class = Lana>, fillcolor="#9cf2e2"] ;
49 -> 53 ;
54 [label=<gini = 0.0<br/>samples = 1<br/>value = [0, 0, 0, 1, 0]<br/>class = Mixto>, fillcolor="#3c39e5"] ;
53 -> 54 ;
55 [label=<gini = 0.0<br/>samples = 1<br/>value = [0, 0, 2, 0, 0]<br/>class = Lana>, fillcolor="#39e5c5"] ;
53 -> 55 ;
56 [label=<Algodon &le; 41.695<br/>gini = 0.068<br/>samples = 576<br/>value = [0, 0, 7, 884, 25]<br/>class = Mixto>, fillcolor="#4340e6"] ;
48 -> 56 ;
57 [label=<Poliester &le; 50.105<br/>gini = 0.128<br/>samples = 292<br/>value = [0, 0, 7, 439, 25]<br/>class = Mixto>, fillcolor="#4a47e7"] ;
56 -> 57 ;
58 [label=<Viscosa &le; 3.365<br/>gini = 0.031<br/>samples = 277<br/>value = [0, 0, 7, 439, 0]<br/>class = Mixto>, fillcolor="#3f3ce5"] ;
57 -> 58 ;
59 [label=<Lana &le; 50.555<br/>gini = 0.027<br/>samples = 276<br/>value = [0, 0, 6, 439, 0]<br/>class = Mixto>, fillcolor="#3f3ce5"] ;
58 -> 59 ;
60 [label=<gini = 0.0<br/>samples = 272<br/>value = [0, 0, 0, 439, 0]<br/>class = Mixto>, fillcolor="#3c39e5"] ;
59 -> 60 ;
61 [label=<gini = 0.0<br/>samples = 4<br/>value = [0, 0, 6, 0, 0]<br/>class = Lana>, fillcolor="#39e5c5"] ;
59 -> 61 ;
62 [label=<gini = 0.0<br/>samples = 1<br/>value = [0, 0, 1, 0, 0]<br/>class = Lana>, fillcolor="#39e5c5"] ;
58 -> 62 ;
63 [label=<gini = 0.0<br/>samples = 15<br/>value = [0, 0, 0, 0, 25]<br/>class = Sintéticos>, fillcolor="#e539c0"] ;
57 -> 63 ;
64 [label=<gini = 0.0<br/>samples = 284<br/>value = [0, 0, 0, 445, 0]<br/>class = Mixto>, fillcolor="#3c39e5"] ;
56 -> 64 ;
65 [label=<Poliester &le; 49.6<br/>gini = 0.015<br/>samples = 1343<br/>value = [0, 0, 11, 2152, 5]<br/>class = Mixto>, fillcolor="#3d3ae5"] ;
47 -> 65 ;
66 [label=<Lana &le; 50.175<br/>gini = 0.01<br/>samples = 1340<br/>value = [0, 0, 11, 2152, 0]<br/>class = Mixto>, fillcolor="#3d3ae5"] ;
65 -> 66 ;
67 [label=<gini = 0.0<br/>samples = 1331<br/>value = [0, 0, 0, 2152, 0]<br/>class = Mixto>, fillcolor="#3c39e5"] ;
66 -> 67 ;
68 [label=<gini = 0.0<br/>samples = 9<br/>value = [0, 0, 11, 0, 0]<br/>class = Lana>, fillcolor="#39e5c5"] ;
66 -> 68 ;
69 [label=<gini = 0.0<br/>samples = 3<br/>value = [0, 0, 0, 0, 5]<br/>class = Sintéticos>, fillcolor="#e539c0"] ;
65 -> 69 ;
70 [label=<gini = 0.0<br/>samples = 117<br/>value = [0, 187, 0, 0, 0]<br/>class = Delicados>, fillcolor="#7be539"] ;
46 -> 70 ;
}