digraph Tree {
node [shape=box, style="filled, rounded", color="black", fontname="helvetica"] ;
edge [fontname="helvetica"] ;
0 [label=<Algodon &le; 70.035<br/>gini = 0.624<br/>samples = 5048<br/>value = [3136.0, 191.0, 30.0, 3626.0, 1017.0]<br/>class = Mixto>, fillcolor="#ebebfc"] ;
1 [label=<Poliester &le; 49.995<br/>gini = 0.399<br/>samples = 3055<br/>value = [0, 191, 30, 3626, 1017]<br/>class = Mixto>, fillcolor="#7b79ed"] ;
0 -> 1 [labeldistance=2.5, labelangle=45, headlabel="True"] ;
2 [label=<Peso &le; 2.945<br/>gini = 0.109<br/>samples = 2428<br/>value = [0, 191, 30, 3626, 0]<br/>class = Mixto>, fillcolor="#4845e7"] ;
1 -> 2 ;
3 [label=<Seda &le; 29.995<br/>gini = 0.19<br/>samples = 1326<br/>value = [0, 189, 30, 1877, 0]<br/>class = Mixto>, fillcolor="#5250e8"] ;
2 -> 3 ;
4 [label=<Algodon &le; 6.22<br/>gini = 0.031<br/>samples = 1210<br/>value = [0.0, 0.0, 30.0, 1877.0, 0.0]<br/>class = Mixto>, fillcolor="#3f3ce5"] ;
3 -> 4 ;
5 [label=<Algodon &le; 6.18<br/>gini = 0.162<br/>samples = 135<br/>value = [0, 0, 19, 194, 0]<br/>class = Mixto>, fillcolor="#4f4ce8"] ;
4 -> 5 ;
6 [label=<Lana &le; 49.915<br/>gini = 0.141<br/>samples = 134<br/>value = [0, 0, 16, 194, 0]<br/>class = Mixto>, fillcolor="#4c49e7"] ;
5 -> 6 ;
7 [label=<gini = 0.0<br/>samples = 124<br/>value = [0, 0, 0, 194, 0]<br/>class = Mixto>, fillcolor="#3c39e5"] ;
6 -> 7 ;
8 [label=<gini = 0.0<br/>samples = 10<br/>value = [0, 0, 16, 0, 0]<br/>class = Lana>, fillcolor="#39e5c5"] ;
6 -> 8 ;
9 [label=<gini = 0.0<br/>samples = 1<br/>value = [0, 0, 3, 0, 0]<br/>class = Lana>, fillcolor="#39e5c5"] ;
5 -> 9 ;
10 [label=<Poliester &le; 0.495<br/>gini = 0.013<br/>samples = 1075<br/>value = [0, 0, 11, 1683, 0]<br/>class = Mixto>, fillcolor="#3d3ae5"] ;
4 -> 10 ;
11 [label=<Peso &le; 1.815<br/>gini = 0.444<br/>samples = 8<br/>value = [0, 0, 4, 8, 0]<br/>class = Mixto>, fillcolor="#9e9cf2"] ;
10 -> 11 ;
12 [label=<gini = 0.0<br/>samples = 2<br/>value = [0, 0, 4, 0, 0]<br/>class = Lana>, fillcolor="#39e5c5"] ;
11 -> 12 ;
13 [label=<gini = 0.0<br/>samples = 6<br/>value = [0, 0, 0, 8, 0]<br/>class = Mixto>, fillcolor="#3c39e5"] ;
11 -> 13 ;
14 [label=<Lana &le; 50.21<br/>gini = 0.008<br/>samples = 1067<br/>value = [0, 0, 7, 1675, 0]<br/>class = Mixto>, fillcolor="#3d3ae5"] ;
10 -> 14 ;
15 [label=<gini = 0.0<br/>samples = 1063<br/>value = [0, 0, 0, 1675, 0]<br/>class = Mixto>, fillcolor="#3c39e5"] ;
14 -> 15 ;
16 [label=<gini = 0.0<br/>samples = 4<br/>value = [0, 0, 7, 0, 0]<br/>class = Lana>, fillcolor="#39e5c5"] ;
14 -> 16 ;
17 [label=<gini = 0.0<br/>samples = 116<br/>value = [0, 189, 0, 0, 0]<br/>class = Delicados>, fillcolor="#7be539"] ;
3 -> 17 ;
18 [label=<Viscosa &le; 13.895<br/>gini = 0.002<br/>samples = 1102<br/>value = [0, 2, 0, 1749, 0]<br/>class = Mixto>, fillcolor="#3c39e5"] ;
2 -> 18 ;
19 [label=<Seda &le; 38.23<br/>gini = 0.001<br/>samples = 1101<br/>value = [0, 1, 0, 1749, 0]<br/>class = Mixto>, fillcolor="#3c39e5"] ;
18 -> 19 ;
20 [label=<gini = 0.0<br/>samples = 1100<br/>value = [0, 0, 0, 1749, 0]<br/>class = Mixto>, fillcolor="#3c39e5"] ;
19 -> 20 ;
21 [label=<gini = 0.0<br/>samples = 1<br/>value = [0, 1, 0, 0, 0]<br/>class = Delicados>, fillcolor="#7be539"] ;
19 -> 21 ;
22 [label=<gini = 0.0<br/>samples = 1<br/>value = [0, 1, 0, 0, 0]<br/>class = Delicados>, fillcolor="#7be539"] ;
18 -> 22 ;
23 [label=<gini = 0.0<br/>samples = 627<br/>value = [0, 0, 0, 0, 1017]<br/>class = Sintéticos>, fillcolor="#e539c0"] ;
1 -> 23 ;
24 [label=<gini = 0.0<br/>samples = 1993<br/>value = [3136, 0, 0, 0, 0]<br/>class = Algodón>, fillcolor="#e58139"] ;
0 -> 24 [labeldistance=2.5, labelangle=-45, headlabel="False"] ;
}