digraph Tree {
node [shape=box, style="filled, rounded", color="black", fontname="helvetica"] ;
edge [fontname="helvetica"] ;
0 [label=<Algodon &le; 70.035<br/>gini = 0.622<br/>samples = 5017<br/>value = [3134, 194, 37, 3653, 982]<br/>class = Mixto>, fillcolor="#eaeafc"] ;
1 [label=<Poliester &le; 49.985<br/>gini = 0.394<br/>samples = 3062<br/>value = [0.0, 194.0, 37.0, 3653.0, 982.0]<br/>class = Mixto>, fillcolor="#7977ed"] ;
0 -> 1 [labeldistance=2.5, labelangle=45, headlabel="True"] ;
2 [label=<Algodon &le; 13.58<br/>gini = 0.113<br/>samples = 2431<br/>value = [0, 194, 37, 3653, 0]<br/>class = Mixto>, fillcolor="#4845e7"] ;
1 -> 2 ;
3 [label=<Lana &le; 49.95<br/>gini = 0.368<br/>samples = 436<br/>value = [0, 128, 30, 534, 0]<br/>class = Mixto>, fillcolor="#7370ec"] ;
2 -> 3 ;
4 [label=<Poliester &le; 21.14<br/>gini = 0.312<br/>samples = 415<br/>value = [0, 128, 0, 534, 0]<br/>class = Mixto>, fillcolor="#6b68eb"] ;
3 -> 4 ;
5 [label=<Lana &le; 27.265<br/>gini = 0.453<br/>samples = 178<br/>value = [0.0, 98.0, 0.0, 184.0, 0.0]<br/>class = Mixto>, fillcolor="#a4a2f3"] ;
4 -> 5 ;
6 [label=<Algodon &le; 10.235<br/>gini = 0.117<br/>samples = 33<br/>value = [0, 45, 0, 3, 0]<br/>class = Delicados>, fillcolor="#84e746"] ;
5 -> 6 ;
7 [label=<gini = 0.0<br/>samples = 20<br/>value = [0, 29, 0, 0, 0]<br/>class = Delicados>, fillcolor="#7be539"] ;
6 -> 7 ;
8 [label=<Viscosa &le; 22.105<br/>gini = 0.266<br/>samples = 13<br/>value = [0, 16, 0, 3, 0]<br/>class = Delicados>, fillcolor="#94ea5e"] ;
6 -> 8 ;
9 [label=<Peso &le; 1.78<br/>gini = 0.198<br/>samples = 12<br/>value = [0, 16, 0, 2, 0]<br/>class = Delicados>, fillcolor="#8ce852"] ;
8 -> 9 ;
10 [label=<Peso &le; 1.465<br/>gini = 0.444<br/>samples = 3<br/>value = [0, 1, 0, 2, 0]<br/>class = Mixto>, fillcolor="#9e9cf2"] ;
9 -> 10 ;
11 [label=<gini = 0.0<br/>samples = 1<br/>value = [0, 1, 0, 0, 0]<br/>class = Delicados>, fillcolor="#7be539"] ;
10 -> 11 ;
12 [label=<gini = 0.0<br/>samples = 2<br/>value = [0, 0, 0, 2, 0]<br/>class = Mixto>, fillcolor="#3c39e5"] ;
10 -> 12 ;
13 [label=<gini = 0.0<br/>samples = 9<br/>value = [0, 15, 0, 0, 0]<br/>class = Delicados>, fillcolor="#7be539"] ;
9 -> 13 ;
14 [label=<gini = 0.0<br/>samples = 1<br/>value = [0, 0, 0, 1, 0]<br/>class = Mixto>, fillcolor="#3c39e5"] ;
8 -> 14 ;
15 [label=<Lana &le; 34.775<br/>gini = 0.35<br/>samples = 145<br/>value = [0, 53, 0, 181, 0]<br/>class = Mixto>, fillcolor="#7573ed"] ;
5 -> 15 ;
16 [label=<Poliester &le; 4.475<br/>gini = 0.473<br/>samples = 34<br/>value = [0, 20, 0, 32, 0]<br/>class = Mixto>, fillcolor="#b6b5f5"] ;
15 -> 16 ;
17 [label=<gini = 0.0<br/>samples = 5<br/>value = [0, 9, 0, 0, 0]<br/>class = Delicados>, fillcolor="#7be539"] ;
16 -> 17 ;
18 [label=<Poliester &le; 9.495<br/>gini = 0.381<br/>samples = 29<br/>value = [0, 11, 0, 32, 0]<br/>class = Mixto>, fillcolor="#7f7dee"] ;
16 -> 18 ;
19 [label=<Seda &le; 29.285<br/>gini = 0.5<br/>samples = 8<br/>value = [0, 5, 0, 5, 0]<br/>class = Delicados>, fillcolor="#ffffff"] ;
18 -> 19 ;
20 [label=<gini = 0.0<br/>samples = 4<br/>value = [0, 0, 0, 5, 0]<br/>class = Mixto>, fillcolor="#3c39e5"] ;
19 -> 20 ;
21 [label=<gini = 0.0<br/>samples = 4<br/>value = [0, 5, 0, 0, 0]<br/>class = Delicados>, fillcolor="#7be539"] ;
19 -> 21 ;
22 [label=<Viscosa &le; 1.49<br/>gini = 0.298<br/>samples = 21<br/>value = [0, 6, 0, 27, 0]<br/>class = Mixto>, fillcolor="#6765eb"] ;
18 -> 22 ;
23 [label=<gini = 0.0<br/>samples = 2<br/>value = [0, 2, 0, 0, 0]<br/>class = Delicados>, fillcolor="#7be539"] ;
22 -> 23 ;
24 [label=<Nylon &le; 6.14<br/>gini = 0.225<br/>samples = 19<br/>value = [0, 4, 0, 27, 0]<br/>class = Mixto>, fillcolor="#5956e9"] ;
22 -> 24 ;
25 [label=<Seda &le; 29.705<br/>gini = 0.49<br/>samples = 6<br/>value = [0, 4, 0, 3, 0]<br/>class = Delicados>, fillcolor="#def8ce"] ;
24 -> 25 ;
26 [label=<gini = 0.0<br/>samples = 3<br/>value = [0, 0, 0, 3, 0]<br/>class = Mixto>, fillcolor="#3c39e5"] ;
25 -> 26 ;
27 [label=<gini = 0.0<br/>samples = 3<br/>value = [0, 4, 0, 0, 0]<br/>class = Delicados>, fillcolor="#7be539"] ;
25 -> 27 ;
28 [label=<gini = 0.0<br/>samples = 13<br/>value = [0, 0, 0, 24, 0]<br/>class = Mixto>, fillcolor="#3c39e5"] ;
24 -> 28 ;
29 [label=<Viscosa &le; 5.9<br/>gini = 0.297<br/>samples = 111<br/>value = [0, 33, 0, 149, 0]<br/>class = Mixto>, fillcolor="#6765eb"] ;
15 -> 29 ;
30 [label=<Seda &le; 29.96<br/>gini = 0.415<br/>samples = 50<br/>value = [0.0, 25.0, 0.0, 60.0, 0.0]<br/>class = Mixto>, fillcolor="#8d8bf0"] ;
29 -> 30 ;
31 [label=<gini = 0.0<br/>samples = 34<br/>value = [0, 0, 0, 60, 0]<br/>class = Mixto>, fillcolor="#3c39e5"] ;
30 -> 31 ;
32 [label=<gini = 0.0<br/>samples = 16<br/>value = [0, 25, 0, 0, 0]<br/>class = Delicados>, fillcolor="#7be539"] ;
30 -> 32 ;
33 [label=<Nylon &le; 0.43<br/>gini = 0.151<br/>samples = 61<br/>value = [0, 8, 0, 89, 0]<br/>class = Mixto>, fillcolor="#4e4be7"] ;
29 -> 33 ;
34 [label=<gini = 0.0<br/>samples = 1<br/>value = [0, 1, 0, 0, 0]<br/>class = Delicados>, fillcolor="#7be539"] ;
33 -> 34 ;
35 [label=<Nylon &le; 4.83<br/>gini = 0.135<br/>samples = 60<br/>value = [0, 7, 0, 89, 0]<br/>class = Mixto>, fillcolor="#4b49e7"] ;
33 -> 35 ;
36 [label=<Seda &le; 30.46<br/>gini = 0.266<br/>samples = 23<br/>value = [0, 6, 0, 32, 0]<br/>class = Mixto>, fillcolor="#615eea"] ;
35 -> 36 ;
37 [label=<gini = 0.0<br/>samples = 20<br/>value = [0, 0, 0, 32, 0]<br/>class = Mixto>, fillcolor="#3c39e5"] ;
36 -> 37 ;
38 [label=<gini = 0.0<br/>samples = 3<br/>value = [0, 6, 0, 0, 0]<br/>class = Delicados>, fillcolor="#7be539"] ;
36 -> 38 ;
39 [label=<Lana &le; 38.72<br/>gini = 0.034<br/>samples = 37<br/>value = [0, 1, 0, 57, 0]<br/>class = Mixto>, fillcolor="#3f3ce5"] ;
35 -> 39 ;
40 [label=<Elastano &le; 1.77<br/>gini = 0.124<br/>samples = 12<br/>value = [0, 1, 0, 14, 0]<br/>class = Mixto>, fillcolor="#4a47e7"] ;
39 -> 40 ;
41 [label=<Algodon &le; 7.33<br/>gini = 0.5<br/>samples = 2<br/>value = [0, 1, 0, 1, 0]<br/>class = Delicados>, fillcolor="#ffffff"] ;
40 -> 41 ;
42 [label=<gini = 0.0<br/>samples = 1<br/>value = [0, 1, 0, 0, 0]<br/>class = Delicados>, fillcolor="#7be539"] ;
41 -> 42 ;
43 [label=<gini = 0.0<br/>samples = 1<br/>value = [0, 0, 0, 1, 0]<br/>class = Mixto>, fillcolor="#3c39e5"] ;
41 -> 43 ;
44 [label=<gini = 0.0<br/>samples = 10<br/>value = [0, 0, 0, 13, 0]<br/>class = Mixto>, fillcolor="#3c39e5"] ;
40 -> 44 ;
45 [label=<gini = 0.0<br/>samples = 25<br/>value = [0, 0, 0, 43, 0]<br/>class = Mixto>, fillcolor="#3c39e5"] ;
39 -> 45 ;
46 [label=<Elastano &le; 5.655<br/>gini = 0.145<br/>samples = 237<br/>value = [0, 30, 0, 350, 0]<br/>class = Mixto>, fillcolor="#4d4ae7"] ;
4 -> 46 ;
47 [label=<Lana &le; 21.98<br/>gini = 0.216<br/>samples = 155<br/>value = [0, 30, 0, 213, 0]<br/>class = Mixto>, fillcolor="#5755e9"] ;
46 -> 47 ;
48 [label=<Poliester &le; 33.03<br/>gini = 0.47<br/>samples = 33<br/>value = [0, 20, 0, 33, 0]<br/>class = Mixto>, fillcolor="#b2b1f5"] ;
47 -> 48 ;
49 [label=<Lana &le; 17.065<br/>gini = 0.499<br/>samples = 22<br/>value = [0, 20, 0, 18, 0]<br/>class = Delicados>, fillcolor="#f2fceb"] ;
48 -> 49 ;
50 [label=<Nylon &le; 11.06<br/>gini = 0.165<br/>samples = 8<br/>value = [0, 10, 0, 1, 0]<br/>class = Delicados>, fillcolor="#88e84d"] ;
49 -> 50 ;
51 [label=<gini = 0.0<br/>samples = 6<br/>value = [0, 8, 0, 0, 0]<br/>class = Delicados>, fillcolor="#7be539"] ;
50 -> 51 ;
52 [label=<Algodon &le; 7.375<br/>gini = 0.444<br/>samples = 2<br/>value = [0, 2, 0, 1, 0]<br/>class = Delicados>, fillcolor="#bdf29c"] ;
50 -> 52 ;
53 [label=<gini = 0.0<br/>samples = 1<br/>value = [0, 2, 0, 0, 0]<br/>class = Delicados>, fillcolor="#7be539"] ;
52 -> 53 ;
54 [label=<gini = 0.0<br/>samples = 1<br/>value = [0, 0, 0, 1, 0]<br/>class = Mixto>, fillcolor="#3c39e5"] ;
52 -> 54 ;
55 [label=<Seda &le; 31.015<br/>gini = 0.466<br/>samples = 14<br/>value = [0, 10, 0, 17, 0]<br/>class = Mixto>, fillcolor="#afadf4"] ;
49 -> 55 ;
56 [label=<gini = 0.0<br/>samples = 9<br/>value = [0, 0, 0, 17, 0]<br/>class = Mixto>, fillcolor="#3c39e5"] ;
55 -> 56 ;
57 [label=<gini = 0.0<br/>samples = 5<br/>value = [0, 10, 0, 0, 0]<br/>class = Delicados>, fillcolor="#7be539"] ;
55 -> 57 ;
58 [label=<gini = 0.0<br/>samples = 11<br/>value = [0, 0, 0, 15, 0]<br/>class = Mixto>, fillcolor="#3c39e5"] ;
48 -> 58 ;
59 [label=<Seda &le; 29.915<br/>gini = 0.1<br/>samples = 122<br/>value = [0, 10, 0, 180, 0]<br/>class = Mixto>, fillcolor="#4744e6"] ;
47 -> 59 ;
60 [label=<gini = 0.0<br/>samples = 115<br/>value = [0, 0, 0, 180, 0]<br/>class = Mixto>, fillcolor="#3c39e5"] ;
59 -> 60 ;
61 [label=<gini = 0.0<br/>samples = 7<br/>value = [0, 10, 0, 0, 0]<br/>class = Delicados>, fillcolor="#7be539"] ;
59 -> 61 ;
62 [label=<gini = 0.0<br/>samples = 82<br/>value = [0, 0, 0, 137, 0]<br/>class = Mixto>, fillcolor="#3c39e5"] ;
46 -> 62 ;
63 [label=<gini = 0.0<br/>samples = 21<br/>value = [0, 0, 30, 0, 0]<br/>class = Lana>, fillcolor="#39e5c5"] ;
3 -> 63 ;
64 [label=<Peso &le; 2.13<br/>gini = 0.045<br/>samples = 1995<br/>value = [0, 66, 7, 3119, 0]<br/>class = Mixto>, fillcolor="#413ee6"] ;
2 -> 64 ;
65 [label=<Nylon &le; 4.305<br/>gini = 0.145<br/>samples = 396<br/>value = [0, 46, 5, 602, 0]<br/>class = Mixto>, fillcolor="#4c4ae7"] ;
64 -> 65 ;
66 [label=<Poliester &le; 2.625<br/>gini = 0.234<br/>samples = 130<br/>value = [0, 26, 4, 196, 0]<br/>class = Mixto>, fillcolor="#5957e9"] ;
65 -> 66 ;
67 [label=<Elastano &le; 4.435<br/>gini = 0.486<br/>samples = 5<br/>value = [0, 8, 1, 3, 0]<br/>class = Delicados>, fillcolor="#b6f191"] ;
66 -> 67 ;
68 [label=<Nylon &le; 3.68<br/>gini = 0.375<br/>samples = 3<br/>value = [0, 0, 1, 3, 0]<br/>class = Mixto>, fillcolor="#7d7bee"] ;
67 -> 68 ;
69 [label=<gini = 0.0<br/>samples = 2<br/>value = [0, 0, 0, 3, 0]<br/>class = Mixto>, fillcolor="#3c39e5"] ;
68 -> 69 ;
70 [label=<gini = 0.0<br/>samples = 1<br/>value = [0, 0, 1, 0, 0]<br/>class = Lana>, fillcolor="#39e5c5"] ;
68 -> 70 ;
71 [label=<gini = 0.0<br/>samples = 2<br/>value = [0, 8, 0, 0, 0]<br/>class = Delicados>, fillcolor="#7be539"] ;
67 -> 71 ;
72 [label=<Viscosa &le; 0.285<br/>gini = 0.179<br/>samples = 125<br/>value = [0, 18, 3, 193, 0]<br/>class = Mixto>, fillcolor="#514ee8"] ;
66 -> 72 ;
73 [label=<Nylon &le; 1.67<br/>gini = 0.444<br/>samples = 3<br/>value = [0, 6, 0, 3, 0]<br/>class = Delicados>, fillcolor="#bdf29c"] ;
72 -> 73 ;
74 [label=<gini = 0.0<br/>samples = 2<br/>value = [0, 0, 0, 3, 0]<br/>class = Mixto>, fillcolor="#3c39e5"] ;
73 -> 74 ;
75 [label=<gini = 0.0<br/>samples = 1<br/>value = [0, 6, 0, 0, 0]<br/>class = Delicados>, fillcolor="#7be539"] ;
73 -> 75 ;
76 [label=<Seda &le; 29.92<br/>gini = 0.137<br/>samples = 122<br/>value = [0, 12, 3, 190, 0]<br/>class = Mixto>, fillcolor="#4b48e7"] ;
72 -> 76 ;
77 [label=<Lana &le; 50.285<br/>gini = 0.031<br/>samples = 113<br/>value = [0, 0, 3, 190, 0]<br/>class = Mixto>, fillcolor="#3f3ce5"] ;
76 -> 77 ;
78 [label=<gini = 0.0<br/>samples = 112<br/>value = [0, 0, 0, 190, 0]<br/>class = Mixto>, fillcolor="#3c39e5"] ;
77 -> 78 ;
79 [label=<gini = 0.0<br/>samples = 1<br/>value = [0, 0, 3, 0, 0]<br/>class = Lana>, fillcolor="#39e5c5"] ;
77 -> 79 ;
80 [label=<gini = 0.0<br/>samples = 9<br/>value = [0, 12, 0, 0, 0]<br/>class = Delicados>, fillcolor="#7be539"] ;
76 -> 80 ;
81 [label=<Peso &le; 2.115<br/>gini = 0.094<br/>samples = 266<br/>value = [0, 20, 1, 406, 0]<br/>class = Mixto>, fillcolor="#4643e6"] ;
65 -> 81 ;
82 [label=<Peso &le; 1.52<br/>gini = 0.083<br/>samples = 260<br/>value = [0, 17, 1, 400, 0]<br/>class = Mixto>, fillcolor="#4542e6"] ;
81 -> 82 ;
83 [label=<Nylon &le; 14.085<br/>gini = 0.121<br/>samples = 114<br/>value = [0, 10, 1, 160, 0]<br/>class = Mixto>, fillcolor="#4947e7"] ;
82 -> 83 ;
84 [label=<Lana &le; 22.67<br/>gini = 0.111<br/>samples = 113<br/>value = [0, 10, 0, 160, 0]<br/>class = Mixto>, fillcolor="#4845e7"] ;
83 -> 84 ;
85 [label=<Algodon &le; 21.15<br/>gini = 0.241<br/>samples = 36<br/>value = [0, 8, 0, 49, 0]<br/>class = Mixto>, fillcolor="#5c59e9"] ;
84 -> 85 ;
86 [label=<Algodon &le; 20.105<br/>gini = 0.408<br/>samples = 10<br/>value = [0, 4, 0, 10, 0]<br/>class = Mixto>, fillcolor="#8a88ef"] ;
85 -> 86 ;
87 [label=<Seda &le; 30.835<br/>gini = 0.165<br/>samples = 8<br/>value = [0, 1, 0, 10, 0]<br/>class = Mixto>, fillcolor="#504de8"] ;
86 -> 87 ;
88 [label=<gini = 0.0<br/>samples = 7<br/>value = [0, 0, 0, 10, 0]<br/>class = Mixto>, fillcolor="#3c39e5"] ;
87 -> 88 ;
89 [label=<gini = 0.0<br/>samples = 1<br/>value = [0, 1, 0, 0, 0]<br/>class = Delicados>, fillcolor="#7be539"] ;
87 -> 89 ;
90 [label=<gini = 0.0<br/>samples = 2<br/>value = [0, 3, 0, 0, 0]<br/>class = Delicados>, fillcolor="#7be539"] ;
86 -> 90 ;
91 [label=<Poliester &le; 4.095<br/>gini = 0.169<br/>samples = 26<br/>value = [0, 4, 0, 39, 0]<br/>class = Mixto>, fillcolor="#504de8"] ;
85 -> 91 ;
92 [label=<gini = 0.0<br/>samples = 2<br/>value = [0, 4, 0, 0, 0]<br/>class = Delicados>, fillcolor="#7be539"] ;
91 -> 92 ;
93 [label=<gini = 0.0<br/>samples = 24<br/>value = [0, 0, 0, 39, 0]<br/>class = Mixto>, fillcolor="#3c39e5"] ;
91 -> 93 ;
94 [label=<Poliester &le; 0.335<br/>gini = 0.035<br/>samples = 77<br/>value = [0, 2, 0, 111, 0]<br/>class = Mixto>, fillcolor="#403de5"] ;
84 -> 94 ;
95 [label=<gini = 0.0<br/>samples = 1<br/>value = [0, 1, 0, 0, 0]<br/>class = Delicados>, fillcolor="#7be539"] ;
94 -> 95 ;
96 [label=<Peso &le; 1.315<br/>gini = 0.018<br/>samples = 76<br/>value = [0, 1, 0, 111, 0]<br/>class = Mixto>, fillcolor="#3e3be5"] ;
94 -> 96 ;
97 [label=<gini = 0.0<br/>samples = 50<br/>value = [0, 0, 0, 73, 0]<br/>class = Mixto>, fillcolor="#3c39e5"] ;
96 -> 97 ;
98 [label=<Poliester &le; 2.39<br/>gini = 0.05<br/>samples = 26<br/>value = [0, 1, 0, 38, 0]<br/>class = Mixto>, fillcolor="#413ee6"] ;
96 -> 98 ;
99 [label=<gini = 0.0<br/>samples = 1<br/>value = [0, 1, 0, 0, 0]<br/>class = Delicados>, fillcolor="#7be539"] ;
98 -> 99 ;
100 [label=<gini = 0.0<br/>samples = 25<br/>value = [0, 0, 0, 38, 0]<br/>class = Mixto>, fillcolor="#3c39e5"] ;
98 -> 100 ;
101 [label=<gini = 0.0<br/>samples = 1<br/>value = [0, 0, 1, 0, 0]<br/>class = Lana>, fillcolor="#39e5c5"] ;
83 -> 101 ;
102 [label=<Elastano &le; 0.695<br/>gini = 0.055<br/>samples = 146<br/>value = [0, 7, 0, 240, 0]<br/>class = Mixto>, fillcolor="#423fe6"] ;
82 -> 102 ;
103 [label=<Elastano &le; 0.625<br/>gini = 0.153<br/>samples = 14<br/>value = [0, 2, 0, 22, 0]<br/>class = Mixto>, fillcolor="#4e4be7"] ;
102 -> 103 ;
104 [label=<gini = 0.0<br/>samples = 12<br/>value = [0, 0, 0, 21, 0]<br/>class = Mixto>, fillcolor="#3c39e5"] ;
103 -> 104 ;
105 [label=<Nylon &le; 7.66<br/>gini = 0.444<br/>samples = 2<br/>value = [0, 2, 0, 1, 0]<br/>class = Delicados>, fillcolor="#bdf29c"] ;
103 -> 105 ;
106 [label=<gini = 0.0<br/>samples = 1<br/>value = [0, 2, 0, 0, 0]<br/>class = Delicados>, fillcolor="#7be539"] ;
105 -> 106 ;
107 [label=<gini = 0.0<br/>samples = 1<br/>value = [0, 0, 0, 1, 0]<br/>class = Mixto>, fillcolor="#3c39e5"] ;
105 -> 107 ;
108 [label=<Seda &le; 30.25<br/>gini = 0.044<br/>samples = 132<br/>value = [0, 5, 0, 218, 0]<br/>class = Mixto>, fillcolor="#403ee6"] ;
102 -> 108 ;
109 [label=<gini = 0.0<br/>samples = 127<br/>value = [0, 0, 0, 218, 0]<br/>class = Mixto>, fillcolor="#3c39e5"] ;
108 -> 109 ;
110 [label=<gini = 0.0<br/>samples = 5<br/>value = [0, 5, 0, 0, 0]<br/>class = Delicados>, fillcolor="#7be539"] ;
108 -> 110 ;
111 [label=<Poliester &le; 19.46<br/>gini = 0.444<br/>samples = 6<br/>value = [0, 3, 0, 6, 0]<br/>class = Mixto>, fillcolor="#9e9cf2"] ;
81 -> 111 ;
112 [label=<Viscosa &le; 4.0<br/>gini = 0.48<br/>samples = 3<br/>value = [0, 3, 0, 2, 0]<br/>class = Delicados>, fillcolor="#d3f6bd"] ;
111 -> 112 ;
113 [label=<gini = 0.0<br/>samples = 1<br/>value = [0, 3, 0, 0, 0]<br/>class = Delicados>, fillcolor="#7be539"] ;
112 -> 113 ;
114 [label=<gini = 0.0<br/>samples = 2<br/>value = [0, 0, 0, 2, 0]<br/>class = Mixto>, fillcolor="#3c39e5"] ;
112 -> 114 ;
115 [label=<gini = 0.0<br/>samples = 3<br/>value = [0, 0, 0, 4, 0]<br/>class = Mixto>, fillcolor="#3c39e5"] ;
111 -> 115 ;
116 [label=<Lana &le; 50.165<br/>gini = 0.017<br/>samples = 1599<br/>value = [0, 20, 2, 2517, 0]<br/>class = Mixto>, fillcolor="#3e3be5"] ;
64 -> 116 ;
117 [label=<Poliester &le; 17.62<br/>gini = 0.016<br/>samples = 1597<br/>value = [0, 20, 0, 2517, 0]<br/>class = Mixto>, fillcolor="#3e3be5"] ;
116 -> 117 ;
118 [label=<Algodon &le; 18.68<br/>gini = 0.141<br/>samples = 151<br/>value = [0, 19, 0, 230, 0]<br/>class = Mixto>, fillcolor="#4c49e7"] ;
117 -> 118 ;
119 [label=<Seda &le; 29.81<br/>gini = 0.398<br/>samples = 36<br/>value = [0.0, 14.0, 0.0, 37.0, 0.0]<br/>class = Mixto>, fillcolor="#8684ef"] ;
118 -> 119 ;
120 [label=<gini = 0.0<br/>samples = 26<br/>value = [0, 0, 0, 37, 0]<br/>class = Mixto>, fillcolor="#3c39e5"] ;
119 -> 120 ;
121 [label=<gini = 0.0<br/>samples = 10<br/>value = [0, 14, 0, 0, 0]<br/>class = Delicados>, fillcolor="#7be539"] ;
119 -> 121 ;
122 [label=<Elastano &le; 0.625<br/>gini = 0.049<br/>samples = 115<br/>value = [0, 5, 0, 193, 0]<br/>class = Mixto>, fillcolor="#413ee6"] ;
118 -> 122 ;
123 [label=<Lana &le; 29.255<br/>gini = 0.278<br/>samples = 10<br/>value = [0, 2, 0, 10, 0]<br/>class = Mixto>, fillcolor="#6361ea"] ;
122 -> 123 ;
124 [label=<Seda &le; 29.32<br/>gini = 0.444<br/>samples = 3<br/>value = [0, 2, 0, 1, 0]<br/>class = Delicados>, fillcolor="#bdf29c"] ;
123 -> 124 ;
125 [label=<gini = 0.0<br/>samples = 1<br/>value = [0, 0, 0, 1, 0]<br/>class = Mixto>, fillcolor="#3c39e5"] ;
124 -> 125 ;
126 [label=<gini = 0.0<br/>samples = 2<br/>value = [0, 2, 0, 0, 0]<br/>class = Delicados>, fillcolor="#7be539"] ;
124 -> 126 ;
127 [label=<gini = 0.0<br/>samples = 7<br/>value = [0, 0, 0, 9, 0]<br/>class = Mixto>, fillcolor="#3c39e5"] ;
123 -> 127 ;
128 [label=<Seda &le; 31.685<br/>gini = 0.032<br/>samples = 105<br/>value = [0, 3, 0, 183, 0]<br/>class = Mixto>, fillcolor="#3f3ce5"] ;
122 -> 128 ;
129 [label=<gini = 0.0<br/>samples = 103<br/>value = [0, 0, 0, 183, 0]<br/>class = Mixto>, fillcolor="#3c39e5"] ;
128 -> 129 ;
130 [label=<gini = 0.0<br/>samples = 2<br/>value = [0, 3, 0, 0, 0]<br/>class = Delicados>, fillcolor="#7be539"] ;
128 -> 130 ;
131 [label=<Seda &le; 30.665<br/>gini = 0.001<br/>samples = 1446<br/>value = [0, 1, 0, 2287, 0]<br/>class = Mixto>, fillcolor="#3c39e5"] ;
117 -> 131 ;
132 [label=<gini = 0.0<br/>samples = 1445<br/>value = [0, 0, 0, 2287, 0]<br/>class = Mixto>, fillcolor="#3c39e5"] ;
131 -> 132 ;
133 [label=<gini = 0.0<br/>samples = 1<br/>value = [0, 1, 0, 0, 0]<br/>class = Delicados>, fillcolor="#7be539"] ;
131 -> 133 ;
134 [label=<gini = 0.0<br/>samples = 2<br/>value = [0, 0, 2, 0, 0]<br/>class = Lana>, fillcolor="#39e5c5"] ;
116 -> 134 ;
135 [label=<gini = 0.0<br/>samples = 631<br/>value = [0, 0, 0, 0, 982]<br/>class = Sintéticos>, fillcolor="#e539c0"] ;
1 -> 135 ;
136 [label=<gini = 0.0<br/>samples = 1955<br/>value = [3134, 0, 0, 0, 0]<br/>class = Algodón>, fillcolor="#e58139"] ;
0 -> 136 [labeldistance=2.5, labelangle=-45, headlabel="False"] ;
}