digraph Tree {
node [shape=box, style="filled, rounded", color="black", fontname="helvetica"] ;
edge [fontname="helvetica"] ;
0 [label=<Lana &le; 0.005<br/>gini = 0.625<br/>samples = 5031<br/>value = [3079, 189, 25, 3661, 1046]<br/>class = Mixto>, fillcolor="#e8e8fc"] ;
1 [label=<Algodon &le; 70.035<br/>gini = 0.519<br/>samples = 3024<br/>value = [3079, 0, 0, 679, 1022]<br/>class = Algodón>, fillcolor="#f1ba93"] ;
0 -> 1 [labeldistance=2.5, labelangle=45, headlabel="True"] ;
2 [label=<Poliester &le; 49.995<br/>gini = 0.48<br/>samples = 1070<br/>value = [0.0, 0.0, 0.0, 679.0, 1022.0]<br/>class = Sintéticos>, fillcolor="#f6bdea"] ;
1 -> 2 ;
3 [label=<gini = 0.0<br/>samples = 430<br/>value = [0, 0, 0, 679, 0]<br/>class = Mixto>, fillcolor="#3c39e5"] ;
2 -> 3 ;
4 [label=<gini = 0.0<br/>samples = 640<br/>value = [0, 0, 0, 0, 1022]<br/>class = Sintéticos>, fillcolor="#e539c0"] ;
2 -> 4 ;
5 [label=<gini = 0.0<br/>samples = 1954<br/>value = [3079, 0, 0, 0, 0]<br/>class = Algodón>, fillcolor="#e58139"] ;
1 -> 5 ;
6 [label=<Lana &le; 50.13<br/>gini = 0.139<br/>samples = 2007<br/>value = [0, 189, 25, 2982, 24]<br/>class = Mixto>, fillcolor="#4b49e7"] ;
0 -> 6 [labeldistance=2.5, labelangle=-45, headlabel="False"] ;
7 [label=<Algodon &le; 12.03<br/>gini = 0.125<br/>samples = 1989<br/>value = [0, 189, 0, 2982, 24]<br/>class = Mixto>, fillcolor="#4a47e7"] ;
6 -> 7 ;
8 [label=<Seda &le; 29.99<br/>gini = 0.383<br/>samples = 316<br/>value = [0, 132, 0, 379, 0]<br/>class = Mixto>, fillcolor="#807eee"] ;
7 -> 8 ;
9 [label=<gini = 0.0<br/>samples = 236<br/>value = [0, 0, 0, 379, 0]<br/>class = Mixto>, fillcolor="#3c39e5"] ;
8 -> 9 ;
10 [label=<gini = 0.0<br/>samples = 80<br/>value = [0, 132, 0, 0, 0]<br/>class = Delicados>, fillcolor="#7be539"] ;
8 -> 10 ;
11 [label=<Seda &le; 29.995<br/>gini = 0.059<br/>samples = 1673<br/>value = [0.0, 57.0, 0.0, 2603.0, 24.0]<br/>class = Mixto>, fillcolor="#423fe6"] ;
7 -> 11 ;
12 [label=<Peso &le; 3.525<br/>gini = 0.018<br/>samples = 1630<br/>value = [0, 0, 0, 2603, 24]<br/>class = Mixto>, fillcolor="#3e3be5"] ;
11 -> 12 ;
13 [label=<Poliester &le; 50.555<br/>gini = 0.005<br/>samples = 988<br/>value = [0, 0, 0, 1586, 4]<br/>class = Mixto>, fillcolor="#3c39e5"] ;
12 -> 13 ;
14 [label=<gini = 0.0<br/>samples = 985<br/>value = [0, 0, 0, 1586, 0]<br/>class = Mixto>, fillcolor="#3c39e5"] ;
13 -> 14 ;
15 [label=<gini = 0.0<br/>samples = 3<br/>value = [0, 0, 0, 0, 4]<br/>class = Sintéticos>, fillcolor="#e539c0"] ;
13 -> 15 ;
16 [label=<Algodon &le; 35.955<br/>gini = 0.038<br/>samples = 642<br/>value = [0, 0, 0, 1017, 20]<br/>class = Mixto>, fillcolor="#403de6"] ;
12 -> 16 ;
17 [label=<Nylon &le; 2.125<br/>gini = 0.427<br/>samples = 27<br/>value = [0, 0, 0, 29, 13]<br/>class = Mixto>, fillcolor="#9392f1"] ;
16 -> 17 ;
18 [label=<Viscosa &le; 6.32<br/>gini = 0.32<br/>samples = 7<br/>value = [0, 0, 0, 2, 8]<br/>class = Sintéticos>, fillcolor="#ec6ad0"] ;
17 -> 18 ;
19 [label=<gini = 0.0<br/>samples = 6<br/>value = [0, 0, 0, 0, 8]<br/>class = Sintéticos>, fillcolor="#e539c0"] ;
18 -> 19 ;
20 [label=<gini = 0.0<br/>samples = 1<br/>value = [0, 0, 0, 2, 0]<br/>class = Mixto>, fillcolor="#3c39e5"] ;
18 -> 20 ;
21 [label=<Elastano &le; 0.425<br/>gini = 0.264<br/>samples = 20<br/>value = [0, 0, 0, 27, 5]<br/>class = Mixto>, fillcolor="#605eea"] ;
17 -> 21 ;
22 [label=<gini = 0.0<br/>samples = 1<br/>value = [0, 0, 0, 0, 1]<br/>class = Sintéticos>, fillcolor="#e539c0"] ;
21 -> 22 ;
23 [label=<Fibra &le; 0.95<br/>gini = 0.225<br/>samples = 19<br/>value = [0, 0, 0, 27, 4]<br/>class = Mixto>, fillcolor="#5956e9"] ;
21 -> 23 ;
24 [label=<Fibra &le; 0.47<br/>gini = 0.444<br/>samples = 4<br/>value = [0, 0, 0, 2, 4]<br/>class = Sintéticos>, fillcolor="#f29ce0"] ;
23 -> 24 ;
25 [label=<Algodon &le; 34.4<br/>gini = 0.444<br/>samples = 2<br/>value = [0, 0, 0, 2, 1]<br/>class = Mixto>, fillcolor="#9e9cf2"] ;
24 -> 25 ;
26 [label=<gini = 0.0<br/>samples = 1<br/>value = [0, 0, 0, 2, 0]<br/>class = Mixto>, fillcolor="#3c39e5"] ;
25 -> 26 ;
27 [label=<gini = 0.0<br/>samples = 1<br/>value = [0, 0, 0, 0, 1]<br/>class = Sintéticos>, fillcolor="#e539c0"] ;
25 -> 27 ;
28 [label=<gini = 0.0<br/>samples = 2<br/>value = [0, 0, 0, 0, 3]<br/>class = Sintéticos>, fillcolor="#e539c0"] ;
24 -> 28 ;
29 [label=<gini = 0.0<br/>samples = 15<br/>value = [0, 0, 0, 25, 0]<br/>class = Mixto>, fillcolor="#3c39e5"] ;
23 -> 29 ;
30 [label=<Lana &le; 0.22<br/>gini = 0.014<br/>samples = 615<br/>value = [0, 0, 0, 988, 7]<br/>class = Mixto>, fillcolor="#3d3ae5"] ;
16 -> 30 ;
31 [label=<Poliester &le; 52.1<br/>gini = 0.095<br/>samples = 27<br/>value = [0, 0, 0, 38, 2]<br/>class = Mixto>, fillcolor="#4643e6"] ;
30 -> 31 ;
32 [label=<gini = 0.0<br/>samples = 25<br/>value = [0, 0, 0, 38, 0]<br/>class = Mixto>, fillcolor="#3c39e5"] ;
31 -> 32 ;
33 [label=<gini = 0.0<br/>samples = 2<br/>value = [0, 0, 0, 0, 2]<br/>class = Sintéticos>, fillcolor="#e539c0"] ;
31 -> 33 ;
34 [label=<Algodon &le; 37.925<br/>gini = 0.01<br/>samples = 588<br/>value = [0, 0, 0, 950, 5]<br/>class = Mixto>, fillcolor="#3d3ae5"] ;
30 -> 34 ;
35 [label=<Elastano &le; 4.75<br/>gini = 0.142<br/>samples = 26<br/>value = [0, 0, 0, 36, 3]<br/>class = Mixto>, fillcolor="#4c49e7"] ;
34 -> 35 ;
36 [label=<Peso &le; 3.795<br/>gini = 0.1<br/>samples = 25<br/>value = [0, 0, 0, 36, 2]<br/>class = Mixto>, fillcolor="#4744e6"] ;
35 -> 36 ;
37 [label=<gini = 0.0<br/>samples = 1<br/>value = [0, 0, 0, 0, 1]<br/>class = Sintéticos>, fillcolor="#e539c0"] ;
36 -> 37 ;
38 [label=<Peso &le; 4.055<br/>gini = 0.053<br/>samples = 24<br/>value = [0, 0, 0, 36, 1]<br/>class = Mixto>, fillcolor="#413ee6"] ;
36 -> 38 ;
39 [label=<Peso &le; 4.005<br/>gini = 0.444<br/>samples = 2<br/>value = [0, 0, 0, 2, 1]<br/>class = Mixto>, fillcolor="#9e9cf2"] ;
38 -> 39 ;
40 [label=<gini = 0.0<br/>samples = 1<br/>value = [0, 0, 0, 2, 0]<br/>class = Mixto>, fillcolor="#3c39e5"] ;
39 -> 40 ;
41 [label=<gini = 0.0<br/>samples = 1<br/>value = [0, 0, 0, 0, 1]<br/>class = Sintéticos>, fillcolor="#e539c0"] ;
39 -> 41 ;
42 [label=<gini = 0.0<br/>samples = 22<br/>value = [0, 0, 0, 34, 0]<br/>class = Mixto>, fillcolor="#3c39e5"] ;
38 -> 42 ;
43 [label=<gini = 0.0<br/>samples = 1<br/>value = [0, 0, 0, 0, 1]<br/>class = Sintéticos>, fillcolor="#e539c0"] ;
35 -> 43 ;
44 [label=<Peso &le; 3.535<br/>gini = 0.004<br/>samples = 562<br/>value = [0, 0, 0, 914, 2]<br/>class = Mixto>, fillcolor="#3c39e5"] ;
34 -> 44 ;
45 [label=<Poliester &le; 47.02<br/>gini = 0.245<br/>samples = 5<br/>value = [0, 0, 0, 6, 1]<br/>class = Mixto>, fillcolor="#5d5ae9"] ;
44 -> 45 ;
46 [label=<gini = 0.0<br/>samples = 4<br/>value = [0, 0, 0, 6, 0]<br/>class = Mixto>, fillcolor="#3c39e5"] ;
45 -> 46 ;
47 [label=<gini = 0.0<br/>samples = 1<br/>value = [0, 0, 0, 0, 1]<br/>class = Sintéticos>, fillcolor="#e539c0"] ;
45 -> 47 ;
48 [label=<Peso &le; 3.615<br/>gini = 0.002<br/>samples = 557<br/>value = [0, 0, 0, 908, 1]<br/>class = Mixto>, fillcolor="#3c39e5"] ;
44 -> 48 ;
49 [label=<Poliester &le; 47.59<br/>gini = 0.054<br/>samples = 22<br/>value = [0, 0, 0, 35, 1]<br/>class = Mixto>, fillcolor="#423fe6"] ;
48 -> 49 ;
50 [label=<gini = 0.0<br/>samples = 21<br/>value = [0, 0, 0, 35, 0]<br/>class = Mixto>, fillcolor="#3c39e5"] ;
49 -> 50 ;
51 [label=<gini = 0.0<br/>samples = 1<br/>value = [0, 0, 0, 0, 1]<br/>class = Sintéticos>, fillcolor="#e539c0"] ;
49 -> 51 ;
52 [label=<gini = 0.0<br/>samples = 535<br/>value = [0, 0, 0, 873, 0]<br/>class = Mixto>, fillcolor="#3c39e5"] ;
48 -> 52 ;
53 [label=<gini = 0.0<br/>samples = 43<br/>value = [0, 57, 0, 0, 0]<br/>class = Delicados>, fillcolor="#7be539"] ;
11 -> 53 ;
54 [label=<gini = 0.0<br/>samples = 18<br/>value = [0, 0, 25, 0, 0]<br/>class = Lana>, fillcolor="#39e5c5"] ;
6 -> 54 ;
}