digraph Tree {
node [shape=box, style="filled, rounded", color="black", fontname="helvetica"] ;
edge [fontname="helvetica"] ;
0 [label=<Algodon &le; 70.035<br/>gini = 0.625<br/>samples = 5076<br/>value = [3173, 196, 29, 3592, 1010]<br/>class = Mixto>, fillcolor="#eeeefd"] ;
1 [label=<Algodon &le; 21.965<br/>gini = 0.401<br/>samples = 3071<br/>value = [0, 196, 29, 3592, 1010]<br/>class = Mixto>, fillcolor="#7b79ed"] ;
0 -> 1 [labeldistance=2.5, labelangle=45, headlabel="True"] ;
2 [label=<Fibra &le; 0.005<br/>gini = 0.573<br/>samples = 1413<br/>value = [0.0, 174.0, 29.0, 1156.0, 906.0]<br/>class = Mixto>, fillcolor="#dbdbfa"] ;
1 -> 2 ;
3 [label=<Lana &le; 50.175<br/>gini = 0.323<br/>samples = 654<br/>value = [0, 174, 29, 839, 0]<br/>class = Mixto>, fillcolor="#6a67eb"] ;
2 -> 3 ;
4 [label=<Seda &le; 29.99<br/>gini = 0.285<br/>samples = 636<br/>value = [0, 174, 0, 839, 0]<br/>class = Mixto>, fillcolor="#6462ea"] ;
3 -> 4 ;
5 [label=<gini = 0.0<br/>samples = 526<br/>value = [0, 0, 0, 839, 0]<br/>class = Mixto>, fillcolor="#3c39e5"] ;
4 -> 5 ;
6 [label=<gini = 0.0<br/>samples = 110<br/>value = [0, 174, 0, 0, 0]<br/>class = Delicados>, fillcolor="#7be539"] ;
4 -> 6 ;
7 [label=<gini = 0.0<br/>samples = 18<br/>value = [0, 0, 29, 0, 0]<br/>class = Lana>, fillcolor="#39e5c5"] ;
3 -> 7 ;
8 [label=<Poliester &le; 49.975<br/>gini = 0.384<br/>samples = 759<br/>value = [0.0, 0.0, 0.0, 317.0, 906.0]<br/>class = Sintéticos>, fillcolor="#ee7ed6"] ;
2 -> 8 ;
9 [label=<gini = 0.0<br/>samples = 197<br/>value = [0, 0, 0, 317, 0]<br/>class = Mixto>, fillcolor="#3c39e5"] ;
8 -> 9 ;
10 [label=<gini = 0.0<br/>samples = 562<br/>value = [0, 0, 0, 0, 906]<br/>class = Sintéticos>, fillcolor="#e539c0"] ;
8 -> 10 ;
11 [label=<Poliester &le; 50.02<br/>gini = 0.094<br/>samples = 1658<br/>value = [0.0, 22.0, 0.0, 2436.0, 104.0]<br/>class = Mixto>, fillcolor="#4643e6"] ;
1 -> 11 ;
12 [label=<Poliester &le; 6.53<br/>gini = 0.018<br/>samples = 1589<br/>value = [0, 22, 0, 2436, 0]<br/>class = Mixto>, fillcolor="#3e3be5"] ;
11 -> 12 ;
13 [label=<Seda &le; 30.24<br/>gini = 0.206<br/>samples = 88<br/>value = [0, 16, 0, 121, 0]<br/>class = Mixto>, fillcolor="#5653e8"] ;
12 -> 13 ;
14 [label=<gini = 0.0<br/>samples = 79<br/>value = [0, 0, 0, 121, 0]<br/>class = Mixto>, fillcolor="#3c39e5"] ;
13 -> 14 ;
15 [label=<gini = 0.0<br/>samples = 9<br/>value = [0, 16, 0, 0, 0]<br/>class = Delicados>, fillcolor="#7be539"] ;
13 -> 15 ;
16 [label=<Lana &le; 9.04<br/>gini = 0.005<br/>samples = 1501<br/>value = [0, 6, 0, 2315, 0]<br/>class = Mixto>, fillcolor="#3d3ae5"] ;
12 -> 16 ;
17 [label=<gini = 0.0<br/>samples = 1243<br/>value = [0, 0, 0, 1936, 0]<br/>class = Mixto>, fillcolor="#3c39e5"] ;
16 -> 17 ;
18 [label=<Lana &le; 11.075<br/>gini = 0.031<br/>samples = 258<br/>value = [0, 6, 0, 379, 0]<br/>class = Mixto>, fillcolor="#3f3ce5"] ;
16 -> 18 ;
19 [label=<gini = 0.0<br/>samples = 1<br/>value = [0, 1, 0, 0, 0]<br/>class = Delicados>, fillcolor="#7be539"] ;
18 -> 19 ;
20 [label=<Nylon &le; 2.5<br/>gini = 0.026<br/>samples = 257<br/>value = [0, 5, 0, 379, 0]<br/>class = Mixto>, fillcolor="#3f3ce5"] ;
18 -> 20 ;
21 [label=<Elastano &le; 0.345<br/>gini = 0.1<br/>samples = 59<br/>value = [0, 4, 0, 72, 0]<br/>class = Mixto>, fillcolor="#4744e6"] ;
20 -> 21 ;
22 [label=<gini = 0.0<br/>samples = 1<br/>value = [0, 1, 0, 0, 0]<br/>class = Delicados>, fillcolor="#7be539"] ;
21 -> 22 ;
23 [label=<Seda &le; 29.115<br/>gini = 0.077<br/>samples = 58<br/>value = [0, 3, 0, 72, 0]<br/>class = Mixto>, fillcolor="#4441e6"] ;
21 -> 23 ;
24 [label=<gini = 0.0<br/>samples = 55<br/>value = [0, 0, 0, 72, 0]<br/>class = Mixto>, fillcolor="#3c39e5"] ;
23 -> 24 ;
25 [label=<gini = 0.0<br/>samples = 3<br/>value = [0, 3, 0, 0, 0]<br/>class = Delicados>, fillcolor="#7be539"] ;
23 -> 25 ;
26 [label=<Peso &le; 2.645<br/>gini = 0.006<br/>samples = 198<br/>value = [0, 1, 0, 307, 0]<br/>class = Mixto>, fillcolor="#3d3ae5"] ;
20 -> 26 ;
27 [label=<gini = 0.0<br/>samples = 162<br/>value = [0, 0, 0, 245, 0]<br/>class = Mixto>, fillcolor="#3c39e5"] ;
26 -> 27 ;
28 [label=<Lana &le; 14.11<br/>gini = 0.031<br/>samples = 36<br/>value = [0, 1, 0, 62, 0]<br/>class = Mixto>, fillcolor="#3f3ce5"] ;
26 -> 28 ;
29 [label=<Nylon &le; 5.18<br/>gini = 0.18<br/>samples = 4<br/>value = [0, 1, 0, 9, 0]<br/>class = Mixto>, fillcolor="#524fe8"] ;
28 -> 29 ;
30 [label=<gini = 0.0<br/>samples = 1<br/>value = [0, 1, 0, 0, 0]<br/>class = Delicados>, fillcolor="#7be539"] ;
29 -> 30 ;
31 [label=<gini = 0.0<br/>samples = 3<br/>value = [0, 0, 0, 9, 0]<br/>class = Mixto>, fillcolor="#3c39e5"] ;
29 -> 31 ;
32 [label=<gini = 0.0<br/>samples = 32<br/>value = [0, 0, 0, 53, 0]<br/>class = Mixto>, fillcolor="#3c39e5"] ;
28 -> 32 ;
33 [label=<gini = 0.0<br/>samples = 69<br/>value = [0, 0, 0, 0, 104]<br/>class = Sintéticos>, fillcolor="#e539c0"] ;
11 -> 33 ;
34 [label=<gini = 0.0<br/>samples = 2005<br/>value = [3173, 0, 0, 0, 0]<br/>class = Algodón>, fillcolor="#e58139"] ;
0 -> 34 [labeldistance=2.5, labelangle=-45, headlabel="False"] ;
}