digraph Tree {
node [shape=box, style="filled, rounded", color="black", fontname="helvetica"] ;
edge [fontname="helvetica"] ;
0 [label=<Nylon &le; 0.005<br/>gini = 0.62<br/>samples = 5050<br/>value = [3161, 187, 33, 3660, 959]<br/>class = Mixto>, fillcolor="#ebebfc"] ;
1 [label=<Algodon &le; 70.035<br/>gini = 0.047<br/>samples = 2049<br/>value = [3161, 0, 0, 78, 0]<br/>class = Algodón>, fillcolor="#e6843e"] ;
0 -> 1 [labeldistance=2.5, labelangle=45, headlabel="True"] ;
2 [label=<gini = 0.0<br/>samples = 49<br/>value = [0, 0, 0, 78, 0]<br/>class = Mixto>, fillcolor="#3c39e5"] ;
1 -> 2 ;
3 [label=<gini = 0.0<br/>samples = 2000<br/>value = [3161, 0, 0, 0, 0]<br/>class = Algodón>, fillcolor="#e58139"] ;
1 -> 3 ;
4 [label=<Lana &le; 0.005<br/>gini = 0.392<br/>samples = 3001<br/>value = [0, 187, 33, 3582, 959]<br/>class = Mixto>, fillcolor="#7876ed"] ;
0 -> 4 [labeldistance=2.5, labelangle=-45, headlabel="False"] ;
5 [label=<Poliester &le; 49.98<br/>gini = 0.481<br/>samples = 980<br/>value = [0.0, 0.0, 0.0, 625.0, 931.0]<br/>class = Sintéticos>, fillcolor="#f6beea"] ;
4 -> 5 ;
6 [label=<gini = 0.0<br/>samples = 383<br/>value = [0, 0, 0, 625, 0]<br/>class = Mixto>, fillcolor="#3c39e5"] ;
5 -> 6 ;
7 [label=<gini = 0.0<br/>samples = 597<br/>value = [0, 0, 0, 0, 931]<br/>class = Sintéticos>, fillcolor="#e539c0"] ;
5 -> 7 ;
8 [label=<Lana &le; 50.21<br/>gini = 0.145<br/>samples = 2021<br/>value = [0.0, 187.0, 33.0, 2957.0, 28.0]<br/>class = Mixto>, fillcolor="#4c49e7"] ;
4 -> 8 ;
9 [label=<Fibra &le; 0.01<br/>gini = 0.127<br/>samples = 2001<br/>value = [0.0, 187.0, 0.0, 2957.0, 28.0]<br/>class = Mixto>, fillcolor="#4a47e7"] ;
8 -> 9 ;
10 [label=<Seda &le; 29.99<br/>gini = 0.206<br/>samples = 999<br/>value = [0, 187, 0, 1414, 0]<br/>class = Mixto>, fillcolor="#5653e8"] ;
9 -> 10 ;
11 [label=<gini = 0.0<br/>samples = 881<br/>value = [0, 0, 0, 1414, 0]<br/>class = Mixto>, fillcolor="#3c39e5"] ;
10 -> 11 ;
12 [label=<gini = 0.0<br/>samples = 118<br/>value = [0, 187, 0, 0, 0]<br/>class = Delicados>, fillcolor="#7be539"] ;
10 -> 12 ;
13 [label=<Elastano &le; 4.79<br/>gini = 0.035<br/>samples = 1002<br/>value = [0, 0, 0, 1543, 28]<br/>class = Mixto>, fillcolor="#403de5"] ;
9 -> 13 ;
14 [label=<Poliester &le; 49.98<br/>gini = 0.029<br/>samples = 923<br/>value = [0, 0, 0, 1426, 21]<br/>class = Mixto>, fillcolor="#3f3ce5"] ;
13 -> 14 ;
15 [label=<gini = 0.0<br/>samples = 906<br/>value = [0, 0, 0, 1426, 0]<br/>class = Mixto>, fillcolor="#3c39e5"] ;
14 -> 15 ;
16 [label=<gini = 0.0<br/>samples = 17<br/>value = [0, 0, 0, 0, 21]<br/>class = Sintéticos>, fillcolor="#e539c0"] ;
14 -> 16 ;
17 [label=<Lana &le; 0.135<br/>gini = 0.107<br/>samples = 79<br/>value = [0, 0, 0, 117, 7]<br/>class = Mixto>, fillcolor="#4845e7"] ;
13 -> 17 ;
18 [label=<Peso &le; 3.49<br/>gini = 0.48<br/>samples = 3<br/>value = [0, 0, 0, 3, 2]<br/>class = Mixto>, fillcolor="#bebdf6"] ;
17 -> 18 ;
19 [label=<gini = 0.0<br/>samples = 1<br/>value = [0, 0, 0, 0, 2]<br/>class = Sintéticos>, fillcolor="#e539c0"] ;
18 -> 19 ;
20 [label=<gini = 0.0<br/>samples = 2<br/>value = [0, 0, 0, 3, 0]<br/>class = Mixto>, fillcolor="#3c39e5"] ;
18 -> 20 ;
21 [label=<Algodon &le; 38.615<br/>gini = 0.081<br/>samples = 76<br/>value = [0, 0, 0, 114, 5]<br/>class = Mixto>, fillcolor="#4542e6"] ;
17 -> 21 ;
22 [label=<Poliester &le; 50.26<br/>gini = 0.5<br/>samples = 9<br/>value = [0, 0, 0, 5, 5]<br/>class = Mixto>, fillcolor="#ffffff"] ;
21 -> 22 ;
23 [label=<gini = 0.0<br/>samples = 5<br/>value = [0, 0, 0, 5, 0]<br/>class = Mixto>, fillcolor="#3c39e5"] ;
22 -> 23 ;
24 [label=<gini = 0.0<br/>samples = 4<br/>value = [0, 0, 0, 0, 5]<br/>class = Sintéticos>, fillcolor="#e539c0"] ;
22 -> 24 ;
25 [label=<gini = 0.0<br/>samples = 67<br/>value = [0, 0, 0, 109, 0]<br/>class = Mixto>, fillcolor="#3c39e5"] ;
21 -> 25 ;
26 [label=<gini = 0.0<br/>samples = 20<br/>value = [0, 0, 33, 0, 0]<br/>class = Lana>, fillcolor="#39e5c5"] ;
8 -> 26 ;
}