digraph Tree {
node [shape=box, style="filled, rounded", color="black", fontname="helvetica"] ;
edge [fontname="helvetica"] ;
0 [label=<Lana &le; 0.005<br/>gini = 0.618<br/>samples = 5047<br/>value = [3200, 194, 19, 3641, 946]<br/>class = Mixto>, fillcolor="#ededfd"] ;
1 [label=<Nylon &le; 0.66<br/>gini = 0.5<br/>samples = 3022<br/>value = [3200, 0, 0, 694, 911]<br/>class = Algodón>, fillcolor="#f0b58b"] ;
0 -> 1 [labeldistance=2.5, labelangle=45, headlabel="True"] ;
2 [label=<Algodon &le; 70.035<br/>gini = 0.031<br/>samples = 2034<br/>value = [3200.0, 0.0, 0.0, 52.0, 0.0]<br/>class = Algodón>, fillcolor="#e5833c"] ;
1 -> 2 ;
3 [label=<gini = 0.0<br/>samples = 37<br/>value = [0, 0, 0, 52, 0]<br/>class = Mixto>, fillcolor="#3c39e5"] ;
2 -> 3 ;
4 [label=<gini = 0.0<br/>samples = 1997<br/>value = [3200, 0, 0, 0, 0]<br/>class = Algodón>, fillcolor="#e58139"] ;
2 -> 4 ;
5 [label=<Peso &le; 2.025<br/>gini = 0.485<br/>samples = 988<br/>value = [0.0, 0.0, 0.0, 642.0, 911.0]<br/>class = Sintéticos>, fillcolor="#f7c5ec"] ;
1 -> 5 ;
6 [label=<Algodon &le; 19.64<br/>gini = 0.26<br/>samples = 10<br/>value = [0, 0, 0, 2, 11]<br/>class = Sintéticos>, fillcolor="#ea5dcb"] ;
5 -> 6 ;
7 [label=<gini = 0.0<br/>samples = 8<br/>value = [0, 0, 0, 0, 11]<br/>class = Sintéticos>, fillcolor="#e539c0"] ;
6 -> 7 ;
8 [label=<gini = 0.0<br/>samples = 2<br/>value = [0, 0, 0, 2, 0]<br/>class = Mixto>, fillcolor="#3c39e5"] ;
6 -> 8 ;
9 [label=<Algodon &le; 18.915<br/>gini = 0.486<br/>samples = 978<br/>value = [0, 0, 0, 640, 900]<br/>class = Sintéticos>, fillcolor="#f7c6ed"] ;
5 -> 9 ;
10 [label=<Poliester &le; 50.025<br/>gini = 0.341<br/>samples = 587<br/>value = [0, 0, 0, 200, 716]<br/>class = Sintéticos>, fillcolor="#ec70d2"] ;
9 -> 10 ;
11 [label=<gini = 0.0<br/>samples = 126<br/>value = [0, 0, 0, 200, 0]<br/>class = Mixto>, fillcolor="#3c39e5"] ;
10 -> 11 ;
12 [label=<gini = 0.0<br/>samples = 461<br/>value = [0, 0, 0, 0, 716]<br/>class = Sintéticos>, fillcolor="#e539c0"] ;
10 -> 12 ;
13 [label=<Elastano &le; 11.865<br/>gini = 0.416<br/>samples = 391<br/>value = [0.0, 0.0, 0.0, 440.0, 184.0]<br/>class = Mixto>, fillcolor="#8e8cf0"] ;
9 -> 13 ;
14 [label=<Poliester &le; 50.0<br/>gini = 0.489<br/>samples = 197<br/>value = [0.0, 0.0, 0.0, 194.0, 144.0]<br/>class = Mixto>, fillcolor="#cdccf8"] ;
13 -> 14 ;
15 [label=<gini = 0.0<br/>samples = 107<br/>value = [0, 0, 0, 194, 0]<br/>class = Mixto>, fillcolor="#3c39e5"] ;
14 -> 15 ;
16 [label=<gini = 0.0<br/>samples = 90<br/>value = [0, 0, 0, 0, 144]<br/>class = Sintéticos>, fillcolor="#e539c0"] ;
14 -> 16 ;
17 [label=<Algodon &le; 22.89<br/>gini = 0.241<br/>samples = 194<br/>value = [0, 0, 0, 246, 40]<br/>class = Mixto>, fillcolor="#5c59e9"] ;
13 -> 17 ;
18 [label=<Poliester &le; 50.005<br/>gini = 0.363<br/>samples = 100<br/>value = [0, 0, 0, 112, 35]<br/>class = Mixto>, fillcolor="#7977ed"] ;
17 -> 18 ;
19 [label=<gini = 0.0<br/>samples = 77<br/>value = [0, 0, 0, 112, 0]<br/>class = Mixto>, fillcolor="#3c39e5"] ;
18 -> 19 ;
20 [label=<gini = 0.0<br/>samples = 23<br/>value = [0, 0, 0, 0, 35]<br/>class = Sintéticos>, fillcolor="#e539c0"] ;
18 -> 20 ;
21 [label=<Nylon &le; 7.185<br/>gini = 0.069<br/>samples = 94<br/>value = [0, 0, 0, 134, 5]<br/>class = Mixto>, fillcolor="#4340e6"] ;
17 -> 21 ;
22 [label=<Poliester &le; 49.715<br/>gini = 0.388<br/>samples = 14<br/>value = [0, 0, 0, 14, 5]<br/>class = Mixto>, fillcolor="#8280ee"] ;
21 -> 22 ;
23 [label=<gini = 0.0<br/>samples = 9<br/>value = [0, 0, 0, 14, 0]<br/>class = Mixto>, fillcolor="#3c39e5"] ;
22 -> 23 ;
24 [label=<gini = 0.0<br/>samples = 5<br/>value = [0, 0, 0, 0, 5]<br/>class = Sintéticos>, fillcolor="#e539c0"] ;
22 -> 24 ;
25 [label=<gini = 0.0<br/>samples = 80<br/>value = [0, 0, 0, 120, 0]<br/>class = Mixto>, fillcolor="#3c39e5"] ;
21 -> 25 ;
26 [label=<Algodon &le; 7.215<br/>gini = 0.145<br/>samples = 2025<br/>value = [0, 194, 19, 2947, 35]<br/>class = Mixto>, fillcolor="#4c49e7"] ;
0 -> 26 [labeldistance=2.5, labelangle=-45, headlabel="False"] ;
27 [label=<Lana &le; 49.915<br/>gini = 0.491<br/>samples = 185<br/>value = [0, 88, 13, 178, 0]<br/>class = Mixto>, fillcolor="#a3a2f3"] ;
26 -> 27 ;
28 [label=<Poliester &le; 20.925<br/>gini = 0.443<br/>samples = 177<br/>value = [0, 88, 0, 178, 0]<br/>class = Mixto>, fillcolor="#9c9bf2"] ;
27 -> 28 ;
29 [label=<Seda &le; 29.475<br/>gini = 0.499<br/>samples = 87<br/>value = [0, 61, 0, 67, 0]<br/>class = Mixto>, fillcolor="#eeedfd"] ;
28 -> 29 ;
30 [label=<gini = 0.0<br/>samples = 49<br/>value = [0, 0, 0, 67, 0]<br/>class = Mixto>, fillcolor="#3c39e5"] ;
29 -> 30 ;
31 [label=<gini = 0.0<br/>samples = 38<br/>value = [0, 61, 0, 0, 0]<br/>class = Delicados>, fillcolor="#7be539"] ;
29 -> 31 ;
32 [label=<Seda &le; 30.135<br/>gini = 0.315<br/>samples = 90<br/>value = [0, 27, 0, 111, 0]<br/>class = Mixto>, fillcolor="#6b69eb"] ;
28 -> 32 ;
33 [label=<gini = 0.0<br/>samples = 74<br/>value = [0, 0, 0, 111, 0]<br/>class = Mixto>, fillcolor="#3c39e5"] ;
32 -> 33 ;
34 [label=<gini = 0.0<br/>samples = 16<br/>value = [0, 27, 0, 0, 0]<br/>class = Delicados>, fillcolor="#7be539"] ;
32 -> 34 ;
35 [label=<gini = 0.0<br/>samples = 8<br/>value = [0, 0, 13, 0, 0]<br/>class = Lana>, fillcolor="#39e5c5"] ;
27 -> 35 ;
36 [label=<Poliester &le; 50.105<br/>gini = 0.097<br/>samples = 1840<br/>value = [0.0, 106.0, 6.0, 2769.0, 35.0]<br/>class = Mixto>, fillcolor="#4643e6"] ;
26 -> 36 ;
37 [label=<Algodon &le; 20.055<br/>gini = 0.075<br/>samples = 1820<br/>value = [0.0, 106.0, 6.0, 2769.0, 0.0]<br/>class = Mixto>, fillcolor="#4441e6"] ;
36 -> 37 ;
38 [label=<Poliester &le; 23.325<br/>gini = 0.245<br/>samples = 369<br/>value = [0, 75, 6, 492, 0]<br/>class = Mixto>, fillcolor="#5c59e9"] ;
37 -> 38 ;
39 [label=<Seda &le; 29.995<br/>gini = 0.331<br/>samples = 237<br/>value = [0, 69, 6, 293, 0]<br/>class = Mixto>, fillcolor="#6d6bec"] ;
38 -> 39 ;
40 [label=<Peso &le; 1.265<br/>gini = 0.039<br/>samples = 192<br/>value = [0, 0, 6, 293, 0]<br/>class = Mixto>, fillcolor="#403de6"] ;
39 -> 40 ;
41 [label=<Lana &le; 50.395<br/>gini = 0.097<br/>samples = 27<br/>value = [0, 0, 2, 37, 0]<br/>class = Mixto>, fillcolor="#4744e6"] ;
40 -> 41 ;
42 [label=<gini = 0.0<br/>samples = 25<br/>value = [0, 0, 0, 37, 0]<br/>class = Mixto>, fillcolor="#3c39e5"] ;
41 -> 42 ;
43 [label=<gini = 0.0<br/>samples = 2<br/>value = [0, 0, 2, 0, 0]<br/>class = Lana>, fillcolor="#39e5c5"] ;
41 -> 43 ;
44 [label=<Poliester &le; 0.5<br/>gini = 0.03<br/>samples = 165<br/>value = [0, 0, 4, 256, 0]<br/>class = Mixto>, fillcolor="#3f3ce5"] ;
40 -> 44 ;
45 [label=<Seda &le; 19.72<br/>gini = 0.278<br/>samples = 3<br/>value = [0, 0, 1, 5, 0]<br/>class = Mixto>, fillcolor="#6361ea"] ;
44 -> 45 ;
46 [label=<gini = 0.0<br/>samples = 1<br/>value = [0, 0, 1, 0, 0]<br/>class = Lana>, fillcolor="#39e5c5"] ;
45 -> 46 ;
47 [label=<gini = 0.0<br/>samples = 2<br/>value = [0, 0, 0, 5, 0]<br/>class = Mixto>, fillcolor="#3c39e5"] ;
45 -> 47 ;
48 [label=<Elastano &le; 6.315<br/>gini = 0.023<br/>samples = 162<br/>value = [0, 0, 3, 251, 0]<br/>class = Mixto>, fillcolor="#3e3be5"] ;
44 -> 48 ;
49 [label=<Lana &le; 51.08<br/>gini = 0.017<br/>samples = 153<br/>value = [0, 0, 2, 238, 0]<br/>class = Mixto>, fillcolor="#3e3be5"] ;
48 -> 49 ;
50 [label=<gini = 0.0<br/>samples = 151<br/>value = [0, 0, 0, 238, 0]<br/>class = Mixto>, fillcolor="#3c39e5"] ;
49 -> 50 ;
51 [label=<gini = 0.0<br/>samples = 2<br/>value = [0, 0, 2, 0, 0]<br/>class = Lana>, fillcolor="#39e5c5"] ;
49 -> 51 ;
52 [label=<Lana &le; 45.13<br/>gini = 0.133<br/>samples = 9<br/>value = [0, 0, 1, 13, 0]<br/>class = Mixto>, fillcolor="#4b48e7"] ;
48 -> 52 ;
53 [label=<gini = 0.0<br/>samples = 8<br/>value = [0, 0, 0, 13, 0]<br/>class = Mixto>, fillcolor="#3c39e5"] ;
52 -> 53 ;
54 [label=<gini = 0.0<br/>samples = 1<br/>value = [0, 0, 1, 0, 0]<br/>class = Lana>, fillcolor="#39e5c5"] ;
52 -> 54 ;
55 [label=<gini = 0.0<br/>samples = 45<br/>value = [0, 69, 0, 0, 0]<br/>class = Delicados>, fillcolor="#7be539"] ;
39 -> 55 ;
56 [label=<Viscosa &le; 0.085<br/>gini = 0.057<br/>samples = 132<br/>value = [0, 6, 0, 199, 0]<br/>class = Mixto>, fillcolor="#423fe6"] ;
38 -> 56 ;
57 [label=<Viscosa &le; 0.055<br/>gini = 0.375<br/>samples = 2<br/>value = [0, 3, 0, 1, 0]<br/>class = Delicados>, fillcolor="#a7ee7b"] ;
56 -> 57 ;
58 [label=<gini = 0.0<br/>samples = 1<br/>value = [0, 0, 0, 1, 0]<br/>class = Mixto>, fillcolor="#3c39e5"] ;
57 -> 58 ;
59 [label=<gini = 0.0<br/>samples = 1<br/>value = [0, 3, 0, 0, 0]<br/>class = Delicados>, fillcolor="#7be539"] ;
57 -> 59 ;
60 [label=<Seda &le; 29.83<br/>gini = 0.029<br/>samples = 130<br/>value = [0, 3, 0, 198, 0]<br/>class = Mixto>, fillcolor="#3f3ce5"] ;
56 -> 60 ;
61 [label=<gini = 0.0<br/>samples = 127<br/>value = [0, 0, 0, 198, 0]<br/>class = Mixto>, fillcolor="#3c39e5"] ;
60 -> 61 ;
62 [label=<gini = 0.0<br/>samples = 3<br/>value = [0, 3, 0, 0, 0]<br/>class = Delicados>, fillcolor="#7be539"] ;
60 -> 62 ;
63 [label=<Seda &le; 30.105<br/>gini = 0.027<br/>samples = 1451<br/>value = [0, 31, 0, 2277, 0]<br/>class = Mixto>, fillcolor="#3f3ce5"] ;
37 -> 63 ;
64 [label=<gini = 0.0<br/>samples = 1432<br/>value = [0, 0, 0, 2277, 0]<br/>class = Mixto>, fillcolor="#3c39e5"] ;
63 -> 64 ;
65 [label=<gini = 0.0<br/>samples = 19<br/>value = [0, 31, 0, 0, 0]<br/>class = Delicados>, fillcolor="#7be539"] ;
63 -> 65 ;
66 [label=<gini = 0.0<br/>samples = 20<br/>value = [0, 0, 0, 0, 35]<br/>class = Sintéticos>, fillcolor="#e539c0"] ;
36 -> 66 ;
}