digraph Tree {
node [shape=box, style="filled, rounded", color="black", fontname="helvetica"] ;
edge [fontname="helvetica"] ;
0 [label=<Poliester &le; 17.235<br/>gini = 0.627<br/>samples = 5118<br/>value = [3116, 198, 28, 3614, 1044]<br/>class = Mixto>, fillcolor="#ebebfc"] ;
1 [label=<Algodon &le; 70.005<br/>gini = 0.336<br/>samples = 2441<br/>value = [3057.0, 123.0, 22.0, 632.0, 0.0]<br/>class = Algodón>, fillcolor="#eba069"] ;
0 -> 1 [labeldistance=2.5, labelangle=45, headlabel="True"] ;
2 [label=<Seda &le; 29.995<br/>gini = 0.313<br/>samples = 497<br/>value = [0.0, 123.0, 22.0, 632.0, 0.0]<br/>class = Mixto>, fillcolor="#6765eb"] ;
1 -> 2 ;
3 [label=<Lana &le; 50.13<br/>gini = 0.065<br/>samples = 419<br/>value = [0.0, 0.0, 22.0, 632.0, 0.0]<br/>class = Mixto>, fillcolor="#4340e6"] ;
2 -> 3 ;
4 [label=<gini = 0.0<br/>samples = 403<br/>value = [0, 0, 0, 632, 0]<br/>class = Mixto>, fillcolor="#3c39e5"] ;
3 -> 4 ;
5 [label=<gini = 0.0<br/>samples = 16<br/>value = [0, 0, 22, 0, 0]<br/>class = Lana>, fillcolor="#39e5c5"] ;
3 -> 5 ;
6 [label=<gini = 0.0<br/>samples = 78<br/>value = [0, 123, 0, 0, 0]<br/>class = Delicados>, fillcolor="#7be539"] ;
2 -> 6 ;
7 [label=<gini = 0.0<br/>samples = 1944<br/>value = [3057, 0, 0, 0, 0]<br/>class = Algodón>, fillcolor="#e58139"] ;
1 -> 7 ;
8 [label=<Lana &le; 0.035<br/>gini = 0.424<br/>samples = 2677<br/>value = [59, 75, 6, 2982, 1044]<br/>class = Mixto>, fillcolor="#8684ef"] ;
0 -> 8 [labeldistance=2.5, labelangle=-45, headlabel="False"] ;
9 [label=<Poliester &le; 49.975<br/>gini = 0.503<br/>samples = 1083<br/>value = [59, 0, 0, 599, 1013]<br/>class = Sintéticos>, fillcolor="#f5b3e7"] ;
8 -> 9 ;
10 [label=<Algodon &le; 70.035<br/>gini = 0.163<br/>samples = 443<br/>value = [59, 0, 0, 599, 0]<br/>class = Mixto>, fillcolor="#4f4de8"] ;
9 -> 10 ;
11 [label=<gini = 0.0<br/>samples = 397<br/>value = [0, 0, 0, 599, 0]<br/>class = Mixto>, fillcolor="#3c39e5"] ;
10 -> 11 ;
12 [label=<gini = 0.0<br/>samples = 46<br/>value = [59, 0, 0, 0, 0]<br/>class = Algodón>, fillcolor="#e58139"] ;
10 -> 12 ;
13 [label=<gini = 0.0<br/>samples = 640<br/>value = [0, 0, 0, 0, 1013]<br/>class = Sintéticos>, fillcolor="#e539c0"] ;
9 -> 13 ;
14 [label=<Lana &le; 49.915<br/>gini = 0.087<br/>samples = 1594<br/>value = [0, 75, 6, 2383, 31]<br/>class = Mixto>, fillcolor="#4542e6"] ;
8 -> 14 ;
15 [label=<Seda &le; 29.99<br/>gini = 0.082<br/>samples = 1590<br/>value = [0, 75, 0, 2383, 31]<br/>class = Mixto>, fillcolor="#4542e6"] ;
14 -> 15 ;
16 [label=<Poliester &le; 49.965<br/>gini = 0.025<br/>samples = 1546<br/>value = [0, 0, 0, 2383, 31]<br/>class = Mixto>, fillcolor="#3f3ce5"] ;
15 -> 16 ;
17 [label=<gini = 0.0<br/>samples = 1525<br/>value = [0, 0, 0, 2383, 0]<br/>class = Mixto>, fillcolor="#3c39e5"] ;
16 -> 17 ;
18 [label=<gini = 0.0<br/>samples = 21<br/>value = [0, 0, 0, 0, 31]<br/>class = Sintéticos>, fillcolor="#e539c0"] ;
16 -> 18 ;
19 [label=<gini = 0.0<br/>samples = 44<br/>value = [0, 75, 0, 0, 0]<br/>class = Delicados>, fillcolor="#7be539"] ;
15 -> 19 ;
20 [label=<gini = 0.0<br/>samples = 4<br/>value = [0, 0, 6, 0, 0]<br/>class = Lana>, fillcolor="#39e5c5"] ;
14 -> 20 ;
}