digraph Tree {
node [shape=box, style="filled, rounded", color="black", fontname="helvetica"] ;
edge [fontname="helvetica"] ;
0 [label=<Lana &le; 0.005<br/>gini = 0.624<br/>samples = 5063<br/>value = [3170, 215, 25, 3610, 980]<br/>class = Mixto>, fillcolor="#ededfd"] ;
1 [label=<Poliester &le; 26.005<br/>gini = 0.501<br/>samples = 3021<br/>value = [3170.0, 0.0, 0.0, 651.0, 955.0]<br/>class = Algodón>, fillcolor="#f0b68c"] ;
0 -> 1 [labeldistance=2.5, labelangle=45, headlabel="True"] ;
2 [label=<Algodon &le; 70.045<br/>gini = 0.035<br/>samples = 2041<br/>value = [3170.0, 0.0, 0.0, 58.0, 0.0]<br/>class = Algodón>, fillcolor="#e5833d"] ;
1 -> 2 ;
3 [label=<gini = 0.0<br/>samples = 39<br/>value = [0, 0, 0, 58, 0]<br/>class = Mixto>, fillcolor="#3c39e5"] ;
2 -> 3 ;
4 [label=<gini = 0.0<br/>samples = 2002<br/>value = [3170, 0, 0, 0, 0]<br/>class = Algodón>, fillcolor="#e58139"] ;
2 -> 4 ;
5 [label=<Poliester &le; 49.995<br/>gini = 0.473<br/>samples = 980<br/>value = [0.0, 0.0, 0.0, 593.0, 955.0]<br/>class = Sintéticos>, fillcolor="#f5b4e7"] ;
1 -> 5 ;
6 [label=<gini = 0.0<br/>samples = 376<br/>value = [0, 0, 0, 593, 0]<br/>class = Mixto>, fillcolor="#3c39e5"] ;
5 -> 6 ;
7 [label=<gini = 0.0<br/>samples = 604<br/>value = [0, 0, 0, 0, 955]<br/>class = Sintéticos>, fillcolor="#e539c0"] ;
5 -> 7 ;
8 [label=<Nylon &le; 8.535<br/>gini = 0.153<br/>samples = 2042<br/>value = [0.0, 215.0, 25.0, 2959.0, 25.0]<br/>class = Mixto>, fillcolor="#4d4ae7"] ;
0 -> 8 [labeldistance=2.5, labelangle=-45, headlabel="False"] ;
9 [label=<Seda &le; 30.035<br/>gini = 0.13<br/>samples = 1776<br/>value = [0, 147, 19, 2595, 25]<br/>class = Mixto>, fillcolor="#4a47e7"] ;
8 -> 9 ;
10 [label=<Algodon &le; 4.245<br/>gini = 0.033<br/>samples = 1686<br/>value = [0, 0, 19, 2595, 25]<br/>class = Mixto>, fillcolor="#3f3ce5"] ;
9 -> 10 ;
11 [label=<Lana &le; 49.885<br/>gini = 0.212<br/>samples = 48<br/>value = [0, 0, 10, 73, 0]<br/>class = Mixto>, fillcolor="#5754e9"] ;
10 -> 11 ;
12 [label=<gini = 0.0<br/>samples = 42<br/>value = [0, 0, 0, 73, 0]<br/>class = Mixto>, fillcolor="#3c39e5"] ;
11 -> 12 ;
13 [label=<gini = 0.0<br/>samples = 6<br/>value = [0, 0, 10, 0, 0]<br/>class = Lana>, fillcolor="#39e5c5"] ;
11 -> 13 ;
14 [label=<Elastano &le; 0.345<br/>gini = 0.026<br/>samples = 1638<br/>value = [0, 0, 9, 2522, 25]<br/>class = Mixto>, fillcolor="#3f3ce5"] ;
10 -> 14 ;
15 [label=<Peso &le; 5.095<br/>gini = 0.102<br/>samples = 94<br/>value = [0, 0, 0, 158, 9]<br/>class = Mixto>, fillcolor="#4744e6"] ;
14 -> 15 ;
16 [label=<Fibra &le; 0.38<br/>gini = 0.064<br/>samples = 86<br/>value = [0, 0, 0, 147, 5]<br/>class = Mixto>, fillcolor="#4340e6"] ;
15 -> 16 ;
17 [label=<gini = 0.0<br/>samples = 36<br/>value = [0, 0, 0, 64, 0]<br/>class = Mixto>, fillcolor="#3c39e5"] ;
16 -> 17 ;
18 [label=<Lana &le; 0.39<br/>gini = 0.107<br/>samples = 50<br/>value = [0, 0, 0, 83, 5]<br/>class = Mixto>, fillcolor="#4845e7"] ;
16 -> 18 ;
19 [label=<Fibra &le; 1.285<br/>gini = 0.48<br/>samples = 3<br/>value = [0, 0, 0, 2, 3]<br/>class = Sintéticos>, fillcolor="#f6bdea"] ;
18 -> 19 ;
20 [label=<gini = 0.0<br/>samples = 1<br/>value = [0, 0, 0, 0, 3]<br/>class = Sintéticos>, fillcolor="#e539c0"] ;
19 -> 20 ;
21 [label=<gini = 0.0<br/>samples = 2<br/>value = [0, 0, 0, 2, 0]<br/>class = Mixto>, fillcolor="#3c39e5"] ;
19 -> 21 ;
22 [label=<Viscosa &le; 4.79<br/>gini = 0.047<br/>samples = 47<br/>value = [0, 0, 0, 81, 2]<br/>class = Mixto>, fillcolor="#413ee6"] ;
18 -> 22 ;
23 [label=<Poliester &le; 48.58<br/>gini = 0.111<br/>samples = 20<br/>value = [0, 0, 0, 32, 2]<br/>class = Mixto>, fillcolor="#4845e7"] ;
22 -> 23 ;
24 [label=<gini = 0.0<br/>samples = 18<br/>value = [0, 0, 0, 32, 0]<br/>class = Mixto>, fillcolor="#3c39e5"] ;
23 -> 24 ;
25 [label=<gini = 0.0<br/>samples = 2<br/>value = [0, 0, 0, 0, 2]<br/>class = Sintéticos>, fillcolor="#e539c0"] ;
23 -> 25 ;
26 [label=<gini = 0.0<br/>samples = 27<br/>value = [0, 0, 0, 49, 0]<br/>class = Mixto>, fillcolor="#3c39e5"] ;
22 -> 26 ;
27 [label=<Poliester &le; 45.235<br/>gini = 0.391<br/>samples = 8<br/>value = [0, 0, 0, 11, 4]<br/>class = Mixto>, fillcolor="#8381ee"] ;
15 -> 27 ;
28 [label=<gini = 0.0<br/>samples = 7<br/>value = [0, 0, 0, 11, 0]<br/>class = Mixto>, fillcolor="#3c39e5"] ;
27 -> 28 ;
29 [label=<gini = 0.0<br/>samples = 1<br/>value = [0, 0, 0, 0, 4]<br/>class = Sintéticos>, fillcolor="#e539c0"] ;
27 -> 29 ;
30 [label=<Elastano &le; 6.305<br/>gini = 0.021<br/>samples = 1544<br/>value = [0, 0, 9, 2364, 16]<br/>class = Mixto>, fillcolor="#3e3be5"] ;
14 -> 30 ;
31 [label=<Lana &le; 50.175<br/>gini = 0.018<br/>samples = 1517<br/>value = [0, 0, 5, 2323, 16]<br/>class = Mixto>, fillcolor="#3e3be5"] ;
30 -> 31 ;
32 [label=<Nylon &le; 0.065<br/>gini = 0.014<br/>samples = 1513<br/>value = [0, 0, 0, 2323, 16]<br/>class = Mixto>, fillcolor="#3d3ae5"] ;
31 -> 32 ;
33 [label=<Peso &le; 3.6<br/>gini = 0.219<br/>samples = 12<br/>value = [0, 0, 0, 14, 2]<br/>class = Mixto>, fillcolor="#5855e9"] ;
32 -> 33 ;
34 [label=<gini = 0.0<br/>samples = 8<br/>value = [0, 0, 0, 11, 0]<br/>class = Mixto>, fillcolor="#3c39e5"] ;
33 -> 34 ;
35 [label=<Peso &le; 4.035<br/>gini = 0.48<br/>samples = 4<br/>value = [0, 0, 0, 3, 2]<br/>class = Mixto>, fillcolor="#bebdf6"] ;
33 -> 35 ;
36 [label=<gini = 0.0<br/>samples = 1<br/>value = [0, 0, 0, 0, 2]<br/>class = Sintéticos>, fillcolor="#e539c0"] ;
35 -> 36 ;
37 [label=<gini = 0.0<br/>samples = 3<br/>value = [0, 0, 0, 3, 0]<br/>class = Mixto>, fillcolor="#3c39e5"] ;
35 -> 37 ;
38 [label=<Poliester &le; 49.995<br/>gini = 0.012<br/>samples = 1501<br/>value = [0, 0, 0, 2309, 14]<br/>class = Mixto>, fillcolor="#3d3ae5"] ;
32 -> 38 ;
39 [label=<gini = 0.0<br/>samples = 1490<br/>value = [0, 0, 0, 2309, 0]<br/>class = Mixto>, fillcolor="#3c39e5"] ;
38 -> 39 ;
40 [label=<gini = 0.0<br/>samples = 11<br/>value = [0, 0, 0, 0, 14]<br/>class = Sintéticos>, fillcolor="#e539c0"] ;
38 -> 40 ;
41 [label=<gini = 0.0<br/>samples = 4<br/>value = [0, 0, 5, 0, 0]<br/>class = Lana>, fillcolor="#39e5c5"] ;
31 -> 41 ;
42 [label=<Lana &le; 48.685<br/>gini = 0.162<br/>samples = 27<br/>value = [0, 0, 4, 41, 0]<br/>class = Mixto>, fillcolor="#4f4ce8"] ;
30 -> 42 ;
43 [label=<gini = 0.0<br/>samples = 25<br/>value = [0, 0, 0, 41, 0]<br/>class = Mixto>, fillcolor="#3c39e5"] ;
42 -> 43 ;
44 [label=<gini = 0.0<br/>samples = 2<br/>value = [0, 0, 4, 0, 0]<br/>class = Lana>, fillcolor="#39e5c5"] ;
42 -> 44 ;
45 [label=<gini = 0.0<br/>samples = 90<br/>value = [0, 147, 0, 0, 0]<br/>class = Delicados>, fillcolor="#7be539"] ;
9 -> 45 ;
46 [label=<Lana &le; 50.045<br/>gini = 0.285<br/>samples = 266<br/>value = [0, 68, 6, 364, 0]<br/>class = Mixto>, fillcolor="#6361ea"] ;
8 -> 46 ;
47 [label=<Lana &le; 17.185<br/>gini = 0.265<br/>samples = 260<br/>value = [0, 68, 0, 364, 0]<br/>class = Mixto>, fillcolor="#605eea"] ;
46 -> 47 ;
48 [label=<Seda &le; 29.675<br/>gini = 0.487<br/>samples = 28<br/>value = [0, 18, 0, 25, 0]<br/>class = Mixto>, fillcolor="#c8c8f8"] ;
47 -> 48 ;
49 [label=<gini = 0.0<br/>samples = 17<br/>value = [0, 0, 0, 25, 0]<br/>class = Mixto>, fillcolor="#3c39e5"] ;
48 -> 49 ;
50 [label=<gini = 0.0<br/>samples = 11<br/>value = [0, 18, 0, 0, 0]<br/>class = Delicados>, fillcolor="#7be539"] ;
48 -> 50 ;
51 [label=<Elastano &le; 2.295<br/>gini = 0.224<br/>samples = 232<br/>value = [0, 50, 0, 339, 0]<br/>class = Mixto>, fillcolor="#5956e9"] ;
47 -> 51 ;
52 [label=<Seda &le; 29.89<br/>gini = 0.337<br/>samples = 89<br/>value = [0, 33, 0, 121, 0]<br/>class = Mixto>, fillcolor="#716fec"] ;
51 -> 52 ;
53 [label=<gini = 0.0<br/>samples = 71<br/>value = [0, 0, 0, 121, 0]<br/>class = Mixto>, fillcolor="#3c39e5"] ;
52 -> 53 ;
54 [label=<gini = 0.0<br/>samples = 18<br/>value = [0, 33, 0, 0, 0]<br/>class = Delicados>, fillcolor="#7be539"] ;
52 -> 54 ;
55 [label=<Seda &le; 30.315<br/>gini = 0.134<br/>samples = 143<br/>value = [0, 17, 0, 218, 0]<br/>class = Mixto>, fillcolor="#4b48e7"] ;
51 -> 55 ;
56 [label=<gini = 0.0<br/>samples = 132<br/>value = [0, 0, 0, 218, 0]<br/>class = Mixto>, fillcolor="#3c39e5"] ;
55 -> 56 ;
57 [label=<gini = 0.0<br/>samples = 11<br/>value = [0, 17, 0, 0, 0]<br/>class = Delicados>, fillcolor="#7be539"] ;
55 -> 57 ;
58 [label=<gini = 0.0<br/>samples = 6<br/>value = [0, 0, 6, 0, 0]<br/>class = Lana>, fillcolor="#39e5c5"] ;
46 -> 58 ;
}