digraph Tree {
node [shape=box, style="filled, rounded", color="black", fontname="helvetica"] ;
edge [fontname="helvetica"] ;
0 [label=<Peso &le; 4.035<br/>gini = 0.624<br/>samples = 5023<br/>value = [3172, 195, 23, 3596, 1014]<br/>class = Mixto>, fillcolor="#eeeefd"] ;
1 [label=<Lana &le; 0.005<br/>gini = 0.54<br/>samples = 2758<br/>value = [397.0, 195.0, 23.0, 2752.0, 996.0]<br/>class = Mixto>, fillcolor="#9998f1"] ;
0 -> 1 [labeldistance=2.5, labelangle=45, headlabel="True"] ;
2 [label=<Algodon &le; 70.195<br/>gini = 0.62<br/>samples = 1249<br/>value = [397.0, 0.0, 0.0, 582.0, 982.0]<br/>class = Sintéticos>, fillcolor="#f7c6ed"] ;
1 -> 2 ;
3 [label=<Poliester &le; 49.995<br/>gini = 0.467<br/>samples = 1000<br/>value = [0, 0, 0, 582, 982]<br/>class = Sintéticos>, fillcolor="#f4aee5"] ;
2 -> 3 ;
4 [label=<gini = 0.0<br/>samples = 384<br/>value = [0, 0, 0, 582, 0]<br/>class = Mixto>, fillcolor="#3c39e5"] ;
3 -> 4 ;
5 [label=<gini = 0.0<br/>samples = 616<br/>value = [0, 0, 0, 0, 982]<br/>class = Sintéticos>, fillcolor="#e539c0"] ;
3 -> 5 ;
6 [label=<gini = 0.0<br/>samples = 249<br/>value = [397, 0, 0, 0, 0]<br/>class = Algodón>, fillcolor="#e58139"] ;
2 -> 6 ;
7 [label=<Lana &le; 50.175<br/>gini = 0.177<br/>samples = 1509<br/>value = [0, 195, 23, 2170, 14]<br/>class = Mixto>, fillcolor="#504ee8"] ;
1 -> 7 ;
8 [label=<Algodon &le; 13.995<br/>gini = 0.161<br/>samples = 1493<br/>value = [0.0, 195.0, 0.0, 2170.0, 14.0]<br/>class = Mixto>, fillcolor="#4f4ce7"] ;
7 -> 8 ;
9 [label=<Poliester &le; 7.965<br/>gini = 0.354<br/>samples = 358<br/>value = [0, 129, 0, 432, 0]<br/>class = Mixto>, fillcolor="#7674ed"] ;
8 -> 9 ;
10 [label=<Seda &le; 30.015<br/>gini = 0.498<br/>samples = 51<br/>value = [0, 41, 0, 36, 0]<br/>class = Delicados>, fillcolor="#effce7"] ;
9 -> 10 ;
11 [label=<gini = 0.0<br/>samples = 23<br/>value = [0, 0, 0, 36, 0]<br/>class = Mixto>, fillcolor="#3c39e5"] ;
10 -> 11 ;
12 [label=<gini = 0.0<br/>samples = 28<br/>value = [0, 41, 0, 0, 0]<br/>class = Delicados>, fillcolor="#7be539"] ;
10 -> 12 ;
13 [label=<Algodon &le; 0.145<br/>gini = 0.298<br/>samples = 307<br/>value = [0, 88, 0, 396, 0]<br/>class = Mixto>, fillcolor="#6765eb"] ;
9 -> 13 ;
14 [label=<gini = 0.0<br/>samples = 2<br/>value = [0, 5, 0, 0, 0]<br/>class = Delicados>, fillcolor="#7be539"] ;
13 -> 14 ;
15 [label=<Poliester &le; 20.985<br/>gini = 0.287<br/>samples = 305<br/>value = [0, 83, 0, 396, 0]<br/>class = Mixto>, fillcolor="#6562ea"] ;
13 -> 15 ;
16 [label=<Algodon &le; 13.925<br/>gini = 0.391<br/>samples = 129<br/>value = [0, 58, 0, 160, 0]<br/>class = Mixto>, fillcolor="#8381ee"] ;
15 -> 16 ;
17 [label=<Seda &le; 30.035<br/>gini = 0.377<br/>samples = 128<br/>value = [0.0, 54.0, 0.0, 160.0, 0.0]<br/>class = Mixto>, fillcolor="#7e7cee"] ;
16 -> 17 ;
18 [label=<gini = 0.0<br/>samples = 96<br/>value = [0, 0, 0, 160, 0]<br/>class = Mixto>, fillcolor="#3c39e5"] ;
17 -> 18 ;
19 [label=<gini = 0.0<br/>samples = 32<br/>value = [0, 54, 0, 0, 0]<br/>class = Delicados>, fillcolor="#7be539"] ;
17 -> 19 ;
20 [label=<gini = 0.0<br/>samples = 1<br/>value = [0, 4, 0, 0, 0]<br/>class = Delicados>, fillcolor="#7be539"] ;
16 -> 20 ;
21 [label=<Seda &le; 30.095<br/>gini = 0.173<br/>samples = 176<br/>value = [0, 25, 0, 236, 0]<br/>class = Mixto>, fillcolor="#514ee8"] ;
15 -> 21 ;
22 [label=<gini = 0.0<br/>samples = 159<br/>value = [0, 0, 0, 236, 0]<br/>class = Mixto>, fillcolor="#3c39e5"] ;
21 -> 22 ;
23 [label=<gini = 0.0<br/>samples = 17<br/>value = [0, 25, 0, 0, 0]<br/>class = Delicados>, fillcolor="#7be539"] ;
21 -> 23 ;
24 [label=<Poliester &le; 49.99<br/>gini = 0.085<br/>samples = 1135<br/>value = [0, 66, 0, 1738, 14]<br/>class = Mixto>, fillcolor="#4542e6"] ;
8 -> 24 ;
25 [label=<Seda &le; 30.155<br/>gini = 0.07<br/>samples = 1126<br/>value = [0, 66, 0, 1738, 0]<br/>class = Mixto>, fillcolor="#4341e6"] ;
24 -> 25 ;
26 [label=<gini = 0.0<br/>samples = 1085<br/>value = [0, 0, 0, 1738, 0]<br/>class = Mixto>, fillcolor="#3c39e5"] ;
25 -> 26 ;
27 [label=<gini = 0.0<br/>samples = 41<br/>value = [0, 66, 0, 0, 0]<br/>class = Delicados>, fillcolor="#7be539"] ;
25 -> 27 ;
28 [label=<gini = 0.0<br/>samples = 9<br/>value = [0, 0, 0, 0, 14]<br/>class = Sintéticos>, fillcolor="#e539c0"] ;
24 -> 28 ;
29 [label=<gini = 0.0<br/>samples = 16<br/>value = [0, 0, 23, 0, 0]<br/>class = Lana>, fillcolor="#39e5c5"] ;
7 -> 29 ;
30 [label=<Poliester &le; 19.915<br/>gini = 0.364<br/>samples = 2265<br/>value = [2775, 0, 0, 844, 18]<br/>class = Algodón>, fillcolor="#eda876"] ;
0 -> 30 [labeldistance=2.5, labelangle=-45, headlabel="False"] ;
31 [label=<Viscosa &le; 7.22<br/>gini = 0.029<br/>samples = 1750<br/>value = [2771, 0, 0, 41, 0]<br/>class = Algodón>, fillcolor="#e5833c"] ;
30 -> 31 ;
32 [label=<Algodon &le; 70.055<br/>gini = 0.008<br/>samples = 1562<br/>value = [2494, 0, 0, 10, 0]<br/>class = Algodón>, fillcolor="#e5823a"] ;
31 -> 32 ;
33 [label=<gini = 0.0<br/>samples = 7<br/>value = [0, 0, 0, 10, 0]<br/>class = Mixto>, fillcolor="#3c39e5"] ;
32 -> 33 ;
34 [label=<gini = 0.0<br/>samples = 1555<br/>value = [2494, 0, 0, 0, 0]<br/>class = Algodón>, fillcolor="#e58139"] ;
32 -> 34 ;
35 [label=<Algodon &le; 70.125<br/>gini = 0.181<br/>samples = 188<br/>value = [277, 0, 0, 31, 0]<br/>class = Algodón>, fillcolor="#e88f4f"] ;
31 -> 35 ;
36 [label=<gini = 0.0<br/>samples = 18<br/>value = [0, 0, 0, 31, 0]<br/>class = Mixto>, fillcolor="#3c39e5"] ;
35 -> 36 ;
37 [label=<gini = 0.0<br/>samples = 170<br/>value = [277, 0, 0, 0, 0]<br/>class = Algodón>, fillcolor="#e58139"] ;
35 -> 37 ;
38 [label=<Nylon &le; 0.005<br/>gini = 0.052<br/>samples = 515<br/>value = [4, 0, 0, 803, 18]<br/>class = Mixto>, fillcolor="#413ee6"] ;
30 -> 38 ;
39 [label=<Viscosa &le; 2.7<br/>gini = 0.298<br/>samples = 11<br/>value = [4, 0, 0, 18, 0]<br/>class = Mixto>, fillcolor="#6765eb"] ;
38 -> 39 ;
40 [label=<Algodon &le; 69.945<br/>gini = 0.444<br/>samples = 3<br/>value = [4, 0, 0, 2, 0]<br/>class = Algodón>, fillcolor="#f2c09c"] ;
39 -> 40 ;
41 [label=<gini = 0.0<br/>samples = 1<br/>value = [0, 0, 0, 2, 0]<br/>class = Mixto>, fillcolor="#3c39e5"] ;
40 -> 41 ;
42 [label=<gini = 0.0<br/>samples = 2<br/>value = [4, 0, 0, 0, 0]<br/>class = Algodón>, fillcolor="#e58139"] ;
40 -> 42 ;
43 [label=<gini = 0.0<br/>samples = 8<br/>value = [0, 0, 0, 16, 0]<br/>class = Mixto>, fillcolor="#3c39e5"] ;
39 -> 43 ;
44 [label=<Algodon &le; 37.905<br/>gini = 0.044<br/>samples = 504<br/>value = [0, 0, 0, 785, 18]<br/>class = Mixto>, fillcolor="#403ee6"] ;
38 -> 44 ;
45 [label=<Viscosa &le; 4.9<br/>gini = 0.383<br/>samples = 37<br/>value = [0.0, 0.0, 0.0, 43.0, 15.0]<br/>class = Mixto>, fillcolor="#807eee"] ;
44 -> 45 ;
46 [label=<Peso &le; 4.925<br/>gini = 0.497<br/>samples = 13<br/>value = [0, 0, 0, 11, 13]<br/>class = Sintéticos>, fillcolor="#fbe1f5"] ;
45 -> 46 ;
47 [label=<Peso &le; 4.27<br/>gini = 0.43<br/>samples = 8<br/>value = [0, 0, 0, 11, 5]<br/>class = Mixto>, fillcolor="#9593f1"] ;
46 -> 47 ;
48 [label=<gini = 0.0<br/>samples = 2<br/>value = [0, 0, 0, 0, 4]<br/>class = Sintéticos>, fillcolor="#e539c0"] ;
47 -> 48 ;
49 [label=<Fibra &le; 1.48<br/>gini = 0.153<br/>samples = 6<br/>value = [0, 0, 0, 11, 1]<br/>class = Mixto>, fillcolor="#4e4be7"] ;
47 -> 49 ;
50 [label=<gini = 0.0<br/>samples = 1<br/>value = [0, 0, 0, 0, 1]<br/>class = Sintéticos>, fillcolor="#e539c0"] ;
49 -> 50 ;
51 [label=<gini = 0.0<br/>samples = 5<br/>value = [0, 0, 0, 11, 0]<br/>class = Mixto>, fillcolor="#3c39e5"] ;
49 -> 51 ;
52 [label=<gini = 0.0<br/>samples = 5<br/>value = [0, 0, 0, 0, 8]<br/>class = Sintéticos>, fillcolor="#e539c0"] ;
46 -> 52 ;
53 [label=<Poliester &le; 49.86<br/>gini = 0.111<br/>samples = 24<br/>value = [0, 0, 0, 32, 2]<br/>class = Mixto>, fillcolor="#4845e7"] ;
45 -> 53 ;
54 [label=<gini = 0.0<br/>samples = 23<br/>value = [0, 0, 0, 32, 0]<br/>class = Mixto>, fillcolor="#3c39e5"] ;
53 -> 54 ;
55 [label=<gini = 0.0<br/>samples = 1<br/>value = [0, 0, 0, 0, 2]<br/>class = Sintéticos>, fillcolor="#e539c0"] ;
53 -> 55 ;
56 [label=<Elastano &le; 0.35<br/>gini = 0.008<br/>samples = 467<br/>value = [0.0, 0.0, 0.0, 742.0, 3.0]<br/>class = Mixto>, fillcolor="#3d3ae5"] ;
44 -> 56 ;
57 [label=<Nylon &le; 1.445<br/>gini = 0.12<br/>samples = 35<br/>value = [0.0, 0.0, 0.0, 44.0, 3.0]<br/>class = Mixto>, fillcolor="#4946e7"] ;
56 -> 57 ;
58 [label=<Poliester &le; 45.3<br/>gini = 0.42<br/>samples = 9<br/>value = [0, 0, 0, 7, 3]<br/>class = Mixto>, fillcolor="#908ef0"] ;
57 -> 58 ;
59 [label=<gini = 0.0<br/>samples = 7<br/>value = [0, 0, 0, 7, 0]<br/>class = Mixto>, fillcolor="#3c39e5"] ;
58 -> 59 ;
60 [label=<gini = 0.0<br/>samples = 2<br/>value = [0, 0, 0, 0, 3]<br/>class = Sintéticos>, fillcolor="#e539c0"] ;
58 -> 60 ;
61 [label=<gini = 0.0<br/>samples = 26<br/>value = [0, 0, 0, 37, 0]<br/>class = Mixto>, fillcolor="#3c39e5"] ;
57 -> 61 ;
62 [label=<gini = 0.0<br/>samples = 432<br/>value = [0, 0, 0, 698, 0]<br/>class = Mixto>, fillcolor="#3c39e5"] ;
56 -> 62 ;
}